{"learner":{"attributes":{},"feature_names":["IP_Address_Flag","Suspicious_IP_Flag","Previous_Fraudulent_Activity","Daily_Transaction_Count","Failed_Transaction_Count_7d","Account_Age","Is_Weekend","IsNight","Time_Since_Last_Transaction","Distance_From_Distance_Avg_7d","Transaction_To_Balance_Ratio"],"feature_types":["int","int","int","int","int","int","int","int","int","float","float"],"gradient_booster":{"model":{"gbtree_model_param":{"num_parallel_tree":"1","num_trees":"100"},"iteration_indptr":[0,1,2,3,4,5,6,7,8,9,10,11,12,13,14,15,16,17,18,19,20,21,22,23,24,25,26,27,28,29,30,31,32,33,34,35,36,37,38,39,40,41,42,43,44,45,46,47,48,49,50,51,52,53,54,55,56,57,58,59,60,61,62,63,64,65,66,67,68,69,70,71,72,73,74,75,76,77,78,79,80,81,82,83,84,85,86,87,88,89,90,91,92,93,94,95,96,97,98,99,100],"tree_info":[0,0,0,0,0,0,0,0,0,0,0,0,0,0,0,0,0,0,0,0,0,0,0,0,0,0,0,0,0,0,0,0,0,0,0,0,0,0,0,0,0,0,0,0,0,0,0,0,0,0,0,0,0,0,0,0,0,0,0,0,0,0,0,0,0,0,0,0,0,0,0,0,0,0,0,0,0,0,0,0,0,0,0,0,0,0,0,0,0,0,0,0,0,0,0,0,0,0,0,0],"trees":[{"base_weights":[-3.5442974E-2,-5.3384835E-1,4.5694807E-1,-7.349312E-1,2.6746956E-1,2.5842312E-1,1.2598528E0,-9.7500086E-1,-4.8519057E-1,6.8694726E-2,5.933566E-1,1.0631651E-2,5.0513047E-1,1.0438671E0,1.6063956E0,-1.1223141E0,-6.2248343E-1,-6.7049146E-1,-1.815082E-1,-1.5984312E-1,3.0184776E-1,4.2250207E-1,1.0210532E0,-1.528969E-1,3.8691396E-1,3.299063E-1,8.0183667E-1,8.71014E-1,1.4510592E0,1.3493006E0,1.8557208E0,-1.2967962E0,-8.3159316E-1,-7.9020274E-1,-3.4588867E-1,-8.2183015E-1,-3.1965554E-1,-3.4226766E-1,2.0828941E-1,-2.8385222E-1,1.1996735E-1,1.443289E-1,6.400616E-1,1.4075942E-1,7.0742714E-1,1.4099996E0,9.467421E-1,-3.5296834E-1,1.7627545E-1,2.338341E-1,6.356787E-1,2.013198E-1,6.2548715E-1,6.583594E-1,1.1471403E0,5.937704E-1,1.1482049E0,1.1871778E0,1.6633645E0,1.2622962E0,6.4497125E-1,1.6582992E0,2.286387E0,-3.994749E-1,-2.5924036E-1,-2.6260465E-1,-1.046136E-1,-2.5168052E-1,-6.607407E-2,-1.1688667E-1,3.7594926E-2,-2.5641713E-1,-1.4264274E-1,-1.0957675E-1,6.460557E-2,-1.1859044E-1,9.634818E-2,1.04498245E-1,2.2556592E-2,-9.8025836E-2,7.294873E-2,2.8042376E-1,2.2325419E-2,1.8022338E-1,2.214029E-2,-4.8734277E-2,2.0847045E-1,2.1059331E-1,1.9357104E-2,4.401051E-1,1.938973E-1,-2.3230448E-1,4.580924E-1,1.799003E-1,3.2032523E-1,-1.1762536E-1,3.253599E-2,2.1268082E-1,4.736233E-2,5.5764023E-2,2.3002781E-1,5.3697413E-1,1.8483226E-1,4.5149777E-2,2.4167877E-1,1.7452082E-1,3.3538824E-1,1.8596013E-1,3.2636043E-1,9.3514495E-2,3.5476238E-1,1.6534278E-1,3.2091278E-1,3.2478976E-1,5.5160445E-1,1.618232E-1,3.748309E-1,5.015039E-1,5.3920183E-2,3.4027568E-1,4.6834716E-1,5.070725E-1,2.3093222E-1,3.284139E-1,6.93581E-1],"categories":[],"categories_nodes":[],"categories_segments":[],"categories_sizes":[],"default_left":[0,0,0,0,0,0,0,0,0,0,0,0,0,0,0,0,0,0,0,0,0,0,0,0,0,0,0,0,0,0,0,0,0,0,0,0,0,0,0,0,0,0,0,0,0,0,0,0,0,0,0,0,0,0,0,0,0,0,0,0,0,0,0,0,0,0,0,0,0,0,0,0,0,0,0,0,0,0,0,0,0,0,0,0,0,0,0,0,0,0,0,0,0,0,0,0,0,0,0,0,0,0,0,0,0,0,0,0,0,0,0,0,0,0,0,0,0,0,0,0,0,0,0,0,0],"id":0,"left_children":[1,3,5,7,9,11,13,15,17,19,21,23,25,27,29,31,33,35,37,39,41,43,45,47,49,51,53,55,57,59,61,63,65,67,69,71,73,75,77,79,81,83,85,87,89,91,93,95,97,99,101,103,105,107,109,111,113,115,117,119,-1,121,123,-1,-1,-1,-1,-1,-1,-1,-1,-1,-1,-1,-1,-1,-1,-1,-1,-1,-1,-1,-1,-1,-1,-1,-1,-1,-1,-1,-1,-1,-1,-1,-1,-1,-1,-1,-1,-1,-1,-1,-1,-1,-1,-1,-1,-1,-1,-1,-1,-1,-1,-1,-1,-1,-1,-1,-1,-1,-1,-1,-1,-1,-1],"loss_changes":[4.305009E3,1.4049006E3,1.4062416E3,4.1736865E2,1.1329037E2,4.325787E2,1.292395E2,1.8378076E2,1.9220734E2,5.8012367E1,4.7994675E1,2.1735527E2,1.8408453E2,7.477759E1,4.0424805E1,1.25948E2,4.8401184E1,1.1241852E2,8.131816E1,1.9118692E1,2.8613441E1,3.805059E1,4.112137E0,1.6222519E2,4.0600494E1,8.466939E1,6.443628E1,5.77948E1,1.5977966E1,2.0508423E1,2.4889404E1,2.2376465E1,1.9598633E1,1.7935669E1,8.247391E0,1.647821E1,1.5722008E1,3.243814E1,7.041935E0,8.702627E0,6.224883E0,1.1830685E1,7.6349792E0,1.0231764E1,1.0007034E1,8.384613E0,6.1329803E0,2.7690277E1,9.018185E0,1.6826988E1,8.092453E0,4.7667515E1,1.3911804E1,1.4733276E1,1.1014954E1,7.170639E0,1.5188416E1,5.228714E0,1.8594055E0,9.829163E0,0E0,5.3668823E0,6.170044E-1,0E0,0E0,0E0,0E0,0E0,0E0,0E0,0E0,0E0,0E0,0E0,0E0,0E0,0E0,0E0,0E0,0E0,0E0,0E0,0E0,0E0,0E0,0E0,0E0,0E0,0E0,0E0,0E0,0E0,0E0,0E0,0E0,0E0,0E0,0E0,0E0,0E0,0E0,0E0,0E0,0E0,0E0,0E0,0E0,0E0,0E0,0E0,0E0,0E0,0E0,0E0,0E0,0E0,0E0,0E0,0E0,0E0,0E0,0E0,0E0,0E0,0E0],"parents":[2147483647,0,0,1,1,2,2,3,3,4,4,5,5,6,6,7,7,8,8,9,9,10,10,11,11,12,12,13,13,14,14,15,15,16,16,17,17,18,18,19,19,20,20,21,21,22,22,23,23,24,24,25,25,26,26,27,27,28,28,29,29,30,30,31,31,32,32,33,33,34,34,35,35,36,36,37,37,38,38,39,39,40,40,41,41,42,42,43,43,44,44,45,45,46,46,47,47,48,48,49,49,50,50,51,51,52,52,53,53,54,54,55,55,56,56,57,57,58,58,59,59,61,61,62,62],"right_children":[2,4,6,8,10,12,14,16,18,20,22,24,26,28,30,32,34,36,38,40,42,44,46,48,50,52,54,56,58,60,62,64,66,68,70,72,74,76,78,80,82,84,86,88,90,92,94,96,98,100,102,104,106,108,110,112,114,116,118,120,-1,122,124,-1,-1,-1,-1,-1,-1,-1,-1,-1,-1,-1,-1,-1,-1,-1,-1,-1,-1,-1,-1,-1,-1,-1,-1,-1,-1,-1,-1,-1,-1,-1,-1,-1,-1,-1,-1,-1,-1,-1,-1,-1,-1,-1,-1,-1,-1,-1,-1,-1,-1,-1,-1,-1,-1,-1,-1,-1,-1,-1,-1,-1,-1],"split_conditions":[2E0,1E0,1E0,1.01009E-1,1E0,9.9562E-2,1E0,1E0,1E0,1.00319E-1,1E0,1E0,1E0,1E0,9.8782E-2,1E0,1E0,1E0,1E0,1E0,1E0,1.01009E-1,6.51E0,1E0,1E0,1E0,1E0,1.01009E-1,9.2547E-2,3E0,1E0,3E0,3E0,3E0,3E0,3E0,3E0,3E0,3.55E2,3E0,2E0,1.13635E-1,2E0,1.16E2,1.08624E-1,5.851E-3,1.663E1,3E0,3.7E1,3E0,1.7E1,3E0,3E0,3E0,1.04255E-1,3E0,3E0,8.911E-3,8.686144E0,1E0,6.4497125E-1,6.88E2,2.2E1,-3.994749E-1,-2.5924036E-1,-2.6260465E-1,-1.046136E-1,-2.5168052E-1,-6.607407E-2,-1.1688667E-1,3.7594926E-2,-2.5641713E-1,-1.4264274E-1,-1.0957675E-1,6.460557E-2,-1.1859044E-1,9.634818E-2,1.04498245E-1,2.2556592E-2,-9.8025836E-2,7.294873E-2,2.8042376E-1,2.2325419E-2,1.8022338E-1,2.214029E-2,-4.8734277E-2,2.0847045E-1,2.1059331E-1,1.9357104E-2,4.401051E-1,1.938973E-1,-2.3230448E-1,4.580924E-1,1.799003E-1,3.2032523E-1,-1.1762536E-1,3.253599E-2,2.1268082E-1,4.736233E-2,5.5764023E-2,2.3002781E-1,5.3697413E-1,1.8483226E-1,4.5149777E-2,2.4167877E-1,1.7452082E-1,3.3538824E-1,1.8596013E-1,3.2636043E-1,9.3514495E-2,3.5476238E-1,1.6534278E-1,3.2091278E-1,3.2478976E-1,5.5160445E-1,1.618232E-1,3.748309E-1,5.015039E-1,5.3920183E-2,3.4027568E-1,4.6834716E-1,5.070725E-1,2.3093222E-1,3.284139E-1,6.93581E-1],"split_indices":[0,2,2,10,7,10,7,6,7,10,6,6,7,6,10,7,7,6,6,6,6,10,9,7,7,6,6,10,10,4,6,4,4,4,4,4,4,4,8,4,3,10,3,5,10,10,9,4,5,4,5,4,4,4,10,4,4,10,10,6,0,8,8,0,0,0,0,0,0,0,0,0,0,0,0,0,0,0,0,0,0,0,0,0,0,0,0,0,0,0,0,0,0,0,0,0,0,0,0,0,0,0,0,0,0,0,0,0,0,0,0,0,0,0,0,0,0,0,0,0,0,0,0,0,0],"split_type":[0,0,0,0,0,0,0,0,0,0,0,0,0,0,0,0,0,0,0,0,0,0,0,0,0,0,0,0,0,0,0,0,0,0,0,0,0,0,0,0,0,0,0,0,0,0,0,0,0,0,0,0,0,0,0,0,0,0,0,0,0,0,0,0,0,0,0,0,0,0,0,0,0,0,0,0,0,0,0,0,0,0,0,0,0,0,0,0,0,0,0,0,0,0,0,0,0,0,0,0,0,0,0,0,0,0,0,0,0,0,0,0,0,0,0,0,0,0,0,0,0,0,0,0,0],"sum_hessian":[1.7540088E4,8.716766E3,8.823322E3,6.9682383E3,1.7485275E3,7.075233E3,1.748089E3,3.5514292E3,3.416809E3,1.0868276E3,6.616998E2,3.530381E3,3.5448518E3,1.0793732E3,6.687158E2,2.5031897E3,1.0482395E3,2.1212544E3,1.2955547E3,5.4900476E2,5.3782294E2,4.742401E2,1.8745969E2,2.4613127E3,1.0690684E3,2.230003E3,1.3148489E3,7.599243E2,3.1944885E2,3.3238467E2,3.3633118E2,1.5621641E3,9.410257E2,6.51395E2,3.9684448E2,1.4810411E3,6.402132E2,9.1734656E2,3.7820813E2,3.8040067E2,1.686041E2,3.6790335E2,1.699196E2,2.3920294E2,2.3503717E2,2.7187136E1,1.6027255E2,1.5308112E3,9.3050165E2,6.630153E2,4.0605304E2,1.5551481E3,6.7485486E2,9.309401E2,3.8390866E2,3.8149692E2,3.784274E2,1.4536348E2,1.7408537E2,3.0212802E2,3.025665E1,2.3394092E2,1.0239026E2,1.4439877E3,1.1817634E2,8.6209534E2,7.89304E1,5.9965173E2,5.174326E1,3.6329907E2,3.3545418E1,1.3512445E3,1.2979665E2,5.9022394E2,4.998925E1,8.4981726E2,6.7529335E1,1.8351317E2,1.9469498E2,3.5211725E2,2.8283392E1,7.8930397E0,1.6071106E2,4.823524E1,3.196681E2,1.0743303E1,1.591763E2,2.7625639E1,2.115773E2,1.5786079E1,2.192511E2,1.0962555E0,2.6090881E1,4.2973213E1,1.1729934E2,1.4113193E3,1.19491844E2,2.981815E1,9.0068353E2,6.0951807E2,5.349727E1,5.2620263E0,4.0079102E2,1.4356561E3,1.19491844E2,6.217961E2,5.3058765E1,8.56614E2,7.432612E1,1.600533E1,3.6790335E2,3.5211725E2,2.9379646E1,3.4795148E2,3.0475903E1,1.3593568E1,1.3176991E2,1.7298912E2,1.0962555E0,2.1486607E2,8.726194E1,2.2495163E2,8.989295E0,3.0695152E0,9.932075E1],"tree_param":{"num_deleted":"0","num_feature":"11","num_nodes":"125","size_leaf_vector":"1"}},{"base_weights":[-3.388247E-2,-4.105218E-1,3.017165E-1,-5.763869E-1,1.8027537E-1,1.7359707E-1,7.8403854E-1,-7.933461E-1,-3.6737287E-1,4.6447556E-2,3.8973927E-1,8.439486E-4,3.30462E-1,6.5858537E-1,9.7988987E-1,-9.3555015E-1,-4.763444E-1,-5.1862997E-1,-1.3350897E-1,-1.14833795E-1,2.0349123E-1,2.823049E-1,6.467847E-1,-1.15806505E-1,2.5519332E-1,2.1620882E-1,5.1633114E-1,5.5693424E-1,8.9024174E-1,8.489129E-1,1.1670132E0,-1.1133944E0,-6.586277E-1,-6.1881787E-1,-2.5438887E-1,-6.4731014E-1,-2.3803915E-1,-2.5321704E-1,1.405938E-1,-2.0688887E-1,8.4152214E-2,9.9393785E-2,4.1737074E-1,9.728376E-2,4.6040034E-1,6.711134E-1,-8.995641E-2,-2.6374942E-1,1.1399319E-1,1.6149467E-1,4.0254396E-1,1.3265957E-1,4.012361E-1,4.2800346E-1,7.2143614E-1,3.8960674E-1,7.1802336E-1,6.98792E-1,9.887026E-1,7.552101E-1,1.0551269E0,1.0589492E0,1.406738E0,-3.4469524E-1,-2.0927866E-1,-2.0936178E-1,-7.7125E-2,-3.9324217E-2,-2.0264642E-1,-6.159055E-2,-1.7359243E-1,-2.0309556E-1,-1.0546704E-1,-8.17314E-2,4.2473853E-2,-8.806372E-2,6.53234E-2,5.487369E-3,7.925001E-2,-9.080555E-2,-1.4470085E-3,-1.5035237E-1,4.123371E-2,1.4161573E-2,2.0265436E-1,1.1620017E-1,5.731652E-1,1.6731052E-1,8.442351E-3,2.8776205E-1,1.2678653E-1,-6.5913565E-2,2.0660545E-1,1.3913359E-1,-2.152177E-1,8.498917E-2,-8.444925E-2,3.0077403E-2,2.335123E-1,1.6913961E-1,3.5469934E-2,3.862674E-1,1.161879E-1,2.931986E-2,1.5799528E-1,6.8003856E-2,1.46936E-1,1.2387978E-1,3.1303447E-1,2.2448204E-1,4.498663E-2,1.6240403E-1,8.411613E-2,2.0360163E-1,3.3638653E-1,7.1135573E-3,2.3173536E-1,2.820139E-1,4.275843E-1,1.4527962E-1,2.5606823E-1,8.560227E-2,3.408382E-1,3.24211E-1,9.656817E-2,4.8382053E-1,3.334639E-1],"categories":[],"categories_nodes":[],"categories_segments":[],"categories_sizes":[],"default_left":[0,0,0,0,0,0,0,0,0,0,0,0,0,0,0,0,0,0,0,0,0,0,0,0,0,0,0,0,0,0,0,0,0,0,0,0,0,0,0,0,0,0,0,0,0,0,0,0,0,0,0,0,0,0,0,0,0,0,0,0,0,0,0,0,0,0,0,0,0,0,0,0,0,0,0,0,0,0,0,0,0,0,0,0,0,0,0,0,0,0,0,0,0,0,0,0,0,0,0,0,0,0,0,0,0,0,0,0,0,0,0,0,0,0,0,0,0,0,0,0,0,0,0,0,0,0,0],"id":1,"left_children":[1,3,5,7,9,11,13,15,17,19,21,23,25,27,29,31,33,35,37,39,41,43,45,47,49,51,53,55,57,59,61,63,65,67,69,71,73,75,77,79,81,83,85,87,89,91,93,95,97,99,101,103,105,107,109,111,113,115,117,119,121,123,125,-1,-1,-1,-1,-1,-1,-1,-1,-1,-1,-1,-1,-1,-1,-1,-1,-1,-1,-1,-1,-1,-1,-1,-1,-1,-1,-1,-1,-1,-1,-1,-1,-1,-1,-1,-1,-1,-1,-1,-1,-1,-1,-1,-1,-1,-1,-1,-1,-1,-1,-1,-1,-1,-1,-1,-1,-1,-1,-1,-1,-1,-1,-1,-1],"loss_changes":[2.1895312E3,7.99923E2,5.659209E2,2.8871265E2,5.0157383E1,1.9616844E2,4.6585205E1,1.404823E2,1.14818756E2,2.7714306E1,1.9083237E1,1.02273224E2,8.045746E1,2.7167877E1,1.7354126E1,1.0550171E2,3.0521622E1,7.104431E1,4.1935135E1,9.909029E0,1.2299181E1,1.622601E1,3.732338E0,8.037274E1,1.4898811E1,3.6296227E1,2.5844086E1,2.1800552E1,6.03125E0,7.7820435E0,6.425171E0,1.8614868E1,1.3152588E1,1.6223999E1,5.945116E0,1.1621948E1,8.155342E0,1.6951683E1,5.8712215E0,7.1508512E0,5.4190464E0,1.1217213E1,7.3843784E0,7.734403E0,4.3307724E0,3.2574081E0,2.9143372E0,1.4040932E1,8.374363E0,1.1493214E1,5.1786346E0,2.2260185E1,1.1187668E1,8.951172E0,6.5300293E0,6.5435066E0,5.8433075E0,6.1736984E0,3.6114044E0,7.8149567E0,8.167847E0,3.0936127E0,3.794876E0,0E0,0E0,0E0,0E0,0E0,0E0,0E0,0E0,0E0,0E0,0E0,0E0,0E0,0E0,0E0,0E0,0E0,0E0,0E0,0E0,0E0,0E0,0E0,0E0,0E0,0E0,0E0,0E0,0E0,0E0,0E0,0E0,0E0,0E0,0E0,0E0,0E0,0E0,0E0,0E0,0E0,0E0,0E0,0E0,0E0,0E0,0E0,0E0,0E0,0E0,0E0,0E0,0E0,0E0,0E0,0E0,0E0,0E0,0E0,0E0,0E0,0E0,0E0,0E0],"parents":[2147483647,0,0,1,1,2,2,3,3,4,4,5,5,6,6,7,7,8,8,9,9,10,10,11,11,12,12,13,13,14,14,15,15,16,16,17,17,18,18,19,19,20,20,21,21,22,22,23,23,24,24,25,25,26,26,27,27,28,28,29,29,30,30,31,31,32,32,33,33,34,34,35,35,36,36,37,37,38,38,39,39,40,40,41,41,42,42,43,43,44,44,45,45,46,46,47,47,48,48,49,49,50,50,51,51,52,52,53,53,54,54,55,55,56,56,57,57,58,58,59,59,60,60,61,61,62,62],"right_children":[2,4,6,8,10,12,14,16,18,20,22,24,26,28,30,32,34,36,38,40,42,44,46,48,50,52,54,56,58,60,62,64,66,68,70,72,74,76,78,80,82,84,86,88,90,92,94,96,98,100,102,104,106,108,110,112,114,116,118,120,122,124,126,-1,-1,-1,-1,-1,-1,-1,-1,-1,-1,-1,-1,-1,-1,-1,-1,-1,-1,-1,-1,-1,-1,-1,-1,-1,-1,-1,-1,-1,-1,-1,-1,-1,-1,-1,-1,-1,-1,-1,-1,-1,-1,-1,-1,-1,-1,-1,-1,-1,-1,-1,-1,-1,-1,-1,-1,-1,-1,-1,-1,-1,-1,-1,-1],"split_conditions":[2E0,1E0,1E0,1.00319E-1,1E0,9.7151E-2,1E0,1E0,1E0,1.00319E-1,1E0,1E0,1E0,1E0,1.23083E-1,1E0,1E0,1E0,1E0,1E0,1E0,1.01009E-1,7.05E2,1E0,1E0,1E0,1E0,1.01009E-1,7.0239E-2,1E0,1E0,3E0,3E0,4.63E0,4.722E1,3E0,3E0,3E0,1E0,4.86E2,1E2,3E0,4.953224E0,1.04E2,1.07676E-1,2.7E1,3.07E1,3E1,4E0,1E2,1.7E1,3E0,2.4E2,4E0,6.88E2,4.3198E-2,3E0,4.95E0,3E0,2.87E2,4.95E0,6.94E2,3.86E2,-3.4469524E-1,-2.0927866E-1,-2.0936178E-1,-7.7125E-2,-3.9324217E-2,-2.0264642E-1,-6.159055E-2,-1.7359243E-1,-2.0309556E-1,-1.0546704E-1,-8.17314E-2,4.2473853E-2,-8.806372E-2,6.53234E-2,5.487369E-3,7.925001E-2,-9.080555E-2,-1.4470085E-3,-1.5035237E-1,4.123371E-2,1.4161573E-2,2.0265436E-1,1.1620017E-1,5.731652E-1,1.6731052E-1,8.442351E-3,2.8776205E-1,1.2678653E-1,-6.5913565E-2,2.0660545E-1,1.3913359E-1,-2.152177E-1,8.498917E-2,-8.444925E-2,3.0077403E-2,2.335123E-1,1.6913961E-1,3.5469934E-2,3.862674E-1,1.161879E-1,2.931986E-2,1.5799528E-1,6.8003856E-2,1.46936E-1,1.2387978E-1,3.1303447E-1,2.2448204E-1,4.498663E-2,1.6240403E-1,8.411613E-2,2.0360163E-1,3.3638653E-1,7.1135573E-3,2.3173536E-1,2.820139E-1,4.275843E-1,1.4527962E-1,2.5606823E-1,8.560227E-2,3.408382E-1,3.24211E-1,9.656817E-2,4.8382053E-1,3.334639E-1],"split_indices":[0,2,2,10,7,10,7,6,7,10,6,6,7,6,10,7,7,6,6,6,6,10,8,7,7,6,6,10,10,6,6,4,4,9,9,4,4,4,0,8,5,4,10,8,10,8,9,5,4,5,5,4,8,4,8,10,4,9,4,5,9,8,8,0,0,0,0,0,0,0,0,0,0,0,0,0,0,0,0,0,0,0,0,0,0,0,0,0,0,0,0,0,0,0,0,0,0,0,0,0,0,0,0,0,0,0,0,0,0,0,0,0,0,0,0,0,0,0,0,0,0,0,0,0,0,0,0],"split_type":[0,0,0,0,0,0,0,0,0,0,0,0,0,0,0,0,0,0,0,0,0,0,0,0,0,0,0,0,0,0,0,0,0,0,0,0,0,0,0,0,0,0,0,0,0,0,0,0,0,0,0,0,0,0,0,0,0,0,0,0,0,0,0,0,0,0,0,0,0,0,0,0,0,0,0,0,0,0,0,0,0,0,0,0,0,0,0,0,0,0,0,0,0,0,0,0,0,0,0,0,0,0,0,0,0,0,0,0,0,0,0,0,0,0,0,0,0,0,0,0,0,0,0,0,0,0,0],"sum_hessian":[1.7320293E4,8.161029E3,9.159264E3,6.372099E3,1.7889297E3,7.2379917E3,1.9212716E3,3.1252527E3,3.2468464E3,1.0922843E3,6.9664545E2,3.4450322E3,3.7929595E3,1.1737714E3,7.475003E2,2.1560964E3,9.691563E2,1.970901E3,1.2759456E3,5.390042E2,5.5328E2,4.927815E2,2.03864E2,2.3622122E3,1.08282E3,2.3503623E3,1.442597E3,8.1816406E2,3.5560724E2,4.4297595E2,3.0452435E2,1.3110789E3,8.450176E2,5.891758E2,3.7998053E2,1.350328E3,6.2057294E2,8.881449E2,3.8780066E2,3.684923E2,1.7051193E2,3.7313565E2,1.8014436E2,2.4244969E2,2.5033179E2,1.9743343E2,6.4305677E0,1.4369618E3,9.252504E2,6.631966E2,4.1962338E2,1.6203904E3,7.29972E2,1.010511E3,4.3208603E2,4.0298825E2,4.151758E2,1.2352305E2,2.320842E2,3.0778293E2,1.3519304E2,2.136375E2,9.088684E1,1.2060828E3,1.0499613E2,7.6911066E2,7.5906944E1,6.1675255E1,5.2750055E2,3.3143878E2,4.854177E1,1.2260234E3,1.24304596E2,5.6927124E2,5.130172E1,8.184383E2,6.9706566E1,1.9547908E2,1.9232156E2,2.4964249E2,1.18849815E2,1.3528065E1,1.5698387E2,3.4313437E2,3.0001276E1,1.778266E2,2.317762E0,3.0733109E1,2.1171658E2,1.5907567E1,2.3442421E2,3.5965033E0,1.9383693E2,3.5544612E0,2.8761067E0,4.468476E1,1.392277E3,9.0763715E2,1.761327E1,6.3223873E1,5.999727E2,5.695392E0,4.13928E2,1.4895887E3,1.308016E2,2.4687534E2,4.8309665E2,9.8798834E2,2.2522646E1,4.1240955E2,1.9676498E1,1.6700708E2,2.3598116E2,3.8070856E2,3.4467262E1,1.2281947E1,1.11241104E2,2.1164926E2,2.0434938E1,8.354626E1,2.2423666E2,1.3301837E1,1.218912E2,2.0705992E2,6.577574E0,5.090198E1,3.998486E1],"tree_param":{"num_deleted":"0","num_feature":"11","num_nodes":"127","size_leaf_vector":"1"}},{"base_weights":[-2.886755E-2,-3.1578285E-1,2.0787245E-1,-4.518857E-1,1.2439981E-1,1.19420156E-1,5.3738636E-1,-6.459179E-1,-2.732197E-1,3.2155063E-2,2.656668E-1,4.1703274E-3,2.3377211E-1,4.4797868E-1,6.7910373E-1,-7.8470075E-1,-3.6116406E-1,-3.952228E-1,-9.552359E-2,-8.396002E-2,1.4032674E-1,1.4900872E-1,3.775766E-1,-9.158519E-2,1.4965989E-1,1.6053103E-1,3.5105142E-1,3.7735656E-1,6.10406E-1,5.8129954E-1,8.2220155E-1,-9.714446E-1,-5.178282E-1,-4.8443487E-1,-1.7996019E-1,-5.066521E-1,-1.6874272E-1,-1.8230234E-1,9.4447404E-2,-1.490887E-1,8.967432E-2,1.23738766E-1,8.877255E-1,6.767594E-2,3.3526948E-1,7.4210924E-1,3.4544888E-1,-1.8663353E-1,1.0426284E-1,8.92688E-2,2.8060567E-1,1.0215661E-1,2.8837192E-1,2.9062238E-1,4.9128965E-1,3.2434094E-1,6.3868433E-1,4.9683833E-1,7.0168656E-1,5.371016E-1,1.0045764E0,7.322714E-1,1.0326707E0,-3.0361685E-1,-1.6292462E-1,1.3974535E-2,-1.6362484E-1,-1.600666E-1,9.226168E-3,-6.484394E-2,5.5400707E-2,-1.596555E-1,-7.948598E-2,-1.5355727E-2,-8.587846E-2,-6.394146E-2,4.661072E-2,-2.2914384E-1,3.3976737E-2,-6.894788E-2,6.5586553E-3,-8.787188E-3,1.24685556E-1,1.3382906E-2,8.524371E-2,-1.4608966E-2,3.9603984E-1,1.888315E-1,9.113642E-3,-2.4289829E-1,1.0996438E-1,1.4190459E-1,3.27606E-1,-8.102215E-2,1.1119356E-1,-6.5083094E-2,4.647778E-2,2.0923192E-2,1.4175464E-1,1.974639E-2,1.0707274E-1,9.831501E-2,2.0572063E-2,1.8402985E-1,2.5952397E-2,4.138693E-1,8.4145E-2,6.703754E-2,1.1528592E-1,8.891655E-2,1.682977E-1,8.687627E-2,2.1138889E-1,6.2690633E-3,2.1540894E-1,1.5934893E-1,-8.1339635E-2,2.3597705E-1,1.522254E-1,1.7867428E-1,8.75195E-2,3.3872345E-1,-2.4881919E-1,3.1920874E-1,2.0112874E-1,3.5887122E-1,2.4139588E-1],"categories":[],"categories_nodes":[],"categories_segments":[],"categories_sizes":[],"default_left":[0,0,0,0,0,0,0,0,0,0,0,0,0,0,0,0,0,0,0,0,0,0,0,0,0,0,0,0,0,0,0,0,0,0,0,0,0,0,0,0,0,0,0,0,0,0,0,0,0,0,0,0,0,0,0,0,0,0,0,0,0,0,0,0,0,0,0,0,0,0,0,0,0,0,0,0,0,0,0,0,0,0,0,0,0,0,0,0,0,0,0,0,0,0,0,0,0,0,0,0,0,0,0,0,0,0,0,0,0,0,0,0,0,0,0,0,0,0,0,0,0,0,0,0,0,0,0],"id":2,"left_children":[1,3,5,7,9,11,13,15,17,19,21,23,25,27,29,31,33,35,37,39,41,43,45,47,49,51,53,55,57,59,61,63,65,67,69,71,73,75,77,79,81,83,85,87,89,91,93,95,97,99,101,103,105,107,109,111,113,115,117,119,121,123,125,-1,-1,-1,-1,-1,-1,-1,-1,-1,-1,-1,-1,-1,-1,-1,-1,-1,-1,-1,-1,-1,-1,-1,-1,-1,-1,-1,-1,-1,-1,-1,-1,-1,-1,-1,-1,-1,-1,-1,-1,-1,-1,-1,-1,-1,-1,-1,-1,-1,-1,-1,-1,-1,-1,-1,-1,-1,-1,-1,-1,-1,-1,-1,-1],"loss_changes":[1.1487963E3,4.5813654E2,2.7002814E2,2.02297E2,2.3533386E1,9.629813E1,2.4540283E1,1.1033545E2,6.591995E1,1.3753646E1,9.258923E0,5.0727226E1,3.1448486E1,1.3594818E1,1.0110718E1,9.324353E1,2.0442055E1,4.5430267E1,2.0456467E1,5.9875164E0,6.9170113E0,5.294684E0,4.0010605E0,4.08973E1,1.1404045E1,1.6833267E1,1.1798935E1,1.1466919E1,3.4207306E0,7.931839E0,5.011963E0,1.868274E1,1.211676E1,1.384317E1,4.970544E0,7.315857E0,8.2225685E0,8.89831E0,6.3728204E0,5.312742E0,5.624117E0,7.039941E0,4.9816666E0,5.126117E0,4.1082582E0,2.1738338E0,5.310299E0,1.5343224E1,9.095999E0,6.1928096E0,4.529518E0,1.2370743E1,5.7057E0,6.12471E0,5.578903E0,9.0809555E0,6.9005775E0,4.5053253E0,2.8858032E0,5.7403564E0,1.0449654E1,3.7378387E0,2.3491364E0,0E0,0E0,0E0,0E0,0E0,0E0,0E0,0E0,0E0,0E0,0E0,0E0,0E0,0E0,0E0,0E0,0E0,0E0,0E0,0E0,0E0,0E0,0E0,0E0,0E0,0E0,0E0,0E0,0E0,0E0,0E0,0E0,0E0,0E0,0E0,0E0,0E0,0E0,0E0,0E0,0E0,0E0,0E0,0E0,0E0,0E0,0E0,0E0,0E0,0E0,0E0,0E0,0E0,0E0,0E0,0E0,0E0,0E0,0E0,0E0,0E0,0E0,0E0,0E0],"parents":[2147483647,0,0,1,1,2,2,3,3,4,4,5,5,6,6,7,7,8,8,9,9,10,10,11,11,12,12,13,13,14,14,15,15,16,16,17,17,18,18,19,19,20,20,21,21,22,22,23,23,24,24,25,25,26,26,27,27,28,28,29,29,30,30,31,31,32,32,33,33,34,34,35,35,36,36,37,37,38,38,39,39,40,40,41,41,42,42,43,43,44,44,45,45,46,46,47,47,48,48,49,49,50,50,51,51,52,52,53,53,54,54,55,55,56,56,57,57,58,58,59,59,60,60,61,61,62,62],"right_children":[2,4,6,8,10,12,14,16,18,20,22,24,26,28,30,32,34,36,38,40,42,44,46,48,50,52,54,56,58,60,62,64,66,68,70,72,74,76,78,80,82,84,86,88,90,92,94,96,98,100,102,104,106,108,110,112,114,116,118,120,122,124,126,-1,-1,-1,-1,-1,-1,-1,-1,-1,-1,-1,-1,-1,-1,-1,-1,-1,-1,-1,-1,-1,-1,-1,-1,-1,-1,-1,-1,-1,-1,-1,-1,-1,-1,-1,-1,-1,-1,-1,-1,-1,-1,-1,-1,-1,-1,-1,-1,-1,-1,-1,-1,-1,-1,-1,-1,-1,-1,-1,-1,-1,-1,-1,-1],"split_conditions":[2E0,1E0,1E0,1.0184E-1,1E0,1.02813E-1,1E0,1E0,1E0,9.9562E-2,1.01009E-1,1E0,1E0,1E0,1.23083E-1,1E0,1E0,1E0,1E0,2E0,4E0,1E0,1.08624E-1,1E0,1E0,1E0,1E0,3.11818E-1,9.2547E-2,3E0,1E0,3E0,4.5E1,3E0,3E0,3E0,1E0,3E0,8.8E-1,1E0,5.29E2,1E0,2.9E2,2.93E0,3E1,4.86E2,1.13635E-1,3E0,3E0,3E0,8.2E2,3.3E1,1.03483E-1,1.2E1,1.42135E-1,3E0,1.12E2,8.8632E-2,5E2,2E0,1.12494E-1,1.31E2,3.86E2,-3.0361685E-1,-1.6292462E-1,1.3974535E-2,-1.6362484E-1,-1.600666E-1,9.226168E-3,-6.484394E-2,5.5400707E-2,-1.596555E-1,-7.948598E-2,-1.5355727E-2,-8.587846E-2,-6.394146E-2,4.661072E-2,-2.2914384E-1,3.3976737E-2,-6.894788E-2,6.5586553E-3,-8.787188E-3,1.24685556E-1,1.3382906E-2,8.524371E-2,-1.4608966E-2,3.9603984E-1,1.888315E-1,9.113642E-3,-2.4289829E-1,1.0996438E-1,1.4190459E-1,3.27606E-1,-8.102215E-2,1.1119356E-1,-6.5083094E-2,4.647778E-2,2.0923192E-2,1.4175464E-1,1.974639E-2,1.0707274E-1,9.831501E-2,2.0572063E-2,1.8402985E-1,2.5952397E-2,4.138693E-1,8.4145E-2,6.703754E-2,1.1528592E-1,8.891655E-2,1.682977E-1,8.687627E-2,2.1138889E-1,6.2690633E-3,2.1540894E-1,1.5934893E-1,-8.1339635E-2,2.3597705E-1,1.522254E-1,1.7867428E-1,8.75195E-2,3.3872345E-1,-2.4881919E-1,3.1920874E-1,2.0112874E-1,3.5887122E-1,2.4139588E-1],"split_indices":[0,2,2,10,7,10,7,6,7,10,10,7,7,6,10,7,7,6,6,4,4,6,10,6,6,6,6,10,10,4,6,4,5,4,4,4,0,4,9,6,8,6,8,9,8,8,10,4,4,4,5,5,10,3,10,4,5,10,8,4,10,5,8,0,0,0,0,0,0,0,0,0,0,0,0,0,0,0,0,0,0,0,0,0,0,0,0,0,0,0,0,0,0,0,0,0,0,0,0,0,0,0,0,0,0,0,0,0,0,0,0,0,0,0,0,0,0,0,0,0,0,0,0,0,0,0,0],"split_type":[0,0,0,0,0,0,0,0,0,0,0,0,0,0,0,0,0,0,0,0,0,0,0,0,0,0,0,0,0,0,0,0,0,0,0,0,0,0,0,0,0,0,0,0,0,0,0,0,0,0,0,0,0,0,0,0,0,0,0,0,0,0,0,0,0,0,0,0,0,0,0,0,0,0,0,0,0,0,0,0,0,0,0,0,0,0,0,0,0,0,0,0,0,0,0,0,0,0,0,0,0,0,0,0,0,0,0,0,0,0,0,0,0,0,0,0,0,0,0,0,0,0,0,0,0,0,0],"sum_hessian":[1.6910916E4,7.645127E3,9.265789E3,5.839537E3,1.80559E3,7.305987E3,1.9598027E3,2.7981343E3,3.0414028E3,1.0930658E3,7.125241E2,3.639224E3,3.6667625E3,1.20423E3,7.5557275E2,1.8800719E3,9.180623E2,1.8025671E3,1.2388358E3,5.2728467E2,5.6578107E2,3.500025E2,3.625216E2,2.194959E3,1.4442653E3,2.25862E3,1.4081423E3,8.4162244E2,3.626075E2,4.5182367E2,3.037491E2,1.1045344E3,7.755374E2,5.4537604E2,3.7268628E2,1.2073219E3,5.9524524E2,8.504092E2,3.884266E2,3.835572E2,1.4372751E2,5.546369E2,1.1144209E1,2.4457118E2,1.0543133E2,2.7572739E1,3.3494888E2,1.4778032E3,7.171557E2,9.8956696E2,4.5469824E2,1.5518271E3,7.0679297E2,9.8624097E2,4.219014E2,7.015417E2,1.4008075E2,1.6444925E2,1.9815826E2,4.1115994E2,4.0663734E1,2.1595438E2,8.779472E1,1.0076412E3,9.68933E1,3.610897E1,7.3942847E2,4.978711E2,4.7504925E1,3.3941E2,3.3276257E1,1.0908805E3,1.1644137E2,2.98292E2,2.9695325E2,7.7958685E2,7.082235E1,7.480228E0,3.8094638E2,2.6028436E2,1.2327283E2,1.0596276E2,3.7764748E1,3.7227225E2,1.8236462E2,3.800728E0,7.343481E0,1.4238427E1,2.3033276E2,2.1419187E0,1.03289406E2,1.691574E1,1.0656999E1,1.27897E1,3.2215918E2,1.3576864E3,1.2011678E2,6.567805E2,6.0375187E1,9.110016E2,7.856536E1,3.7158978E2,8.3108444E1,4.495171E1,1.5068755E3,3.8249342E0,7.02968E2,5.7634503E2,4.0989594E2,1.1252194E2,3.0937946E2,6.4441235E2,5.7129326E1,1.6087326E1,1.2399342E2,1.5770874E2,6.740507E0,1.3577144E2,6.2386826E1,3.308749E2,8.028503E1,3.843863E1,2.2251024E0,3.1384459E1,1.8456992E2,4.8649895E1,3.9144825E1],"tree_param":{"num_deleted":"0","num_feature":"11","num_nodes":"127","size_leaf_vector":"1"}},{"base_weights":[-2.3560062E-2,-2.4098618E-1,1.4534022E-1,-3.5091695E-1,8.678946E-2,8.29593E-2,3.794146E-1,-5.2715254E-1,-2.041838E-1,2.2476627E-2,1.8414006E-1,2.4934318E-3,1.6151656E-1,3.208436E-1,5.1911414E-1,-6.898316E-1,-3.1372365E-1,-3.016411E-1,-6.858423E-2,-1.7734122E-3,2.8984943E-1,1.2567466E-1,3.2287216E-1,-6.56266E-2,1.03508934E-1,1.4025828E-1,3.9551187E-1,2.2968556E-1,4.091152E-1,4.3220648E-1,6.62227E-1,-8.6502737E-1,-3.7351817E-1,-4.042276E-1,-1.3609189E-1,-3.9372015E-1,-1.2520365E-1,-1.3321878E-1,6.814595E-2,-2.8397156E-2,2.7637333E-1,1.4551274E-1,6.9698894E-1,2.28267E-1,8.348041E-3,7.205899E-1,2.8657368E-1,-1.3485432E-1,7.240991E-2,6.4043087E-1,9.2833236E-2,8.824344E-2,2.235473E-1,6.752639E-1,2.9360026E-1,9.080558E-1,2.151543E-1,4.205251E-1,-8.002637E-2,4.007202E-1,7.5207895E-1,3.9478657E-1,7.814299E-1,-2.7297676E-1,-1.3172449E-1,1.2966526E-2,-1.2806349E-1,-1.4536534E-1,-5.861109E-2,8.8865854E-2,-4.9688585E-2,3.8440577E-3,-1.2185956E-1,2.7261308E-1,-4.0357433E-2,-3.3135626E-2,-1.2431643E-1,1.7738417E-1,1.3690914E-2,-2.5005044E-2,2.540569E-2,1.1468146E-1,-2.2566076E-1,1.2501986E-1,-8.116572E-2,5.1638263E-1,1.309284E-1,5.8817837E-2,3.3971226E-1,-1.4888984E-1,4.185699E-2,6.422366E-2,3.7322885E-1,1.0664019E-1,2.1610945E-2,5.2339986E-2,-4.626512E-2,1.2232275E-1,1.4273151E-2,-1.5060332E-2,2.4010354E-1,1.5451013E-2,5.452661E-2,3.776566E-2,-8.433807E-3,1.9328576E-1,6.354398E-2,2.762515E-1,1.337021E-1,5.7383593E-2,1.5529573E-1,4.7147736E-1,1.5536383E-1,5.5608656E-2,1.3831264E-1,2.5527915E-1,1.2132335E-1,4.1523825E-2,-4.221092E-1,1.393371E-1,6.9510825E-2,-1.7090961E-1,2.477317E-1,1.6060741E-1,-3.7346173E-2,1.7157036E-1,2.6071662E-1],"categories":[],"categories_nodes":[],"categories_segments":[],"categories_sizes":[],"default_left":[0,0,0,0,0,0,0,0,0,0,0,0,0,0,0,0,0,0,0,0,0,0,0,0,0,0,0,0,0,0,0,0,0,0,0,0,0,0,0,0,0,0,0,0,0,0,0,0,0,0,0,0,0,0,0,0,0,0,0,0,0,0,0,0,0,0,0,0,0,0,0,0,0,0,0,0,0,0,0,0,0,0,0,0,0,0,0,0,0,0,0,0,0,0,0,0,0,0,0,0,0,0,0,0,0,0,0,0,0,0,0,0,0,0,0,0,0,0,0,0,0,0,0,0,0,0,0],"id":3,"left_children":[1,3,5,7,9,11,13,15,17,19,21,23,25,27,29,31,33,35,37,39,41,43,45,47,49,51,53,55,57,59,61,63,65,67,69,71,73,75,77,79,81,83,85,87,89,91,93,95,97,99,101,103,105,107,109,111,113,115,117,119,121,123,125,-1,-1,-1,-1,-1,-1,-1,-1,-1,-1,-1,-1,-1,-1,-1,-1,-1,-1,-1,-1,-1,-1,-1,-1,-1,-1,-1,-1,-1,-1,-1,-1,-1,-1,-1,-1,-1,-1,-1,-1,-1,-1,-1,-1,-1,-1,-1,-1,-1,-1,-1,-1,-1,-1,-1,-1,-1,-1,-1,-1,-1,-1,-1,-1],"loss_changes":[6.060109E2,2.5999127E2,1.355828E2,1.3960754E2,1.1345357E1,4.6362247E1,1.582196E1,8.4987976E1,3.8961647E1,7.085676E0,5.8075733E0,2.4945898E1,1.840551E1,1.1005646E1,6.8730927E0,7.680267E1,1.7038635E1,2.7829178E1,1.0921779E1,7.4344406E0,5.2388115E0,6.123418E0,2.87035E0,2.0700115E1,8.309686E0,1.4726051E1,8.598042E0,6.516529E0,3.937706E0,3.3346176E0,6.564911E0,1.6713501E1,1.108902E1,1.1713753E1,4.6509814E0,5.7227783E0,5.8073797E0,5.3236504E0,4.648099E0,5.7003765E0,9.840313E0,7.8261356E0,5.5261307E0,7.682375E0,1.5852793E1,4.2850513E0,2.88558E0,8.665539E0,6.0081472E0,3.165163E0,5.256282E0,9.18762E0,6.3202667E0,4.1912003E0,5.126108E0,2.8025694E0,4.807396E0,4.3979416E0,5.0603366E0,3.4560013E0,3.5105934E0,5.0662556E0,2.2223358E0,0E0,0E0,0E0,0E0,0E0,0E0,0E0,0E0,0E0,0E0,0E0,0E0,0E0,0E0,0E0,0E0,0E0,0E0,0E0,0E0,0E0,0E0,0E0,0E0,0E0,0E0,0E0,0E0,0E0,0E0,0E0,0E0,0E0,0E0,0E0,0E0,0E0,0E0,0E0,0E0,0E0,0E0,0E0,0E0,0E0,0E0,0E0,0E0,0E0,0E0,0E0,0E0,0E0,0E0,0E0,0E0,0E0,0E0,0E0,0E0,0E0,0E0,0E0,0E0],"parents":[2147483647,0,0,1,1,2,2,3,3,4,4,5,5,6,6,7,7,8,8,9,9,10,10,11,11,12,12,13,13,14,14,15,15,16,16,17,17,18,18,19,19,20,20,21,21,22,22,23,23,24,24,25,25,26,26,27,27,28,28,29,29,30,30,31,31,32,32,33,33,34,34,35,35,36,36,37,37,38,38,39,39,40,40,41,41,42,42,43,43,44,44,45,45,46,46,47,47,48,48,49,49,50,50,51,51,52,52,53,53,54,54,55,55,56,56,57,57,58,58,59,59,60,60,61,61,62,62],"right_children":[2,4,6,8,10,12,14,16,18,20,22,24,26,28,30,32,34,36,38,40,42,44,46,48,50,52,54,56,58,60,62,64,66,68,70,72,74,76,78,80,82,84,86,88,90,92,94,96,98,100,102,104,106,108,110,112,114,116,118,120,122,124,126,-1,-1,-1,-1,-1,-1,-1,-1,-1,-1,-1,-1,-1,-1,-1,-1,-1,-1,-1,-1,-1,-1,-1,-1,-1,-1,-1,-1,-1,-1,-1,-1,-1,-1,-1,-1,-1,-1,-1,-1,-1,-1,-1,-1,-1,-1,-1,-1,-1,-1,-1,-1,-1,-1,-1,-1,-1,-1,-1,-1,-1,-1,-1,-1],"split_conditions":[2E0,1E0,1E0,1.00319E-1,1E0,1.02813E-1,1E0,1E0,1E0,3E0,1E0,1E0,3E0,9.8782E-2,1E0,1E0,1E0,1E0,1E0,6.63E2,3.611E1,3.86E2,3.74E0,1E0,2.1E1,1E0,1.99E2,2.1E1,3.67232E0,3E0,1.398E1,3E0,4.63E0,2E0,5.1E1,3E1,9E0,5.532E1,1.04255E-1,1E0,7.16E2,2.187E1,8E1,3.75E2,4.53E2,9.3294E-2,7.58E2,5.1E1,6.4E1,9.1E0,1E0,5.48E2,3E1,1E1,1E0,1.55E2,8.98E2,3.5E1,3E0,3.557E1,8.192E-3,1.08E1,2.95E2,-2.7297676E-1,-1.3172449E-1,1.2966526E-2,-1.2806349E-1,-1.4536534E-1,-5.861109E-2,8.8865854E-2,-4.9688585E-2,3.8440577E-3,-1.2185956E-1,2.7261308E-1,-4.0357433E-2,-3.3135626E-2,-1.2431643E-1,1.7738417E-1,1.3690914E-2,-2.5005044E-2,2.540569E-2,1.1468146E-1,-2.2566076E-1,1.2501986E-1,-8.116572E-2,5.1638263E-1,1.309284E-1,5.8817837E-2,3.3971226E-1,-1.4888984E-1,4.185699E-2,6.422366E-2,3.7322885E-1,1.0664019E-1,2.1610945E-2,5.2339986E-2,-4.626512E-2,1.2232275E-1,1.4273151E-2,-1.5060332E-2,2.4010354E-1,1.5451013E-2,5.452661E-2,3.776566E-2,-8.433807E-3,1.9328576E-1,6.354398E-2,2.762515E-1,1.337021E-1,5.7383593E-2,1.5529573E-1,4.7147736E-1,1.5536383E-1,5.5608656E-2,1.3831264E-1,2.5527915E-1,1.2132335E-1,4.1523825E-2,-4.221092E-1,1.393371E-1,6.9510825E-2,-1.7090961E-1,2.477317E-1,1.6060741E-1,-3.7346173E-2,1.7157036E-1,2.6071662E-1],"split_indices":[0,2,2,10,7,10,6,7,7,4,6,7,4,10,7,6,6,6,6,8,9,8,9,6,5,7,8,5,10,4,9,4,9,4,8,5,5,9,10,6,8,9,8,8,8,10,5,8,5,9,6,8,5,3,6,8,5,8,4,9,10,9,5,0,0,0,0,0,0,0,0,0,0,0,0,0,0,0,0,0,0,0,0,0,0,0,0,0,0,0,0,0,0,0,0,0,0,0,0,0,0,0,0,0,0,0,0,0,0,0,0,0,0,0,0,0,0,0,0,0,0,0,0,0,0,0,0],"split_type":[0,0,0,0,0,0,0,0,0,0,0,0,0,0,0,0,0,0,0,0,0,0,0,0,0,0,0,0,0,0,0,0,0,0,0,0,0,0,0,0,0,0,0,0,0,0,0,0,0,0,0,0,0,0,0,0,0,0,0,0,0,0,0,0,0,0,0,0,0,0,0,0,0,0,0,0,0,0,0,0,0,0,0,0,0,0,0,0,0,0,0,0,0,0,0,0,0,0,0,0,0,0,0,0,0,0,0,0,0,0,0,0,0,0,0,0,0,0,0,0,0,0,0,0,0,0,0],"sum_hessian":[1.6500115E4,7.2135947E3,9.2865205E3,5.4018345E3,1.8117603E3,7.3334956E3,1.9530251E3,2.4530164E3,2.9488179E3,1.0917483E3,7.2001196E2,3.6232485E3,3.7102468E3,1.3784061E3,5.74619E2,1.3907395E3,1.062277E3,1.7149994E3,1.2338185E3,1.00187427E3,8.98741E1,5.0788263E2,2.1212935E2,2.1641797E3,1.459069E3,3.402713E3,3.0753406E2,6.7988794E2,6.985182E2,3.600143E2,2.146047E2,8.9390173E2,4.968377E2,7.0288104E2,3.593959E2,1.1260865E3,5.889128E2,8.378018E2,3.9601663E2,9.151733E2,8.670096E1,6.7353676E1,2.2520424E1,2.704506E2,2.3743202E2,1.6164566E1,1.9596478E2,1.4413438E3,7.228359E2,2.729527E1,1.4317738E3,2.095876E3,1.3068368E3,8.0615326E1,2.2691875E2,1.2968796E1,6.669191E2,6.827328E2,1.5785428E1,3.2980325E2,3.0211061E1,6.749243E1,1.4711227E2,8.076395E2,8.626225E1,5.6416634E1,4.4042108E2,5.0669388E2,1.9618718E2,2.240714E1,3.3698874E2,3.3534515E1,1.092552E3,4.3997226E0,5.8451306E2,7.7633374E2,6.1468067E1,1.5294575E1,3.8072208E2,6.1605975E2,2.9911353E2,7.91775E1,7.5234604E0,4.0773243E1,2.6580431E1,3.4301567E0,1.9090267E1,2.6232257E2,8.128016E0,4.8409847E1,1.8902217E2,8.93173E0,7.2328353E0,1.4783434E2,4.8130447E1,8.443764E1,1.3569061E3,4.877507E1,6.740608E2,5.2608743E0,2.2034397E1,9.7854004E2,4.532337E2,1.583515E3,5.12361E2,3.399502E1,1.2728418E3,3.7496994E1,4.3118332E1,1.5704988E2,6.986886E1,3.680991E0,9.287805E0,5.9641095E2,7.0508194E1,2.2768833E1,6.599639E2,1.4323347E1,1.462081E0,2.3822154E2,9.15817E1,1.2399747E0,2.8971087E1,5.308967E1,1.4402761E1,4.560027E1,1.01512E2],"tree_param":{"num_deleted":"0","num_feature":"11","num_nodes":"127","size_leaf_vector":"1"}},{"base_weights":[-1.8658435E-2,-1.8171154E-1,1.02119215E-1,-2.687612E-1,6.096078E-2,5.7918057E-2,2.6977083E-1,-4.2202386E-1,-1.4979056E-1,-1.7214479E-2,1.3421795E-1,1.7923897E-2,1.4284639E-1,2.0639142E-1,3.7506154E-1,-5.774789E-1,-2.3560362E-1,-2.2538605E-1,-4.8884466E-2,-4.307764E-2,2.6897162E-1,3.946347E-1,1.2922038E-1,7.2559295E-4,2.1058993E-1,9.668021E-2,2.4566013E-1,1.849976E-1,4.524644E-1,8.3033955E-1,3.563355E-1,-7.6138043E-1,-2.8413162E-1,-3.0985284E-1,-9.75984E-2,-3.0034557E-1,-8.9238614E-2,-7.2324574E-2,2.1455227E-1,-1.50345955E-2,-3.0949652E-1,5.23561E-1,-7.659595E-2,-1.6301633E-1,1.4661576E-1,-4.3556962E-2,6.7189254E-2,1.0858495E-1,3.5108298E-1,4.2199826E-1,8.447129E-2,1.3091962E-1,3.106759E-1,2.2449788E-1,2.505224E-2,4.8524266E-1,-3.4627435E-1,1.1646377E0,6.097975E-1,-4.7252093E-2,3.8142046E-1,2.4946585E-2,-2.3681667E-1,1.22477554E-1,-9.296106E-2,5.203844E-2,-1.008987E-1,-1.7471725E-2,-1.11948684E-1,-9.759984E-2,-2.4258094E-2,-6.581327E-2,-6.247012E-3,3.5378404E-3,-3.7851166E-2,1.1385572E-1,-7.804784E-2,-1.2356214E-3,-1.7096826E-1,-8.925294E-3,-1.6135287E-1,8.0128126E-2,2.9090348E-1,-1.3857082E-1,8.6847715E-2,1.0220974E-1,-1.3528378E-1,7.022799E-2,2.5836E-2,-2.697687E-2,1.4772295E-2,1.3518874E-1,1.7736318E-2,-1.2737873E-4,8.979635E-2,1.9561477E-1,6.428086E-2,1.8082216E-1,-4.533628E-2,1.92443E-2,9.300107E-2,4.416837E-2,-2.4234156E-1,1.8090463E-1,6.713597E-2,3.861967E-2,9.324825E-2,-4.149903E-3,2.1999499E-1,1.6730545E-1,8.203637E-3,9.933943E-2,3.9319032E-1,-2.766832E-1,2.4178962E-1,9.33067E-2,-2.1555088E-1,9.838787E-2,1.550657E-1],"categories":[],"categories_nodes":[],"categories_segments":[],"categories_sizes":[],"default_left":[0,0,0,0,0,0,0,0,0,0,0,0,0,0,0,0,0,0,0,0,0,0,0,0,0,0,0,0,0,0,0,0,0,0,0,0,0,0,0,0,0,0,0,0,0,0,0,0,0,0,0,0,0,0,0,0,0,0,0,0,0,0,0,0,0,0,0,0,0,0,0,0,0,0,0,0,0,0,0,0,0,0,0,0,0,0,0,0,0,0,0,0,0,0,0,0,0,0,0,0,0,0,0,0,0,0,0,0,0,0,0,0,0,0,0,0,0,0,0],"id":4,"left_children":[1,3,5,7,9,11,13,15,17,19,21,23,25,27,29,31,33,35,37,39,41,-1,43,45,47,49,51,53,55,57,59,61,63,65,67,69,71,73,75,77,79,81,83,85,87,89,91,93,95,97,99,101,103,105,107,109,-1,111,113,115,117,-1,-1,-1,-1,-1,-1,-1,-1,-1,-1,-1,-1,-1,-1,-1,-1,-1,-1,-1,-1,-1,-1,-1,-1,-1,-1,-1,-1,-1,-1,-1,-1,-1,-1,-1,-1,-1,-1,-1,-1,-1,-1,-1,-1,-1,-1,-1,-1,-1,-1,-1,-1,-1,-1,-1,-1,-1,-1],"loss_changes":[3.1815585E2,1.4523962E2,6.876086E1,9.219672E1,1.0401091E1,2.4948933E1,1.2842957E1,6.3929626E1,2.1730087E1,6.519808E0,5.364277E0,1.6551815E1,1.1138504E1,6.290699E0,5.896225E0,6.47775E1,1.0287418E1,1.659967E1,7.5613265E0,6.0266576E0,6.463812E0,0E0,4.7752485E0,1.35030365E1,5.828367E0,6.416833E0,5.39085E0,7.043125E0,5.624361E0,1.3498421E0,7.0983124E0,1.7568085E1,8.428268E0,8.430004E0,3.8144128E0,5.7336273E0,5.15858E0,5.0875177E0,7.9376445E0,4.427848E0,4.891792E0,4.56579E0,4.625756E0,7.837973E0,4.650919E0,1.18514385E1,5.6486855E0,4.9613585E0,6.932102E0,6.152322E0,7.1629763E0,4.1768966E0,1.1651741E1,7.3559647E0,6.126641E0,3.1340504E0,0E0,7.8379345E-1,6.4338613E0,1.0279561E1,4.5997086E0,0E0,0E0,0E0,0E0,0E0,0E0,0E0,0E0,0E0,0E0,0E0,0E0,0E0,0E0,0E0,0E0,0E0,0E0,0E0,0E0,0E0,0E0,0E0,0E0,0E0,0E0,0E0,0E0,0E0,0E0,0E0,0E0,0E0,0E0,0E0,0E0,0E0,0E0,0E0,0E0,0E0,0E0,0E0,0E0,0E0,0E0,0E0,0E0,0E0,0E0,0E0,0E0,0E0,0E0,0E0,0E0,0E0,0E0],"parents":[2147483647,0,0,1,1,2,2,3,3,4,4,5,5,6,6,7,7,8,8,9,9,10,10,11,11,12,12,13,13,14,14,15,15,16,16,17,17,18,18,19,19,20,20,22,22,23,23,24,24,25,25,26,26,27,27,28,28,29,29,30,30,31,31,32,32,33,33,34,34,35,35,36,36,37,37,38,38,39,39,40,40,41,41,42,42,43,43,44,44,45,45,46,46,47,47,48,48,49,49,50,50,51,51,52,52,53,53,54,54,55,55,57,57,58,58,59,59,60,60],"right_children":[2,4,6,8,10,12,14,16,18,20,22,24,26,28,30,32,34,36,38,40,42,-1,44,46,48,50,52,54,56,58,60,62,64,66,68,70,72,74,76,78,80,82,84,86,88,90,92,94,96,98,100,102,104,106,108,110,-1,112,114,116,118,-1,-1,-1,-1,-1,-1,-1,-1,-1,-1,-1,-1,-1,-1,-1,-1,-1,-1,-1,-1,-1,-1,-1,-1,-1,-1,-1,-1,-1,-1,-1,-1,-1,-1,-1,-1,-1,-1,-1,-1,-1,-1,-1,-1,-1,-1,-1,-1,-1,-1,-1,-1,-1,-1,-1,-1,-1,-1],"split_conditions":[2E0,1E0,1E0,1.00319E-1,1.00319E-1,1.62221E-1,1E0,1E0,1E0,3E0,1.8E-1,3E0,1E0,3E0,4.1E1,1E0,1E0,1E0,3E0,9.0068E-2,4.3E2,3.946347E-1,2E0,1E0,2.671E1,3.7E1,1.614E1,2E0,3.67232E0,2.29E2,9.6E1,3.3E1,3.3E1,4.5E1,4.722E1,3E0,2.48E2,3.93E2,7.62E2,7.812E1,4.48E2,2.982E1,1E0,1.488E1,1.68595E-1,1E0,8.8E-1,4.64E2,2.95E2,2E0,3E0,1.598E1,2.258E1,9.6351E-2,1.9E1,6.32E2,-3.4627435E-1,5.99E0,2.98E2,1.3E1,1E0,2.4946585E-2,-2.3681667E-1,1.22477554E-1,-9.296106E-2,5.203844E-2,-1.008987E-1,-1.7471725E-2,-1.11948684E-1,-9.759984E-2,-2.4258094E-2,-6.581327E-2,-6.247012E-3,3.5378404E-3,-3.7851166E-2,1.1385572E-1,-7.804784E-2,-1.2356214E-3,-1.7096826E-1,-8.925294E-3,-1.6135287E-1,8.0128126E-2,2.9090348E-1,-1.3857082E-1,8.6847715E-2,1.0220974E-1,-1.3528378E-1,7.022799E-2,2.5836E-2,-2.697687E-2,1.4772295E-2,1.3518874E-1,1.7736318E-2,-1.2737873E-4,8.979635E-2,1.9561477E-1,6.428086E-2,1.8082216E-1,-4.533628E-2,1.92443E-2,9.300107E-2,4.416837E-2,-2.4234156E-1,1.8090463E-1,6.713597E-2,3.861967E-2,9.324825E-2,-4.149903E-3,2.1999499E-1,1.6730545E-1,8.203637E-3,9.933943E-2,3.9319032E-1,-2.766832E-1,2.4178962E-1,9.33067E-2,-2.1555088E-1,9.838787E-2,1.550657E-1],"split_indices":[0,2,2,10,10,10,7,7,7,4,9,4,6,4,5,6,6,6,4,10,8,0,3,7,9,5,9,4,10,8,5,5,5,5,9,4,8,5,5,9,5,9,0,9,10,6,9,8,5,4,4,9,9,10,3,8,0,9,8,3,6,0,0,0,0,0,0,0,0,0,0,0,0,0,0,0,0,0,0,0,0,0,0,0,0,0,0,0,0,0,0,0,0,0,0,0,0,0,0,0,0,0,0,0,0,0,0,0,0,0,0,0,0,0,0,0,0,0,0],"split_type":[0,0,0,0,0,0,0,0,0,0,0,0,0,0,0,0,0,0,0,0,0,0,0,0,0,0,0,0,0,0,0,0,0,0,0,0,0,0,0,0,0,0,0,0,0,0,0,0,0,0,0,0,0,0,0,0,0,0,0,0,0,0,0,0,0,0,0,0,0,0,0,0,0,0,0,0,0,0,0,0,0,0,0,0,0,0,0,0,0,0,0,0,0,0,0,0,0,0,0,0,0,0,0,0,0,0,0,0,0,0,0,0,0,0,0,0,0,0,0],"sum_hessian":[1.6153702E4,6.8736216E3,9.280081E3,5.058843E3,1.8147787E3,7.344941E3,1.9351399E3,2.2096882E3,2.8491545E3,8.782901E2,9.3648865E2,4.994268E3,2.3506726E3,1.2098406E3,7.252993E2,1.203771E3,1.0059172E3,1.6281586E3,1.2209961E3,8.06275E2,7.2015076E1,2.8406959E0,9.3364795E2,4.585911E3,4.083569E2,1.6235809E3,7.270918E2,1.1146809E3,9.515963E1,2.6941471E1,6.9835785E2,7.3893304E2,4.6483795E2,6.532253E2,3.5269193E2,1.0492567E3,5.7890173E2,1.1218972E3,9.909888E1,7.304453E2,7.582967E1,4.116936E1,3.084571E1,5.198278E1,8.8166516E2,2.7524133E3,1.8334979E3,2.3761176E2,1.7074515E2,5.751354E1,1.5660674E3,2.6407068E2,4.630211E2,8.9359424E2,2.2108665E2,9.394114E1,1.2184875E0,9.007338E0,1.7934134E1,4.0814655E1,6.575432E2,2.3656364E1,7.1527673E2,1.6127676E1,4.4871027E2,3.363716E1,6.195881E2,3.096722E2,4.3019737E1,9.415806E2,1.0767612E2,1.9871019E2,3.8019156E2,4.3817215E2,6.837251E2,7.369107E1,2.540781E1,7.173404E2,1.310495E1,3.4587296E1,4.124238E1,2.7156267E1,1.4013095E1,1.490087E1,1.594484E1,1.8840025E1,3.3142754E1,3.5927713E2,5.2238806E2,1.8353984E3,9.1701483E2,3.6654324E1,1.7968436E3,1.518336E2,8.577816E1,5.218379E1,1.18561356E2,4.368507E1,1.3828468E1,1.437787E3,1.2828036E2,2.6039014E2,3.6805463E0,1.0472693E2,3.5829416E2,4.2482544E2,4.6876883E2,2.1050967E2,1.0576969E1,8.092101E1,1.3020131E1,1.8296728E0,7.1776648E0,1.6155092E0,1.6318624E1,2.6961067E1,1.3853586E1,4.739294E2,1.8361382E2],"tree_param":{"num_deleted":"0","num_feature":"11","num_nodes":"119","size_leaf_vector":"1"}},{"base_weights":[-1.4551018E-2,-1.355056E-1,7.185691E-2,-2.0292854E-1,4.2416975E-2,4.048166E-2,1.9234361E-1,-3.3089492E-1,-1.08305395E-1,-2.7882338E-3,1.10676005E-1,-8.854221E-3,8.292872E-2,1.724466E-1,4.2164522E-1,-4.719059E-1,-1.7526594E-1,-1.6166785E-1,-8.835265E-3,-4.5466408E-2,7.611175E-2,5.520917E-1,9.6289255E-2,2.8268525E-1,-1.9008163E-2,4.8983097E-2,1.3741887E-1,1.0842286E-1,2.3669246E-1,4.513069E-1,-3.456561E-1,-6.5274286E-1,-2.162802E-1,-2.0963384E-1,1.364081E-1,-2.2771674E-1,-8.130818E-2,-3.2976575E-2,2.6160264E-1,3.8150505E-3,-1.9396947E-1,6.3118935E-1,4.6912506E-2,9.9810815E-1,1.9854404E-1,1.597915E-1,2.557247E-2,1.2306397E-1,6.265832E-1,-5.6429785E-2,5.5943184E-2,1.1371766E-1,4.8796153E-3,8.874507E-2,2.0468466E-1,8.344073E-2,3.3987546E-1,1.7384093E-1,3.483838E-1,7.400035E-1,3.645772E-1,-2.1489418E-1,-4.2482257E-2,-7.844306E-2,6.146784E-2,-8.1804395E-2,-2.9449E-2,1.0278373E-1,-5.4573115E-2,-5.8477618E-2,-1.1253971E-1,1.5126394E-1,-2.7344866E-2,1.1252475E-3,-6.662001E-2,2.2073053E-1,3.543686E-2,-9.950473E-3,1.23700015E-1,-1.1743944E-1,-2.0702153E-2,7.2920315E-2,4.0137884E-1,-2.9673164E-3,9.8007776E-2,3.8264602E-1,3.6212657E-2,-2.078136E-2,3.6537963E-1,1.440611E-1,4.2421736E-2,-1.1943508E-1,1.8151179E-2,-7.800689E-2,7.948497E-2,5.0195485E-1,1.3238826E-1,1.0815877E-1,-1.9366551E-2,1.0935449E-2,6.454135E-2,-7.718117E-2,3.9761484E-2,6.391876E-2,-5.3219576E-3,1.592465E-2,1.1288883E-1,6.581134E-2,-1.4834118E-1,-1.644582E-1,2.7482452E-2,1.823902E-1,3.8024846E-2,1.9480304E-1,4.6161395E-2,7.758279E-2,1.5242422E-1,3.0154709E-2,2.7882993E-1,5.227733E-2,1.5286332E-1],"categories":[],"categories_nodes":[],"categories_segments":[],"categories_sizes":[],"default_left":[0,0,0,0,0,0,0,0,0,0,0,0,0,0,0,0,0,0,0,0,0,0,0,0,0,0,0,0,0,0,0,0,0,0,0,0,0,0,0,0,0,0,0,0,0,0,0,0,0,0,0,0,0,0,0,0,0,0,0,0,0,0,0,0,0,0,0,0,0,0,0,0,0,0,0,0,0,0,0,0,0,0,0,0,0,0,0,0,0,0,0,0,0,0,0,0,0,0,0,0,0,0,0,0,0,0,0,0,0,0,0,0,0,0,0,0,0,0,0,0,0],"id":5,"left_children":[1,3,5,7,9,11,13,15,17,19,21,23,25,27,29,31,33,35,37,39,41,43,45,47,49,51,53,55,57,59,-1,61,63,65,67,69,71,73,75,77,79,81,83,85,87,89,91,93,95,97,99,101,103,105,107,109,111,113,115,117,119,-1,-1,-1,-1,-1,-1,-1,-1,-1,-1,-1,-1,-1,-1,-1,-1,-1,-1,-1,-1,-1,-1,-1,-1,-1,-1,-1,-1,-1,-1,-1,-1,-1,-1,-1,-1,-1,-1,-1,-1,-1,-1,-1,-1,-1,-1,-1,-1,-1,-1,-1,-1,-1,-1,-1,-1,-1,-1,-1,-1],"loss_changes":[1.6596828E2,7.938815E1,3.5008713E1,5.8071594E1,5.613961E0,1.5393686E1,8.657402E0,4.4675293E1,1.4650406E1,3.6921127E0,4.5499506E0,1.0071087E1,7.301708E0,7.2235184E0,7.6198463E0,4.929445E1,1.0430586E1,9.516689E0,6.3078656E0,5.2079787E0,6.2089243E0,3.3761826E0,3.1536264E0,6.2084036E0,9.22186E0,6.954478E0,4.9455795E0,5.0863705E0,6.108761E0,3.4858284E0,0E0,2.0234192E1,8.516466E0,6.122986E0,6.4327135E0,4.690708E0,4.7249937E0,6.1585445E0,5.300172E0,8.099892E0,4.3488417E0,4.9291697E0,5.831853E0,2.2248926E0,3.8771667E0,2.1134987E0,4.9655066E0,4.3873315E0,6.2534704E0,7.4521194E0,3.3900187E0,6.9262724E0,6.831664E0,9.01829E0,6.6360455E0,4.1758327E0,4.828189E0,5.259054E0,4.3912964E0,3.9864826E0,3.147894E0,0E0,0E0,0E0,0E0,0E0,0E0,0E0,0E0,0E0,0E0,0E0,0E0,0E0,0E0,0E0,0E0,0E0,0E0,0E0,0E0,0E0,0E0,0E0,0E0,0E0,0E0,0E0,0E0,0E0,0E0,0E0,0E0,0E0,0E0,0E0,0E0,0E0,0E0,0E0,0E0,0E0,0E0,0E0,0E0,0E0,0E0,0E0,0E0,0E0,0E0,0E0,0E0,0E0,0E0,0E0,0E0,0E0,0E0,0E0,0E0],"parents":[2147483647,0,0,1,1,2,2,3,3,4,4,5,5,6,6,7,7,8,8,9,9,10,10,11,11,12,12,13,13,14,14,15,15,16,16,17,17,18,18,19,19,20,20,21,21,22,22,23,23,24,24,25,25,26,26,27,27,28,28,29,29,31,31,32,32,33,33,34,34,35,35,36,36,37,37,38,38,39,39,40,40,41,41,42,42,43,43,44,44,45,45,46,46,47,47,48,48,49,49,50,50,51,51,52,52,53,53,54,54,55,55,56,56,57,57,58,58,59,59,60,60],"right_children":[2,4,6,8,10,12,14,16,18,20,22,24,26,28,30,32,34,36,38,40,42,44,46,48,50,52,54,56,58,60,-1,62,64,66,68,70,72,74,76,78,80,82,84,86,88,90,92,94,96,98,100,102,104,106,108,110,112,114,116,118,120,-1,-1,-1,-1,-1,-1,-1,-1,-1,-1,-1,-1,-1,-1,-1,-1,-1,-1,-1,-1,-1,-1,-1,-1,-1,-1,-1,-1,-1,-1,-1,-1,-1,-1,-1,-1,-1,-1,-1,-1,-1,-1,-1,-1,-1,-1,-1,-1,-1,-1,-1,-1,-1,-1,-1,-1,-1,-1,-1,-1],"split_conditions":[2E0,1E0,1E0,1.01009E-1,1E0,9.7151E-2,3E0,1E0,1E0,4.72E2,3E1,3.3E1,1E0,9.8782E-2,3.67232E0,1E0,3E0,1E0,3E0,3.55E2,5.6E1,1.79E1,3.83E2,1.4E1,1E0,4E2,1.2E1,9.02E2,1E0,2.41E2,-3.456561E-1,3E0,3E0,1E0,5.9744E-2,5.38527E-1,7.1E-1,1.7E1,2.21E2,3.25E2,7.7849E-2,2E0,4.453E1,1.7E1,5.57E2,1.2856E-2,4.1E2,2.784E-2,4.95E0,2.2E1,6.37E2,4.6E1,8E1,5.048E1,8.51E1,1.9E1,9.48E2,3.5E1,1.3E1,2.1E2,8.6375E-2,-2.1489418E-1,-4.2482257E-2,-7.844306E-2,6.146784E-2,-8.1804395E-2,-2.9449E-2,1.0278373E-1,-5.4573115E-2,-5.8477618E-2,-1.1253971E-1,1.5126394E-1,-2.7344866E-2,1.1252475E-3,-6.662001E-2,2.2073053E-1,3.543686E-2,-9.950473E-3,1.23700015E-1,-1.1743944E-1,-2.0702153E-2,7.2920315E-2,4.0137884E-1,-2.9673164E-3,9.8007776E-2,3.8264602E-1,3.6212657E-2,-2.078136E-2,3.6537963E-1,1.440611E-1,4.2421736E-2,-1.1943508E-1,1.8151179E-2,-7.800689E-2,7.948497E-2,5.0195485E-1,1.3238826E-1,1.0815877E-1,-1.9366551E-2,1.0935449E-2,6.454135E-2,-7.718117E-2,3.9761484E-2,6.391876E-2,-5.3219576E-3,1.592465E-2,1.1288883E-1,6.581134E-2,-1.4834118E-1,-1.644582E-1,2.7482452E-2,1.823902E-1,3.8024846E-2,1.9480304E-1,4.6161395E-2,7.758279E-2,1.5242422E-1,3.0154709E-2,2.7882993E-1,5.227733E-2,1.5286332E-1],"split_indices":[0,2,2,10,7,10,4,7,6,8,5,5,7,10,10,6,4,7,4,8,5,9,8,3,6,5,3,5,7,5,0,4,4,6,10,10,9,3,5,8,10,4,9,3,8,10,8,10,9,8,8,8,8,9,9,8,5,8,3,8,10,0,0,0,0,0,0,0,0,0,0,0,0,0,0,0,0,0,0,0,0,0,0,0,0,0,0,0,0,0,0,0,0,0,0,0,0,0,0,0,0,0,0,0,0,0,0,0,0,0,0,0,0,0,0,0,0,0,0,0,0],"split_type":[0,0,0,0,0,0,0,0,0,0,0,0,0,0,0,0,0,0,0,0,0,0,0,0,0,0,0,0,0,0,0,0,0,0,0,0,0,0,0,0,0,0,0,0,0,0,0,0,0,0,0,0,0,0,0,0,0,0,0,0,0,0,0,0,0,0,0,0,0,0,0,0,0,0,0,0,0,0,0,0,0,0,0,0,0,0,0,0,0,0,0,0,0,0,0,0,0,0,0,0,0,0,0,0,0,0,0,0,0,0,0,0,0,0,0,0,0,0,0,0,0],"sum_hessian":[1.58780205E4,6.6161323E3,9.261889E3,4.7978633E3,1.818269E3,7.349407E3,1.9124812E3,2.0385177E3,2.7593457E3,1.0944308E3,7.238383E2,3.3992627E3,3.9501445E3,1.7613931E3,1.5108803E2,1.0684204E3,9.700973E2,1.7954958E3,9.638498E2,7.1052234E2,3.839084E2,2.1667223E1,7.021711E2,1.1350393E2,3.2857588E3,2.4350718E3,1.5150729E3,8.8356793E2,8.778252E2,1.4899323E2,2.0948029E0,6.2483826E2,4.435821E2,8.7404486E2,9.6052414E1,9.8449225E2,8.1100366E2,8.856666E2,7.818316E1,5.342149E2,1.7630748E2,1.8155508E1,3.6575287E2,8.774576E0,1.2892647E1,3.6929346E2,3.3287762E2,7.84493E1,3.505463E1,2.1917244E3,1.0940344E3,9.861031E2,1.4489686E3,8.803602E2,6.347127E2,7.9871783E2,8.485012E1,5.6336304E2,3.1446213E2,3.2679825E1,1.1631341E2,5.5536487E2,6.94734E1,4.0093625E2,4.264584E1,5.5735815E2,3.1668668E2,5.824526E1,3.780716E1,8.072488E2,1.7724344E2,1.2575556E1,7.984281E2,7.4244086E2,1.432258E2,1.7203094E1,6.098007E1,4.907096E2,4.3505283E1,6.749812E1,1.0880935E2,1.25870075E1,5.568501E0,3.048284E2,6.092446E1,6.3221855E0,2.4523907E0,1.094833E1,1.9443163E0,1.8677534E1,3.506159E2,2.4562155E1,3.0831546E2,2.0977684E1,5.747162E1,4.0647707E0,3.0989859E1,4.1065254E1,2.150659E3,9.757885E2,1.18245926E2,4.699897E1,9.391041E2,1.4117906E2,1.3077896E3,7.842766E2,9.608366E1,6.2232635E2,1.2386361E1,9.352035E0,7.893658E2,3.675866E1,4.809146E1,2.1435665E1,5.4192737E2,2.029769E2,1.1148522E2,7.8179927E0,2.4861832E1,5.124228E1,6.507113E1],"tree_param":{"num_deleted":"0","num_feature":"11","num_nodes":"121","size_leaf_vector":"1"}},{"base_weights":[-1.10816E-2,-9.9916875E-2,5.0617673E-2,-1.5132284E-1,3.0111834E-2,2.8326312E-2,1.371727E-1,-2.5838757E-1,-7.912293E-2,-6.8914974E-3,1.0991556E-1,1.5970757E-2,1.6513105E-1,9.524429E-2,2.4306375E-1,-3.6235496E-1,-1.0734206E-1,-9.764777E-2,1.0005594E-1,-2.1460744E-2,1.8459037E-1,1.3906254E-1,-2.6358917E-1,2.5682884E-1,8.824023E-3,4.9739277E-1,1.4592314E-1,5.17608E-1,8.355671E-2,2.2901349E-1,9.6994144E-1,-5.658709E-1,-1.7923692E-1,1.692183E-1,-1.387688E-1,-1.5057471E-1,-3.2213096E-2,6.372599E-1,5.0174687E-2,-2.8592566E-2,4.5581776E-1,6.3296777E-1,-2.6278391E-2,5.760427E-1,1.124323E-1,-3.7986478E-1,5.468876E-1,1.6556232E-1,5.296707E-1,-2.1356544E-2,5.4403327E-2,3.0788234E-1,4.8810202E-1,-2.623999E-1,1.8908915E-1,1.4433365E-1,7.4795276E-1,1.5756166E-1,4.1113343E-2,6.3275765E-3,2.6414275E-1,3.8784057E-1,-4.4423893E-2,8.0130786E-2,-1.8030305E-1,-9.784479E-2,-2.959471E-2,1.2804587E-1,-2.0834804E-2,1.284995E-1,-4.701706E-2,1.4601985E-1,-4.791292E-2,-2.2592828E-2,1.6119406E-2,1.04162306E-1,4.3785498E-1,2.3158433E-2,-2.5370637E-1,-1.3875377E-2,4.6063084E-2,-4.6761964E-2,2.0397435E-1,-8.456097E-2,2.611949E-1,5.4937087E-2,-7.3444284E-2,2.461969E-1,2.6208231E-2,3.5885025E-2,-2.3169062E-1,-5.8584858E-2,-3.2461476E-1,2.9476327E-1,-1.699204E-1,1.1149325E-1,1.622537E-2,1.9004565E-1,-1.0767757E-1,-2.28321E-2,5.034086E-3,-1.591662E-2,2.1065628E-2,1.8907197E-2,3.1363213E-1,3.5088025E-2,-1.651136E-1,2.1920787E-1,5.1317412E-2,1.6660002E-1,-9.2227176E-2,4.42325E-2,3.2146364E-1,2.909573E-2,1.1381843E-1,3.9853794E-3,7.268555E-2,5.637521E-2,-1.18042514E-1,-6.927402E-2,8.6663246E-2],"categories":[],"categories_nodes":[],"categories_segments":[],"categories_sizes":[],"default_left":[0,0,0,0,0,0,0,0,0,0,0,0,0,0,0,0,0,0,0,0,0,0,0,0,0,0,0,0,0,0,0,0,0,0,0,0,0,0,0,0,0,0,0,0,0,0,0,0,0,0,0,0,0,0,0,0,0,0,0,0,0,0,0,0,0,0,0,0,0,0,0,0,0,0,0,0,0,0,0,0,0,0,0,0,0,0,0,0,0,0,0,0,0,0,0,0,0,0,0,0,0,0,0,0,0,0,0,0,0,0,0,0,0,0,0,0,0,0,0,0,0],"id":6,"left_children":[1,3,5,7,9,11,13,15,17,19,21,23,25,27,29,31,33,35,37,39,41,43,45,47,49,51,53,55,57,59,61,63,65,67,69,71,73,75,77,79,81,83,85,87,89,91,93,95,97,99,101,103,-1,105,107,109,111,113,115,117,119,-1,-1,-1,-1,-1,-1,-1,-1,-1,-1,-1,-1,-1,-1,-1,-1,-1,-1,-1,-1,-1,-1,-1,-1,-1,-1,-1,-1,-1,-1,-1,-1,-1,-1,-1,-1,-1,-1,-1,-1,-1,-1,-1,-1,-1,-1,-1,-1,-1,-1,-1,-1,-1,-1,-1,-1,-1,-1,-1,-1],"loss_changes":[8.585072E1,4.291591E1,1.7830667E1,3.554573E1,5.374486E0,1.2423881E1,8.380421E0,2.9054718E1,9.135654E0,3.4749978E0,6.313155E0,1.1606181E1,3.8132095E0,6.658083E0,5.2542953E0,4.0777664E1,6.600564E0,8.626499E0,6.884452E0,3.95176E0,8.344358E0,6.1663027E0,4.1732635E0,4.750639E0,9.012101E0,6.5333815E0,1.0219676E1,3.0184622E0,4.1464863E0,4.1238403E0,3.7503643E0,1.5353363E1,6.8210907E0,4.8047047E0,6.9916735E0,8.097538E0,4.1365514E0,4.703141E0,5.808599E0,3.6770077E0,2.4493468E0,6.3800497E0,2.8301542E0,3.5759869E0,3.3083239E0,4.6348467E0,3.3159525E0,3.3582072E0,4.678233E0,8.231562E0,4.4391274E0,5.2386146E0,0E0,6.1368933E0,4.9767933E0,2.9771295E0,4.164981E0,6.4342146E0,4.7084494E0,5.3652353E0,5.644203E0,0E0,0E0,0E0,0E0,0E0,0E0,0E0,0E0,0E0,0E0,0E0,0E0,0E0,0E0,0E0,0E0,0E0,0E0,0E0,0E0,0E0,0E0,0E0,0E0,0E0,0E0,0E0,0E0,0E0,0E0,0E0,0E0,0E0,0E0,0E0,0E0,0E0,0E0,0E0,0E0,0E0,0E0,0E0,0E0,0E0,0E0,0E0,0E0,0E0,0E0,0E0,0E0,0E0,0E0,0E0,0E0,0E0,0E0,0E0,0E0],"parents":[2147483647,0,0,1,1,2,2,3,3,4,4,5,5,6,6,7,7,8,8,9,9,10,10,11,11,12,12,13,13,14,14,15,15,16,16,17,17,18,18,19,19,20,20,21,21,22,22,23,23,24,24,25,25,26,26,27,27,28,28,29,29,30,30,31,31,32,32,33,33,34,34,35,35,36,36,37,37,38,38,39,39,40,40,41,41,42,42,43,43,44,44,45,45,46,46,47,47,48,48,49,49,50,50,51,51,53,53,54,54,55,55,56,56,57,57,58,58,59,59,60,60],"right_children":[2,4,6,8,10,12,14,16,18,20,22,24,26,28,30,32,34,36,38,40,42,44,46,48,50,52,54,56,58,60,62,64,66,68,70,72,74,76,78,80,82,84,86,88,90,92,94,96,98,100,102,104,-1,106,108,110,112,114,116,118,120,-1,-1,-1,-1,-1,-1,-1,-1,-1,-1,-1,-1,-1,-1,-1,-1,-1,-1,-1,-1,-1,-1,-1,-1,-1,-1,-1,-1,-1,-1,-1,-1,-1,-1,-1,-1,-1,-1,-1,-1,-1,-1,-1,-1,-1,-1,-1,-1,-1,-1,-1,-1,-1,-1,-1,-1,-1,-1,-1,-1],"split_conditions":[2E0,1E0,1E0,9.8782E-2,1E0,3E0,1E0,1E0,3E0,5.795E1,5.707E1,3E1,1.2062E-2,3E1,7.07E2,1E0,3.91E0,1E0,1.07676E-1,9.87E2,6.39E1,5.1E1,4.14202E-1,1.96438E-1,1E0,4.985E1,3.0188E-2,3E0,1E0,6.15E0,4.004E1,3.3E1,1E0,1E1,2.5E1,1.3E1,1E0,7.7E2,6.94E2,6.57E2,2.46E2,1.66E2,1E0,1.3E1,7.16E2,1.5E1,2E0,2.57E2,1.8E1,8.9382E-2,5.46E0,4E0,4.8810202E-1,1E1,3.5568E-2,1E0,1E0,2.32553E-1,3E0,4.97E2,8.192E-3,3.8784057E-1,-4.4423893E-2,8.0130786E-2,-1.8030305E-1,-9.784479E-2,-2.959471E-2,1.2804587E-1,-2.0834804E-2,1.284995E-1,-4.701706E-2,1.4601985E-1,-4.791292E-2,-2.2592828E-2,1.6119406E-2,1.04162306E-1,4.3785498E-1,2.3158433E-2,-2.5370637E-1,-1.3875377E-2,4.6063084E-2,-4.6761964E-2,2.0397435E-1,-8.456097E-2,2.611949E-1,5.4937087E-2,-7.3444284E-2,2.461969E-1,2.6208231E-2,3.5885025E-2,-2.3169062E-1,-5.8584858E-2,-3.2461476E-1,2.9476327E-1,-1.699204E-1,1.1149325E-1,1.622537E-2,1.9004565E-1,-1.0767757E-1,-2.28321E-2,5.034086E-3,-1.591662E-2,2.1065628E-2,1.8907197E-2,3.1363213E-1,3.5088025E-2,-1.651136E-1,2.1920787E-1,5.1317412E-2,1.6660002E-1,-9.2227176E-2,4.42325E-2,3.2146364E-1,2.909573E-2,1.1381843E-1,3.9853794E-3,7.268555E-2,5.637521E-2,-1.18042514E-1,-6.927402E-2,8.6663246E-2],"split_indices":[0,2,2,10,6,4,6,6,4,9,9,5,10,5,8,7,9,7,10,5,9,8,10,10,7,9,10,0,4,9,9,5,4,3,5,5,6,5,8,8,8,8,0,3,8,3,4,8,3,10,9,4,0,3,10,4,4,10,4,8,10,0,0,0,0,0,0,0,0,0,0,0,0,0,0,0,0,0,0,0,0,0,0,0,0,0,0,0,0,0,0,0,0,0,0,0,0,0,0,0,0,0,0,0,0,0,0,0,0,0,0,0,0,0,0,0,0,0,0,0,0],"split_type":[0,0,0,0,0,0,0,0,0,0,0,0,0,0,0,0,0,0,0,0,0,0,0,0,0,0,0,0,0,0,0,0,0,0,0,0,0,0,0,0,0,0,0,0,0,0,0,0,0,0,0,0,0,0,0,0,0,0,0,0,0,0,0,0,0,0,0,0,0,0,0,0,0,0,0,0,0,0,0,0,0,0,0,0,0,0,0,0,0,0,0,0,0,0,0,0,0,0,0,0,0,0,0,0,0,0,0,0,0,0,0,0,0,0,0,0,0,0,0,0,0],"sum_hessian":[1.5661203E4,6.41877E3,9.242434E3,4.60002E3,1.81875E3,7.350671E3,1.8917628E3,1.8516469E3,2.748373E3,1.243212E3,5.7553796E2,6.742809E3,6.078619E2,1.3565323E3,5.3523035E2,1.0959117E3,7.5573517E2,2.491263E3,2.571102E2,1.1561334E3,8.70786E1,5.3445844E2,4.1079544E1,1.9330019E2,6.549509E3,3.1859287E1,5.7600256E2,3.536139E1,1.321171E3,5.263709E2,8.859482E0,5.180571E2,5.778546E2,7.666718E1,6.7906793E2,1.3765427E3,1.1147201E3,2.0844673E1,2.3626552E2,1.1400383E3,1.609514E1,2.7212986E1,5.9865612E1,2.9514746E1,5.0494366E2,3.6390118E1,4.6894264E0,1.460521E2,4.7248104E1,3.9406914E3,2.6088174E3,2.8371996E1,3.4872923E0,5.4584934E1,5.2141766E2,1.4114844E1,2.1246546E1,4.8055508E2,8.406159E2,7.188278E1,4.544881E2,6.7530227E0,2.1064587E0,2.0702574E1,4.9735452E2,2.0361522E2,3.7423938E2,3.649196E1,4.0175224E1,2.0138449E1,6.589295E2,1.8713419E1,1.3578293E3,7.425144E2,3.7220572E2,1.6460478E1,4.3841963E0,2.3023523E2,6.0302863E0,1.0399572E3,1.00081154E2,4.397159E0,1.1697982E1,5.573742E0,2.1639244E1,3.065444E1,2.9211172E1,1.9216467E1,1.0298278E1,5.0173416E2,3.2095113E0,2.982752E1,6.5625987E0,3.4548867E0,1.23454E0,5.0451607E1,9.560048E1,4.2562603E1,4.6855016E0,1.617525E3,2.3231665E3,3.343956E2,2.2744216E3,2.2115446E1,6.2565503E0,2.3811472E1,3.077346E1,1.5526338E1,5.058913E2,7.2707725E0,6.844072E0,7.9496064E0,1.3296939E1,3.7860635E2,1.0194873E2,7.3939856E2,1.0121736E2,4.9795643E1,2.2087135E1,2.1230606E1,4.332575E2],"tree_param":{"num_deleted":"0","num_feature":"11","num_nodes":"121","size_leaf_vector":"1"}},{"base_weights":[-8.290459E-3,-7.305772E-2,3.577269E-2,-1.11415505E-1,2.0895211E-2,1.0108293E-2,9.253171E-2,-1.9485919E-1,-5.4354385E-2,-3.1126834E-2,6.857709E-2,2.066628E-1,4.1785394E-3,5.5961158E-2,1.3915956E-1,-3.075538E-1,-8.53297E-2,-8.878598E-2,7.5407233E-3,1.723183E-1,-5.2851304E-2,5.133207E-2,3.8328242E-1,2.5745273E-1,-1.16928354E-1,-2.20393E-2,4.3618273E-2,6.9288984E-2,-2.635416E-1,4.5491952E-1,1.2815818E-1,-4.6385345E-1,-1.315358E-1,-1.3515468E-1,3.7271652E-2,2.10598E-1,-9.878516E-2,-7.960768E-1,1.3413739E-2,-6.7049205E-2,4.4202206E-1,-7.822325E-2,1.1631453E-1,8.847305E-2,-7.648501E-2,8.0997914E-1,5.023245E-2,1.1555571E-1,4.7874558E-1,-6.4900696E-1,1.1978138E-1,2.089066E-2,-6.6870295E-2,2.1699188E-2,1.3142946E-1,5.8682762E-2,5.258046E-1,-9.138845E-1,-1.5342304E-1,1.946209E-1,7.6768047E-1,1.3868044E-1,-2.0919897E-1,-1.6181989E-1,1.3436466E-2,8.329292E-2,-4.8736915E-2,-1.8118894E-2,-1.0547418E-1,-2.3507748E-2,5.7559706E-2,2.8238225E-1,1.4991022E-2,-4.266596E-2,-1.465529E-2,-1.3254333E-2,-3.427886E-1,-1.7316902E-2,2.3058098E-2,2.5400907E-1,-6.486403E-2,-4.0475883E-2,2.1988134E-1,-3.5211306E-2,8.415424E-3,-4.4046663E-2,9.197168E-2,2.0273183E-2,9.386816E-2,7.5297494E-4,-1.2620544E-1,5.6288976E-2,4.3116143E-1,7.3466934E-2,-2.295079E-1,1.7683366E-1,5.3745667E-3,9.7982556E-2,3.5580286E-1,-3.0554864E-1,1.0348609E-2,-4.5667235E-2,3.0149242E-1,1.4595845E-1,3.7764823E-3,-5.634388E-2,-8.594682E-3,4.5232973E-3,9.5594496E-2,2.0897333E-2,7.6638326E-2,1.1504948E-2,6.4523555E-2,5.374052E-2,2.860776E-1,-1.4539766E-1,-4.8875782E-1,9.5741E-2,-8.7735854E-2,1.4262901E-1,-2.0605902E-1,-1.4168286E-1,2.9541373E-1,3.3793744E-2,8.345699E-2,-2.6817208E-2,-2.7139977E-1],"categories":[],"categories_nodes":[],"categories_segments":[],"categories_sizes":[],"default_left":[0,0,0,0,0,0,0,0,0,0,0,0,0,0,0,0,0,0,0,0,0,0,0,0,0,0,0,0,0,0,0,0,0,0,0,0,0,0,0,0,0,0,0,0,0,0,0,0,0,0,0,0,0,0,0,0,0,0,0,0,0,0,0,0,0,0,0,0,0,0,0,0,0,0,0,0,0,0,0,0,0,0,0,0,0,0,0,0,0,0,0,0,0,0,0,0,0,0,0,0,0,0,0,0,0,0,0,0,0,0,0,0,0,0,0,0,0,0,0,0,0,0,0,0,0,0,0],"id":7,"left_children":[1,3,5,7,9,11,13,15,17,19,21,23,25,27,29,31,33,35,37,39,41,43,45,47,49,51,53,55,57,59,61,63,65,67,69,71,73,75,77,79,81,83,85,87,89,91,93,95,97,99,101,103,105,107,109,111,113,115,117,119,121,123,125,-1,-1,-1,-1,-1,-1,-1,-1,-1,-1,-1,-1,-1,-1,-1,-1,-1,-1,-1,-1,-1,-1,-1,-1,-1,-1,-1,-1,-1,-1,-1,-1,-1,-1,-1,-1,-1,-1,-1,-1,-1,-1,-1,-1,-1,-1,-1,-1,-1,-1,-1,-1,-1,-1,-1,-1,-1,-1,-1,-1,-1,-1,-1,-1],"loss_changes":[4.4226173E1,2.2614098E1,1.3433685E1,2.1204021E1,4.5162315E0,7.40269E0,4.888857E0,2.2303925E1,5.6428194E0,3.858665E0,5.135173E0,3.08708E0,6.377941E0,6.8784604E0,4.324085E0,2.4459267E1,5.61767E0,5.11357E0,4.4813733E0,5.469868E0,3.3900611E0,4.287102E0,6.949747E0,5.002739E0,3.3424923E0,7.132391E0,4.737688E0,7.4610586E0,4.494697E0,3.2765226E0,4.3614044E0,1.8148994E1,5.366428E0,1.0552506E1,4.775117E0,6.44363E0,3.5650177E0,1.7446041E0,4.2531576E0,6.386458E0,6.7714415E0,2.8556128E0,5.20851E0,3.2572465E0,5.5354624E0,8.121849E0,4.740753E0,4.591777E0,6.350131E0,2.0901022E0,4.6758423E0,7.3139224E0,8.374018E0,3.872975E0,3.7500982E0,4.804024E0,5.0207024E0,2.0258555E0,3.8086562E0,6.343177E0,5.5176067E0,4.2696247E0,3.0282478E0,0E0,0E0,0E0,0E0,0E0,0E0,0E0,0E0,0E0,0E0,0E0,0E0,0E0,0E0,0E0,0E0,0E0,0E0,0E0,0E0,0E0,0E0,0E0,0E0,0E0,0E0,0E0,0E0,0E0,0E0,0E0,0E0,0E0,0E0,0E0,0E0,0E0,0E0,0E0,0E0,0E0,0E0,0E0,0E0,0E0,0E0,0E0,0E0,0E0,0E0,0E0,0E0,0E0,0E0,0E0,0E0,0E0,0E0,0E0,0E0,0E0,0E0,0E0,0E0],"parents":[2147483647,0,0,1,1,2,2,3,3,4,4,5,5,6,6,7,7,8,8,9,9,10,10,11,11,12,12,13,13,14,14,15,15,16,16,17,17,18,18,19,19,20,20,21,21,22,22,23,23,24,24,25,25,26,26,27,27,28,28,29,29,30,30,31,31,32,32,33,33,34,34,35,35,36,36,37,37,38,38,39,39,40,40,41,41,42,42,43,43,44,44,45,45,46,46,47,47,48,48,49,49,50,50,51,51,52,52,53,53,54,54,55,55,56,56,57,57,58,58,59,59,60,60,61,61,62,62],"right_children":[2,4,6,8,10,12,14,16,18,20,22,24,26,28,30,32,34,36,38,40,42,44,46,48,50,52,54,56,58,60,62,64,66,68,70,72,74,76,78,80,82,84,86,88,90,92,94,96,98,100,102,104,106,108,110,112,114,116,118,120,122,124,126,-1,-1,-1,-1,-1,-1,-1,-1,-1,-1,-1,-1,-1,-1,-1,-1,-1,-1,-1,-1,-1,-1,-1,-1,-1,-1,-1,-1,-1,-1,-1,-1,-1,-1,-1,-1,-1,-1,-1,-1,-1,-1,-1,-1,-1,-1,-1,-1,-1,-1,-1,-1,-1,-1,-1,-1,-1,-1,-1,-1,-1,-1,-1,-1],"split_conditions":[2E0,1E0,1E0,1.0184E-1,9.9562E-2,3E1,1.13635E-1,1E0,1E0,8E1,1.9E1,6.24E2,1E0,1.07676E-1,1.17744E-1,1E0,2E0,3E1,1.3E1,1E0,4.676E1,1.5E1,1E0,3.86E2,6.51E2,3.72E2,1E0,1.05184E-1,6.51E0,4.19E2,9.72E2,3E0,2.59E0,5.4E2,5.76E2,1.18E2,1E0,1E0,1.88014E-1,4.09E0,3.3E1,2E0,3.75E2,6.63E2,5.91662E-1,4.91E2,4.145E1,5E0,2.5E1,3E0,1E0,4.158E-3,4.55E2,4E0,3.159E1,6.37E2,2.611E1,1E0,1.451E1,3.25E2,9.1E0,4.495E1,1.7E1,-1.6181989E-1,1.3436466E-2,8.329292E-2,-4.8736915E-2,-1.8118894E-2,-1.0547418E-1,-2.3507748E-2,5.7559706E-2,2.8238225E-1,1.4991022E-2,-4.266596E-2,-1.465529E-2,-1.3254333E-2,-3.427886E-1,-1.7316902E-2,2.3058098E-2,2.5400907E-1,-6.486403E-2,-4.0475883E-2,2.1988134E-1,-3.5211306E-2,8.415424E-3,-4.4046663E-2,9.197168E-2,2.0273183E-2,9.386816E-2,7.5297494E-4,-1.2620544E-1,5.6288976E-2,4.3116143E-1,7.3466934E-2,-2.295079E-1,1.7683366E-1,5.3745667E-3,9.7982556E-2,3.5580286E-1,-3.0554864E-1,1.0348609E-2,-4.5667235E-2,3.0149242E-1,1.4595845E-1,3.7764823E-3,-5.634388E-2,-8.594682E-3,4.5232973E-3,9.5594496E-2,2.0897333E-2,7.6638326E-2,1.1504948E-2,6.4523555E-2,5.374052E-2,2.860776E-1,-1.4539766E-1,-4.8875782E-1,9.5741E-2,-8.7735854E-2,1.4262901E-1,-2.0605902E-1,-1.4168286E-1,2.9541373E-1,3.3793744E-2,8.345699E-2,-2.6817208E-2,-2.7139977E-1],"split_indices":[0,2,6,10,10,5,10,7,6,8,3,8,7,10,10,6,4,5,8,0,9,3,4,8,8,8,2,10,9,8,5,4,9,8,5,8,7,4,10,9,8,4,8,8,10,5,9,5,5,0,2,10,8,4,9,8,9,2,9,8,9,9,3,0,0,0,0,0,0,0,0,0,0,0,0,0,0,0,0,0,0,0,0,0,0,0,0,0,0,0,0,0,0,0,0,0,0,0,0,0,0,0,0,0,0,0,0,0,0,0,0,0,0,0,0,0,0,0,0,0,0,0,0,0,0,0,0],"split_type":[0,0,0,0,0,0,0,0,0,0,0,0,0,0,0,0,0,0,0,0,0,0,0,0,0,0,0,0,0,0,0,0,0,0,0,0,0,0,0,0,0,0,0,0,0,0,0,0,0,0,0,0,0,0,0,0,0,0,0,0,0,0,0,0,0,0,0,0,0,0,0,0,0,0,0,0,0,0,0,0,0,0,0,0,0,0,0,0,0,0,0,0,0,0,0,0,0,0,0,0,0,0,0,0,0,0,0,0,0,0,0,0,0,0,0,0,0,0,0,0,0,0,0,0,0,0,0],"sum_hessian":[1.5495107E4,6.273377E3,9.2217295E3,4.45455E3,1.8188271E3,6.351147E3,2.870583E3,1.8080793E3,2.6464707E3,8.699923E2,9.4883484E2,1.8500206E2,6.166145E3,1.6100272E3,1.2605558E3,8.902724E2,9.1780695E2,1.7002211E3,9.4624963E2,8.326848E1,7.867238E2,9.0064496E2,4.8189842E1,1.6008064E2,2.4921406E1,3.704196E3,2.461949E3,1.5463073E3,6.3719944E1,4.1081783E1,1.219474E3,4.7068262E2,4.1958978E2,6.5252106E2,2.652859E2,5.430231E1,1.6459188E3,5.8890567E0,9.4036053E2,4.451337E1,3.875511E1,6.8458545E2,1.0213837E2,6.980996E2,2.025454E2,2.0497221E1,2.769262E1,9.8465164E1,6.1615482E1,7.1369996E0,1.7784405E1,1.89249E3,1.8117059E3,1.9711624E3,4.9078668E2,1.5123005E3,3.400671E1,8.170017E0,5.554993E1,2.3306757E1,1.7775028E1,1.1831598E3,3.6314163E1,4.0976212E2,6.0920513E1,2.8919008E1,3.9067078E2,4.8594412E2,1.6657695E2,1.520506E2,1.13235275E2,8.91034E0,4.539197E1,8.7925806E2,7.666607E2,2.213667E0,3.67539E0,4.4335645E2,4.970041E2,5.590565E0,3.8922802E1,1.3170905E1,2.5584206E1,5.0021854E2,1.8436694E2,4.295608E1,5.9182285E1,6.3982654E2,5.8273018E1,1.6554501E2,3.700039E1,1.0940712E1,9.55651E0,2.2919744E1,4.7728744E0,1.5961327E1,8.250384E1,5.19109E1,9.704581E0,4.3145323E0,2.8224676E0,1.423749E1,3.546916E0,3.2143227E1,1.8603468E3,4.3412E2,1.3775859E3,1.9291948E3,4.196744E1,3.2866342E2,1.6212328E2,1.3394098E3,1.7289078E2,1.9567987E1,1.44387245E1,6.154512E0,2.0155053E0,1.2333419E1,4.321651E1,1.802522E1,5.2815366E0,2.4725685E0,1.530246E1,9.9861096E2,1.8454884E2,3.1940329E1,4.373836E0],"tree_param":{"num_deleted":"0","num_feature":"11","num_nodes":"127","size_leaf_vector":"1"}},{"base_weights":[-6.2593576E-3,-5.313722E-2,2.511409E-2,2.1979673E-1,-6.236423E-2,1.6113006E-2,1.2655218E-1,1.6926059E-1,8.269098E-1,-7.909294E-2,9.289779E-2,5.3151887E-2,-7.767375E-3,2.3170465E-1,9.133463E-2,1.1050324E0,1.3802892E-1,1.1164026E0,2.3275187E-2,-1.4769801E-1,-3.0956034E-2,8.335039E-2,1.0478805E0,3.0273086E-1,4.5416526E-2,-2.9398767E-2,4.0071532E-2,2.5065958E-1,-3.1643802E-1,-3.6289327E-2,1.6340826E-1,6.0900915E-1,-5.7849754E-2,4.8791494E-2,5.152874E-1,1.3857143E0,-9.525572E-2,-2.3835398E-1,5.376469E-1,-2.0281948E-1,-4.5698628E-2,-5.7573687E-2,4.2128526E-2,-4.6603948E-1,9.532869E-2,5.30787E-1,4.1664743E-1,1.0112048E0,2.1768057E-1,-4.9776417E-1,4.996476E-2,7.552798E-2,-4.8548266E-2,2.879888E-3,1.2331219E-1,8.989179E-2,4.1298756E-1,9.278582E-2,-3.8944957E-1,4.2969897E-1,1.0412242E-1,-1.8910082E-1,1.2197236E-1,1.340178E-1,-7.870865E-3,3.3475995E-1,1.5183926E-3,4.807727E-1,8.098232E-3,3.4123677E-1,-3.8155913E-2,-9.644275E-2,-2.9364334E-2,-7.596923E-3,-7.449677E-2,-2.1793535E-2,1.7212199E-2,-8.776919E-2,1.8228231E-2,-1.1584376E-2,-3.196575E-1,3.955423E-2,-3.4118716E-2,2.4486364E-1,-4.9236815E-2,-5.7309102E-2,3.5640082E-1,-2.006632E-1,9.020895E-2,1.033655E-1,-1.940349E-1,1.761112E-2,-5.879778E-2,1.1427434E-2,1.0979031E-1,-3.5554208E-2,-9.574011E-3,4.016628E-3,-2.4405238E-1,-9.08802E-2,4.4433847E-2,-3.44601E-2,1.3050997E-1,2.0760034E-1,8.2614794E-2,7.698526E-3,2.0903642E-1,-1.5820304E-1,7.575627E-2,4.5205988E-2,2.6840565E-1,-1.3735025E-1,4.0410496E-2],"categories":[],"categories_nodes":[],"categories_segments":[],"categories_sizes":[],"default_left":[0,0,0,0,0,0,0,0,0,0,0,0,0,0,0,0,0,0,0,0,0,0,0,0,0,0,0,0,0,0,0,0,0,0,0,0,0,0,0,0,0,0,0,0,0,0,0,0,0,0,0,0,0,0,0,0,0,0,0,0,0,0,0,0,0,0,0,0,0,0,0,0,0,0,0,0,0,0,0,0,0,0,0,0,0,0,0,0,0,0,0,0,0,0,0,0,0,0,0,0,0,0,0,0,0,0,0,0,0,0,0,0,0],"id":8,"left_children":[1,3,5,7,9,11,13,15,17,19,21,23,25,27,29,31,33,35,37,39,41,43,45,47,49,51,53,55,-1,57,59,-1,61,63,65,67,-1,-1,69,71,73,75,77,79,81,-1,83,85,87,89,91,93,95,97,99,101,103,105,107,109,111,-1,-1,-1,-1,-1,-1,-1,-1,-1,-1,-1,-1,-1,-1,-1,-1,-1,-1,-1,-1,-1,-1,-1,-1,-1,-1,-1,-1,-1,-1,-1,-1,-1,-1,-1,-1,-1,-1,-1,-1,-1,-1,-1,-1,-1,-1,-1,-1,-1,-1,-1,-1],"loss_changes":[2.2617714E1,1.5541328E1,8.409919E0,6.052993E0,1.55002E1,7.4861927E0,2.7589817E0,5.330085E0,3.5226688E0,1.777993E1,5.2066793E0,6.391407E0,5.3269253E0,4.841613E0,5.1941094E0,6.4811716E0,6.1248617E0,4.762246E0,2.556002E0,1.2473904E1,6.1613584E0,3.8347864E0,1.8407311E0,5.779007E0,7.977871E0,7.1258173E0,4.9620895E0,4.8113327E0,0E0,9.352933E0,5.648921E0,0E0,1.2116567E0,4.455463E0,1.0670624E1,2.7881432E0,0E0,0E0,1.6213949E0,1.7912071E1,3.2148757E0,4.0254517E0,5.292293E0,3.1514962E0,4.324811E0,0E0,1.1381171E0,2.436782E0,6.8370676E0,3.589645E0,6.87533E0,5.938546E0,3.485684E0,9.524847E0,5.27749E0,6.7367926E0,3.3480158E0,6.0833673E0,4.9929886E0,8.3438225E0,5.15329E0,0E0,0E0,0E0,0E0,0E0,0E0,0E0,0E0,0E0,0E0,0E0,0E0,0E0,0E0,0E0,0E0,0E0,0E0,0E0,0E0,0E0,0E0,0E0,0E0,0E0,0E0,0E0,0E0,0E0,0E0,0E0,0E0,0E0,0E0,0E0,0E0,0E0,0E0,0E0,0E0,0E0,0E0,0E0,0E0,0E0,0E0,0E0,0E0,0E0,0E0,0E0,0E0],"parents":[2147483647,0,0,1,1,2,2,3,3,4,4,5,5,6,6,7,7,8,8,9,9,10,10,11,11,12,12,13,13,14,14,15,15,16,16,17,17,18,18,19,19,20,20,21,21,22,22,23,23,24,24,25,25,26,26,27,27,29,29,30,30,32,32,33,33,34,34,35,35,38,38,39,39,40,40,41,41,42,42,43,43,44,44,46,46,47,47,48,48,49,49,50,50,51,51,52,52,53,53,54,54,55,55,56,56,57,57,58,58,59,59,60,60],"right_children":[2,4,6,8,10,12,14,16,18,20,22,24,26,28,30,32,34,36,38,40,42,44,46,48,50,52,54,56,-1,58,60,-1,62,64,66,68,-1,-1,70,72,74,76,78,80,82,-1,84,86,88,90,92,94,96,98,100,102,104,106,108,110,112,-1,-1,-1,-1,-1,-1,-1,-1,-1,-1,-1,-1,-1,-1,-1,-1,-1,-1,-1,-1,-1,-1,-1,-1,-1,-1,-1,-1,-1,-1,-1,-1,-1,-1,-1,-1,-1,-1,-1,-1,-1,-1,-1,-1,-1,-1,-1,-1,-1,-1,-1,-1],"split_conditions":[2E0,3E1,3E0,5.532E1,3E0,1E0,2.64E2,6.681E-3,2E0,1.00319E-1,9.95E2,3E1,1E0,3.67232E0,5.26E2,9E0,3.19081E-1,5.77E2,6E0,1E0,1E0,5.851E-3,1E0,3.58E0,3.7E1,1.16E2,1.60152E-1,2.356E1,-3.1643802E-1,3.481E1,6.12E2,6.0900915E-1,1E0,1.24E2,5.1692E-1,9.078E1,-9.525572E-2,-2.3835398E-1,9E0,1E0,9.0068E-2,6.37E2,2E0,4.3E2,4.58E1,5.30787E-1,1.2E1,5E0,6.86E0,5E0,7.048E1,8.79E2,1.86E2,1.5601E-1,4.6E1,1.34737E-1,6.1933E-2,3.092E1,4.83E2,2.916E1,6.31E2,-1.8910082E-1,1.2197236E-1,1.340178E-1,-7.870865E-3,3.3475995E-1,1.5183926E-3,4.807727E-1,8.098232E-3,3.4123677E-1,-3.8155913E-2,-9.644275E-2,-2.9364334E-2,-7.596923E-3,-7.449677E-2,-2.1793535E-2,1.7212199E-2,-8.776919E-2,1.8228231E-2,-1.1584376E-2,-3.196575E-1,3.955423E-2,-3.4118716E-2,2.4486364E-1,-4.9236815E-2,-5.7309102E-2,3.5640082E-1,-2.006632E-1,9.020895E-2,1.033655E-1,-1.940349E-1,1.761112E-2,-5.879778E-2,1.1427434E-2,1.0979031E-1,-3.5554208E-2,-9.574011E-3,4.016628E-3,-2.4405238E-1,-9.08802E-2,4.4433847E-2,-3.44601E-2,1.3050997E-1,2.0760034E-1,8.2614794E-2,7.698526E-3,2.0903642E-1,-1.5820304E-1,7.575627E-2,4.5205988E-2,2.6840565E-1,-1.3735025E-1,4.0410496E-2],"split_indices":[0,5,4,9,4,4,5,10,4,10,5,5,6,10,5,5,10,8,3,2,2,10,0,9,5,8,10,9,0,9,5,0,4,8,10,9,0,0,3,7,10,8,3,8,9,0,3,3,9,3,9,5,5,10,8,10,10,9,5,9,5,0,0,0,0,0,0,0,0,0,0,0,0,0,0,0,0,0,0,0,0,0,0,0,0,0,0,0,0,0,0,0,0,0,0,0,0,0,0,0,0,0,0,0,0,0,0,0,0,0,0,0,0],"split_type":[0,0,0,0,0,0,0,0,0,0,0,0,0,0,0,0,0,0,0,0,0,0,0,0,0,0,0,0,0,0,0,0,0,0,0,0,0,0,0,0,0,0,0,0,0,0,0,0,0,0,0,0,0,0,0,0,0,0,0,0,0,0,0,0,0,0,0,0,0,0,0,0,0,0,0,0,0,0,0,0,0,0,0,0,0,0,0,0,0,0,0,0,0,0,0,0,0,0,0,0,0,0,0,0,0,0,0,0,0,0,0,0,0],"sum_hessian":[1.5376759E4,6.164755E3,9.212003E3,2.0084883E2,5.9639062E3,8.462266E3,7.4973816E2,1.8659541E2,1.4253425E1,5.3842686E3,5.796375E2,3.3167317E3,5.1455337E3,1.8670264E2,5.630355E2,4.9160995E0,1.816793E2,1.0192571E1,4.060855E0,2.2192744E3,3.1649944E3,5.749765E2,4.6610227E0,9.856082E1,3.218171E3,3.5436028E3,1.6019309E3,1.8478522E2,1.9174168E0,2.0338649E2,3.5964902E2,2.3227847E0,2.5933151E0,1.4783862E2,3.384069E1,8.609246E0,1.5833242E0,1.3576801E0,2.7031746E0,1.4400623E3,7.792121E2,2.3201865E3,8.448078E2,1.1459817E1,5.6351666E2,1.3337858E0,3.3272371E0,9.396652E0,8.916417E1,2.5822578E1,3.1923484E3,5.4645294E2,2.9971497E3,1.1079412E3,4.9398975E2,9.3619385E1,9.116583E1,1.4948799E2,5.3898506E1,6.435254E1,2.9529645E2,1.00152E0,1.591795E0,2.2666283E1,1.2517234E2,1.49988165E1,1.8841873E1,7.269507E0,1.3397392E0,1.0473617E0,1.655813E0,6.748874E2,7.6517487E2,7.0903735E2,7.0174736E1,2.0515627E3,2.6862372E2,4.377483E1,8.01033E2,7.3113427E0,4.148474E0,4.8003265E2,8.348401E1,1.7309575E0,1.5962796E0,1.1943707E0,8.202281E0,7.0300813E0,8.213409E1,3.6844451E0,2.2138134E1,3.0835498E3,1.0879847E2,4.8506158E2,6.1391384E1,5.745384E2,2.4226113E3,1.0948317E3,1.3109512E1,2.6545185E1,4.6744455E2,5.917838E1,3.444101E1,2.8780457E1,6.2385372E1,1.3547485E2,1.4013126E1,4.4515278E1,9.38323E0,4.1046753E1,2.330579E1,1.4518421E1,2.8077805E2],"tree_param":{"num_deleted":"0","num_feature":"11","num_nodes":"113","size_leaf_vector":"1"}},{"base_weights":[-4.59074E-3,-2.6231157E-2,3.8574364E-2,-7.456665E-2,3.1150333E-3,-5.2714086E-1,4.111024E-2,-1.19769305E-1,-2.5676785E-2,-2.607715E-2,2.847871E-2,-8.3207715E-1,1.8035462E-1,3.0185426E-2,1.5863913E-1,-2.1305801E-1,-6.673812E-2,-1.1651758E-2,-2.1111776E-1,-9.318356E-3,-1.1542333E-1,2.480474E-2,3.5429356E-1,5.0987747E-2,-9.132697E-1,6.627652E-1,-3.068909E-1,2.6773147E-2,4.29085E-1,1.874732E-1,-1.579482E-1,-3.3808434E-1,-7.435771E-2,-3.9074883E-2,-1.7725973E-1,2.0741624E-1,-2.0039592E-2,-2.8157988E-1,3.079644E-1,-4.545605E-2,4.19237E-2,4.7972804E-1,-1.3406582E-1,1.3922404E-1,1.5667748E-2,7.4624944E-1,-5.496083E-1,-1.1675425E0,-3.4680313E-1,2.9911596E-1,-1.2011051E-1,2.3568557E-1,2.1472992E-2,2.3444025E-1,8.2804906E-1,3.6703932E-1,1.21710934E-1,-3.9366266E-1,3.8891968E-1,-1.21038266E-1,2.8912614E-3,-7.502967E-2,7.270301E-3,-1.8728089E-2,6.1574593E-2,-2.5931028E-1,-4.4872854E-2,3.6634815E-1,4.217865E-2,1.5514642E-1,-7.213204E-3,-2.0352812E-1,-6.0565516E-2,-1.19171785E-2,4.5279935E-1,4.4268286E-3,-4.541541E-2,4.5716567E-3,6.1470967E-2,1.4018812E-3,2.8997475E-1,-4.949101E-2,4.8487674E-2,-1.3485356E-1,5.863117E-2,-8.189904E-3,1.2978999E-2,-1.3311614E-1,2.5345987E-1,6.89415E-2,-3.1108436E-1,-4.023947E-1,-9.3559906E-2,-2.1971443E-1,1.3145112E-1,-1.0136577E-1,1.194578E-1,-1.5617498E-3,1.8792069E-2,1.0386889E-1,-2.452505E-1,3.2971114E-1,5.11425E-2,2.8947052E-1,8.792053E-2,-6.94584E-2,6.298274E-2,-1.4851232E-1,2.1450022E-1,2.2215763E-2,3.523209E-1],"categories":[],"categories_nodes":[],"categories_segments":[],"categories_sizes":[],"default_left":[0,0,0,0,0,0,0,0,0,0,0,0,0,0,0,0,0,0,0,0,0,0,0,0,0,0,0,0,0,0,0,0,0,0,0,0,0,0,0,0,0,0,0,0,0,0,0,0,0,0,0,0,0,0,0,0,0,0,0,0,0,0,0,0,0,0,0,0,0,0,0,0,0,0,0,0,0,0,0,0,0,0,0,0,0,0,0,0,0,0,0,0,0,0,0,0,0,0,0,0,0,0,0,0,0,0,0,0,0,0,0],"id":9,"left_children":[1,3,5,7,9,11,13,15,17,19,21,23,25,27,29,31,33,35,37,39,41,43,45,-1,47,49,-1,51,53,55,57,59,61,63,65,67,69,71,73,75,77,79,81,83,85,87,89,91,93,-1,-1,95,97,99,101,103,105,107,109,-1,-1,-1,-1,-1,-1,-1,-1,-1,-1,-1,-1,-1,-1,-1,-1,-1,-1,-1,-1,-1,-1,-1,-1,-1,-1,-1,-1,-1,-1,-1,-1,-1,-1,-1,-1,-1,-1,-1,-1,-1,-1,-1,-1,-1,-1,-1,-1,-1,-1,-1,-1],"loss_changes":[1.4290376E1,1.4453915E1,7.3503966E0,8.504015E0,4.695928E0,5.0840683E0,6.5264864E0,9.879578E0,4.8105345E0,4.414023E0,4.053464E0,1.4699535E0,5.1536856E0,6.325174E0,3.9766378E0,1.2536209E1,3.8958569E0,3.1674435E0,4.8437653E0,4.601708E0,5.2305956E0,3.5072124E0,1.3789925E1,0E0,1.7708483E0,2.5708296E0,0E0,5.1071234E0,2.8669753E0,4.6404085E0,4.875667E0,8.657806E0,5.978318E0,5.845208E0,4.7261972E0,4.134614E0,3.581066E0,3.5013113E0,6.7525406E0,9.296357E0,4.466999E0,3.3169296E0,4.159603E0,8.299018E0,3.6884112E0,3.515955E0,4.7958364E0,1.0690928E0,2.1679091E0,0E0,0E0,1.0772932E1,4.946819E0,3.5625787E0,2.0455017E0,4.3986225E0,9.14599E0,3.2872539E0,2.7666073E0,0E0,0E0,0E0,0E0,0E0,0E0,0E0,0E0,0E0,0E0,0E0,0E0,0E0,0E0,0E0,0E0,0E0,0E0,0E0,0E0,0E0,0E0,0E0,0E0,0E0,0E0,0E0,0E0,0E0,0E0,0E0,0E0,0E0,0E0,0E0,0E0,0E0,0E0,0E0,0E0,0E0,0E0,0E0,0E0,0E0,0E0,0E0,0E0,0E0,0E0,0E0,0E0],"parents":[2147483647,0,0,1,1,2,2,3,3,4,4,5,5,6,6,7,7,8,8,9,9,10,10,11,11,12,12,13,13,14,14,15,15,16,16,17,17,18,18,19,19,20,20,21,21,22,22,24,24,25,25,27,27,28,28,29,29,30,30,31,31,32,32,33,33,34,34,35,35,36,36,37,37,38,38,39,39,40,40,41,41,42,42,43,43,44,44,45,45,46,46,47,47,48,48,51,51,52,52,53,53,54,54,55,55,56,56,57,57,58,58],"right_children":[2,4,6,8,10,12,14,16,18,20,22,24,26,28,30,32,34,36,38,40,42,44,46,-1,48,50,-1,52,54,56,58,60,62,64,66,68,70,72,74,76,78,80,82,84,86,88,90,92,94,-1,-1,96,98,100,102,104,106,108,110,-1,-1,-1,-1,-1,-1,-1,-1,-1,-1,-1,-1,-1,-1,-1,-1,-1,-1,-1,-1,-1,-1,-1,-1,-1,-1,-1,-1,-1,-1,-1,-1,-1,-1,-1,-1,-1,-1,-1,-1,-1,-1,-1,-1,-1,-1,-1,-1,-1,-1,-1,-1],"split_conditions":[1E0,2E0,1.3E1,1E0,9.7996E-2,1.4E1,3E0,1.00319E-1,9.29E2,8.2708E-2,7.13E2,9.74E-3,3.325E1,4.953224E0,5.532E1,1E0,4.74077E-1,3E1,4.626E1,1E0,2.1E1,1.05949E-1,1.5E1,5.0987747E-2,1.77968E-1,2E0,-3.068909E-1,3E1,4.8E2,2.79E2,5.21E2,3E0,8E0,3.54924E-1,4.95171E-1,3.8E1,3.6E-1,1.16E2,1E0,2.959E1,4.626E1,1.2E1,9.1E2,3E0,1.718E1,3.7E1,1E0,3.697E1,1E0,2.9911596E-1,-1.2011051E-1,1.185E1,1E0,4.61E2,1.3E1,1.9899E-2,4.08E2,9.36E2,7.39E2,-1.21038266E-1,2.8912614E-3,-7.502967E-2,7.270301E-3,-1.8728089E-2,6.1574593E-2,-2.5931028E-1,-4.4872854E-2,3.6634815E-1,4.217865E-2,1.5514642E-1,-7.213204E-3,-2.0352812E-1,-6.0565516E-2,-1.19171785E-2,4.5279935E-1,4.4268286E-3,-4.541541E-2,4.5716567E-3,6.1470967E-2,1.4018812E-3,2.8997475E-1,-4.949101E-2,4.8487674E-2,-1.3485356E-1,5.863117E-2,-8.189904E-3,1.2978999E-2,-1.3311614E-1,2.5345987E-1,6.89415E-2,-3.1108436E-1,-4.023947E-1,-9.3559906E-2,-2.1971443E-1,1.3145112E-1,-1.0136577E-1,1.194578E-1,-1.5617498E-3,1.8792069E-2,1.0386889E-1,-2.452505E-1,3.2971114E-1,5.11425E-2,2.8947052E-1,8.792053E-2,-6.94584E-2,6.298274E-2,-1.4851232E-1,2.1450022E-1,2.2215763E-2,3.523209E-1],"split_indices":[6,0,8,7,10,3,4,10,5,10,8,10,9,10,9,2,10,5,9,7,5,10,3,0,10,4,0,8,8,5,8,4,3,10,10,8,9,8,2,9,9,3,5,3,9,5,4,9,2,0,0,9,7,8,3,10,5,5,5,0,0,0,0,0,0,0,0,0,0,0,0,0,0,0,0,0,0,0,0,0,0,0,0,0,0,0,0,0,0,0,0,0,0,0,0,0,0,0,0,0,0,0,0,0,0,0,0,0,0,0,0],"split_type":[0,0,0,0,0,0,0,0,0,0,0,0,0,0,0,0,0,0,0,0,0,0,0,0,0,0,0,0,0,0,0,0,0,0,0,0,0,0,0,0,0,0,0,0,0,0,0,0,0,0,0,0,0,0,0,0,0,0,0,0,0,0,0,0,0,0,0,0,0,0,0,0,0,0,0,0,0,0,0,0,0,0,0,0,0,0,0,0,0,0,0,0,0,0,0,0,0,0,0,0,0,0,0,0,0,0,0,0,0,0,0],"sum_hessian":[1.5296289E4,1.0188683E4,5.107607E3,3.8484463E3,6.340236E3,2.1870007E1,5.085737E3,1.9988744E3,1.849572E3,2.9476392E3,3.392597E3,1.5159885E1,6.710121E0,4.654352E3,4.3138516E2,7.233648E2,1.2755096E3,1.7205114E3,1.2906061E2,2.483003E3,4.6463617E2,3.3558318E3,3.6765087E1,1.0543512E0,1.4105534E1,5.1105375E0,1.5995841E0,4.615933E3,3.8418633E1,3.9574905E2,3.5636097E1,3.7967923E2,3.4368555E2,1.0212478E3,2.5426181E2,6.2571857E1,1.6579396E3,1.14038185E2,1.5022421E1,1.4561721E3,1.0268308E3,1.3360982E1,4.512752E2,2.4711104E2,3.1087207E3,2.5766472E1,1.0998614E1,9.003148E0,5.1023855E0,3.9352937E0,1.1752436E0,1.13134254E2,4.502799E3,2.6888176E1,1.1530457E1,1.04855675E2,2.9089337E2,2.5098242E1,1.0537853E1,3.194567E2,6.022255E1,1.2296415E2,2.2072139E2,9.3283344E2,8.841433E1,8.676922E0,2.4558488E2,2.801089E0,5.9770767E1,1.1319202E1,1.6466204E3,1.7814846E1,9.6223335E1,1.2400515E1,2.6219068E0,9.289802E2,5.271919E2,8.8330035E2,1.4353041E2,7.273429E0,6.087553E0,4.0897342E2,4.2301792E1,2.0928167E1,2.2618288E2,1.2157539E3,1.8929669E3,1.7041161E0,2.4062357E1,4.4346414E0,6.5639734E0,7.011651E0,1.9914973E0,3.4665954E0,1.63579E0,2.4738855E1,8.83954E1,2.7327122E3,1.770087E3,2.491169E1,1.9764874E0,7.6900263E0,3.84043E0,1.0218807E1,9.463687E1,5.781285E1,2.3308054E2,2.3502596E1,1.5956454E0,8.3035755E0,2.2342775E0],"tree_param":{"num_deleted":"0","num_feature":"11","num_nodes":"111","size_leaf_vector":"1"}},{"base_weights":[-3.4606715E-3,-1.9086575E-2,4.5860168E-2,1.11875266E-1,-2.33537E-2,2.0002507E-2,8.790127E-2,5.015468E-1,6.460873E-2,-5.6793123E-2,-4.2368905E-3,-1.2157619E-1,3.020103E-2,2.601364E-1,7.247153E-2,4.9676597E-1,4.1685063E-1,-2.4734679E-1,1.01985425E-1,-8.908436E-2,-7.593894E-3,6.9525983E-4,-9.345999E-2,-2.3166448E-2,-4.2314205E-1,2.4331747E-1,1.6214635E-2,-2.768524E-1,4.5040807E-1,6.31314E-3,1.2254326E-1,-1.6474767E-1,5.179803E-1,1.1008295E0,-4.0926164E-1,2.536254E-1,9.136827E-3,-1.745847E-1,-4.4750206E-2,2.529471E-2,-9.9127136E-2,-2.1545568E-3,1.3639118E-1,-9.3969876E-1,-7.716135E-2,2.3825863E-1,-1.3290407E-1,-5.713721E-1,5.9265435E-1,-3.796855E-1,3.0409294E-1,6.436151E-2,-1.83587E-2,2.5463262E-1,-3.7516648E-1,2.5664383E-1,6.3076854E-1,-1.7443287E-1,6.596931E-2,9.370938E-2,4.6554458E-1,9.4605304E-2,-2.9458645E-1,6.985538E-2,3.1697124E-1,5.31028E-1,-7.3930686E-3,-1.654988E-1,1.5757652E-1,2.187719E-1,4.2925324E-2,-1.0604166E-1,3.0679928E-2,-9.050841E-2,-2.8255241E-2,-1.21838994E-1,-1.1636263E-2,-2.0480824E-1,9.511352E-3,-3.5001293E-2,2.5320327E-1,-3.2462813E-3,1.252881E-2,-2.9510415E-1,5.0246954E-2,-8.3065415E-3,-3.375252E-1,1.5053114E-2,-4.7031607E-2,-2.3440535E-1,1.1794382E-1,-1.5633896E-1,7.880374E-3,-2.1685575E-1,8.255681E-2,-6.0433134E-2,2.7589163E-1,1.4854783E-1,-2.146912E-1,1.5156186E-1,-1.5497919E-3,1.1196382E-2,1.378868E-1,-7.892598E-3,1.1522826E-1,-4.1271603E-1,-5.9342187E-2,-6.52781E-2,1.24336325E-1,2.3197542E-1,3.818442E-2,-1.63117E-1,-8.45856E-3,2.2495891E-1,1.5197028E-2,1.2756455E-1,1.9765079E-2,1.845088E-1,-7.7676676E-2],"categories":[],"categories_nodes":[],"categories_segments":[],"categories_sizes":[],"default_left":[0,0,0,0,0,0,0,0,0,0,0,0,0,0,0,0,0,0,0,0,0,0,0,0,0,0,0,0,0,0,0,0,0,0,0,0,0,0,0,0,0,0,0,0,0,0,0,0,0,0,0,0,0,0,0,0,0,0,0,0,0,0,0,0,0,0,0,0,0,0,0,0,0,0,0,0,0,0,0,0,0,0,0,0,0,0,0,0,0,0,0,0,0,0,0,0,0,0,0,0,0,0,0,0,0,0,0,0,0,0,0,0,0,0,0,0,0,0,0],"id":10,"left_children":[1,3,5,7,9,11,13,15,17,19,21,23,25,27,29,-1,31,33,35,37,39,41,43,45,47,49,51,53,55,57,59,61,63,65,67,69,71,73,75,77,79,81,83,85,87,89,91,93,95,97,99,101,103,-1,105,107,109,111,113,115,117,-1,-1,-1,-1,-1,-1,-1,-1,-1,-1,-1,-1,-1,-1,-1,-1,-1,-1,-1,-1,-1,-1,-1,-1,-1,-1,-1,-1,-1,-1,-1,-1,-1,-1,-1,-1,-1,-1,-1,-1,-1,-1,-1,-1,-1,-1,-1,-1,-1,-1,-1,-1,-1,-1,-1,-1,-1,-1],"loss_changes":[1.1741218E1,6.467852E0,3.9828992E0,6.694697E0,7.162612E0,3.2825317E0,3.6900377E0,3.1581259E0,3.8365483E0,6.474288E0,3.137869E0,4.5244374E0,6.3123994E0,1.1809317E1,4.246884E0,0E0,2.3208528E0,8.1487055E0,4.1174946E0,9.319052E0,4.867592E0,2.6136134E0,5.079267E0,3.3667438E0,5.9901056E0,5.0540986E0,3.313109E0,3.6980505E0,2.802391E0,5.9790854E0,7.1741705E0,2.8161938E0,4.7632694E0,3.0959625E0,4.576621E0,5.735985E0,6.1999E0,8.554571E0,3.4786403E0,5.420597E0,7.170131E0,2.5199842E0,5.007245E0,1.1470537E0,3.7339053E0,5.7917943E0,5.1132007E0,4.46449E0,1.5537734E0,3.8923573E0,7.4285355E0,8.873047E0,3.717762E0,0E0,4.8350167E0,3.2766383E0,3.003828E0,7.416319E0,4.3271446E0,6.1935062E0,6.260729E0,0E0,0E0,0E0,0E0,0E0,0E0,0E0,0E0,0E0,0E0,0E0,0E0,0E0,0E0,0E0,0E0,0E0,0E0,0E0,0E0,0E0,0E0,0E0,0E0,0E0,0E0,0E0,0E0,0E0,0E0,0E0,0E0,0E0,0E0,0E0,0E0,0E0,0E0,0E0,0E0,0E0,0E0,0E0,0E0,0E0,0E0,0E0,0E0,0E0,0E0,0E0,0E0,0E0,0E0,0E0,0E0,0E0,0E0],"parents":[2147483647,0,0,1,1,2,2,3,3,4,4,5,5,6,6,7,7,8,8,9,9,10,10,11,11,12,12,13,13,14,14,16,16,17,17,18,18,19,19,20,20,21,21,22,22,23,23,24,24,25,25,26,26,27,27,28,28,29,29,30,30,31,31,32,32,33,33,34,34,35,35,36,36,37,37,38,38,39,39,40,40,41,41,42,42,43,43,44,44,45,45,46,46,47,47,48,48,49,49,50,50,51,51,52,52,54,54,55,55,56,56,57,57,58,58,59,59,60,60],"right_children":[2,4,6,8,10,12,14,16,18,20,22,24,26,28,30,-1,32,34,36,38,40,42,44,46,48,50,52,54,56,58,60,62,64,66,68,70,72,74,76,78,80,82,84,86,88,90,92,94,96,98,100,102,104,-1,106,108,110,112,114,116,118,-1,-1,-1,-1,-1,-1,-1,-1,-1,-1,-1,-1,-1,-1,-1,-1,-1,-1,-1,-1,-1,-1,-1,-1,-1,-1,-1,-1,-1,-1,-1,-1,-1,-1,-1,-1,-1,-1,-1,-1,-1,-1,-1,-1,-1,-1,-1,-1,-1,-1,-1,-1,-1,-1,-1,-1,-1,-1],"split_conditions":[1E0,3E1,1E0,3E0,2E0,1.4406E-2,3.58E0,6.681E-3,2.4738E-2,1E0,1.9E1,1.1317E-2,2.6254E-2,2.04E2,2.11E1,4.9676597E-1,5E0,3.42E0,9.1704E-2,9.8782E-2,1.5E1,4E0,4.5E1,2.72E2,1.7E1,3.91E0,1.826E1,1.08E2,1.73E0,1E0,9.17E2,3.481E1,3.206E1,1.0495E-2,1.8E1,1E0,1.18721E-1,1E0,4.5E1,3.6E-1,9.83E2,1.6E1,3.5E1,1.16E2,1E0,1.131E-3,5.14E2,8.63E2,1.2062E-2,1.41E2,3.049E1,1.699E1,7.07E2,2.5463262E-1,2.68E2,5E0,7.77E2,6.7982E-2,2.5E1,1.5982E-2,1.7E1,9.4605304E-2,-2.9458645E-1,6.985538E-2,3.1697124E-1,5.31028E-1,-7.3930686E-3,-1.654988E-1,1.5757652E-1,2.187719E-1,4.2925324E-2,-1.0604166E-1,3.0679928E-2,-9.050841E-2,-2.8255241E-2,-1.21838994E-1,-1.1636263E-2,-2.0480824E-1,9.511352E-3,-3.5001293E-2,2.5320327E-1,-3.2462813E-3,1.252881E-2,-2.9510415E-1,5.0246954E-2,-8.3065415E-3,-3.375252E-1,1.5053114E-2,-4.7031607E-2,-2.3440535E-1,1.1794382E-1,-1.5633896E-1,7.880374E-3,-2.1685575E-1,8.255681E-2,-6.0433134E-2,2.7589163E-1,1.4854783E-1,-2.146912E-1,1.5156186E-1,-1.5497919E-3,1.1196382E-2,1.378868E-1,-7.892598E-3,1.1522826E-1,-4.1271603E-1,-5.9342187E-2,-6.52781E-2,1.24336325E-1,2.3197542E-1,3.818442E-2,-1.63117E-1,-8.45856E-3,2.2495891E-1,1.5197028E-2,1.2756455E-1,1.9765079E-2,1.845088E-1,-7.7676676E-2],"split_indices":[2,5,7,3,0,10,9,10,10,6,3,10,10,8,9,0,5,9,10,10,3,4,5,5,3,9,9,5,9,0,5,9,9,10,3,0,10,7,5,9,5,3,8,8,4,10,5,5,10,8,9,9,8,0,5,3,5,10,5,10,3,0,0,0,0,0,0,0,0,0,0,0,0,0,0,0,0,0,0,0,0,0,0,0,0,0,0,0,0,0,0,0,0,0,0,0,0,0,0,0,0,0,0,0,0,0,0,0,0,0,0,0,0,0,0,0,0,0,0],"split_type":[0,0,0,0,0,0,0,0,0,0,0,0,0,0,0,0,0,0,0,0,0,0,0,0,0,0,0,0,0,0,0,0,0,0,0,0,0,0,0,0,0,0,0,0,0,0,0,0,0,0,0,0,0,0,0,0,0,0,0,0,0,0,0,0,0,0,0,0,0,0,0,0,0,0,0,0,0,0,0,0,0,0,0,0,0,0,0,0,0,0,0,0,0,0,0,0,0,0,0,0,0,0,0,0,0,0,0,0,0,0,0,0,0,0,0,0,0,0,0],"sum_hessian":[1.523269E4,1.1568236E4,3.6644536E3,3.6423764E2,1.1203999E4,2.2698455E3,1.394608E3,3.836235E1,3.258753E2,4.0746265E3,7.1293726E3,1.5178627E2,2.1180593E3,1.1336025E2,1.2812478E3,1.3542411E0,3.700811E1,3.426587E1,2.9160944E2,2.4595344E3,1.615092E3,6.7568535E3,3.7251886E2,1.15252754E2,3.653352E1,1.2943336E2,1.9886259E3,2.9539162E1,8.382109E1,5.524444E2,7.2880334E2,5.3886757E0,3.1619436E1,3.0522919E0,3.121358E1,1.1008592E2,1.8152351E2,8.388458E2,1.6206887E3,1.1887048E3,4.263872E2,6.6188325E3,1.3802124E2,5.9686136E0,3.6655023E2,3.372926E1,8.15235E1,3.2263046E1,4.27047E0,1.1037882E1,1.1839548E2,8.3079626E2,1.1578296E3,1.7596048E0,2.7779556E1,4.1577087E1,4.2244007E1,1.366125E2,4.158319E2,6.734629E2,5.5340424E1,3.7813137E0,1.607362E0,2.1610958E1,1.0008477E1,1.5549089E0,1.497383E0,2.7441711E1,3.7718675E0,1.9705206E1,9.0380714E1,3.652284E1,1.4500067E2,3.2394684E2,5.14899E2,2.5217499E1,1.5954712E3,9.718758E0,1.1789861E3,4.1946088E2,6.926331E0,5.528603E3,1.0902294E3,2.901129E0,1.351201E2,1.2024529E0,4.766161E0,1.4114943E2,2.254008E2,3.9146748E0,2.9814583E1,2.3044119E1,5.8479378E1,2.749019E1,4.7728567E0,1.357543E0,2.9129274E0,2.9311192E0,8.106763E0,7.135757E1,4.7037914E1,7.786242E2,5.2172092E1,1.1363176E3,2.151192E1,3.1654289E0,2.4614128E1,1.0286435E1,3.1290653E1,3.2508556E1,9.735451E0,3.7981262E1,9.863123E1,8.056132E0,4.077758E2,5.1045464E1,6.224174E2,4.599996E1,9.340462E0],"tree_param":{"num_deleted":"0","num_feature":"11","num_nodes":"119","size_leaf_vector":"1"}},{"base_weights":[-2.5536946E-3,-9.353994E-3,6.74652E-2,1.0871614E-1,-1.3137623E-2,-6.1121218E-2,8.2640365E-2,5.956105E-1,8.879781E-2,-3.7615363E-2,7.2531635E-3,-1.0881762E-2,-9.7191E-1,3.0261177E-1,6.0352247E-2,1.0326403E0,1.3096467E-1,-7.30173E-1,1.02054216E-1,-8.8516645E-2,-2.0511746E-2,-1.2132244E-2,3.589981E-2,1.9967219E-1,-1.1336424E-1,-3.8839552E-1,-3.3143073E-1,-1.7327003E-1,4.9941835E-1,1.3774954E-3,1.034758E-1,1.3125901E0,-5.792193E-3,-3.4548852E-1,6.8486565E-1,8.070261E-2,-1.0080192E0,4.6735623E-1,8.033737E-2,-7.1694836E-2,-2.797086E-1,9.0812296E-2,-3.5488885E-2,-1.3264386E-1,-5.297249E-3,-7.1546145E-2,4.945279E-2,2.6764128E-1,-5.290359E-1,2.952421E-1,-1.9901992E-1,-3.1143773E-1,1.2796414E-1,-4.6883276E-1,3.8145477E-1,7.482481E-1,3.336025E-1,4.1966572E-2,-3.1050047E-1,2.3748052E-1,5.0501864E-2,1.0150926E-1,4.4832987E-1,5.3497426E-2,-1.9428097E-1,-8.182601E-2,3.2312816E-1,-3.4572455E-1,-6.855305E-2,-3.657525E-2,2.0833273E-1,1.9968975E-2,2.3707104E-1,-1.1390992E-2,-6.1166625E-2,3.4072243E-2,-1.0992764E-1,5.3210367E-2,-1.0106422E-2,-2.963609E-2,-5.280408E-4,-5.0344873E-2,1.4499058E-1,1.7105268E-3,-1.9950122E-2,5.9147373E-2,-4.0094294E-2,8.92809E-2,1.207283E-2,2.5115746E-1,3.225544E-2,-3.113129E-1,1.3205963E-1,1.7108926E-1,-1.63062E-1,-1.2071443E-1,1.5505753E-2,-2.1438025E-1,1.6311046E-3,2.886274E-1,7.6164743E-3,-1.940466E-1,2.527023E-1,1.6819802E-1,-1.05393745E-1,4.88718E-2,-9.515308E-3,-4.6447936E-2,-2.6123884E-1,-3.3694336E-1,7.715921E-2,1.9024437E-2,-1.3019063E-1],"categories":[],"categories_nodes":[],"categories_segments":[],"categories_sizes":[],"default_left":[0,0,0,0,0,0,0,0,0,0,0,0,0,0,0,0,0,0,0,0,0,0,0,0,0,0,0,0,0,0,0,0,0,0,0,0,0,0,0,0,0,0,0,0,0,0,0,0,0,0,0,0,0,0,0,0,0,0,0,0,0,0,0,0,0,0,0,0,0,0,0,0,0,0,0,0,0,0,0,0,0,0,0,0,0,0,0,0,0,0,0,0,0,0,0,0,0,0,0,0,0,0,0,0,0,0,0,0,0,0,0,0,0],"id":11,"left_children":[1,3,5,7,9,11,13,15,17,19,21,23,25,27,29,31,33,35,37,39,41,43,45,47,49,-1,51,53,55,57,59,61,-1,63,65,-1,67,69,71,73,75,77,79,81,83,85,87,89,91,93,95,-1,-1,97,99,101,103,105,107,109,111,-1,-1,-1,-1,-1,-1,-1,-1,-1,-1,-1,-1,-1,-1,-1,-1,-1,-1,-1,-1,-1,-1,-1,-1,-1,-1,-1,-1,-1,-1,-1,-1,-1,-1,-1,-1,-1,-1,-1,-1,-1,-1,-1,-1,-1,-1,-1,-1,-1,-1,-1,-1],"loss_changes":[7.2269783E0,6.18155E0,2.6268625E0,4.114028E0,6.691161E0,6.50545E0,5.8758526E0,3.2581682E0,4.568623E0,5.302129E0,4.062124E0,2.9566152E0,1.1073961E0,1.0422021E1,2.7791984E0,2.518567E0,2.6764011E0,2.1357615E0,3.201064E0,4.906993E0,7.608456E0,3.592999E0,4.3025007E0,2.3643007E0,3.281996E0,0E0,2.4968727E0,5.59409E0,2.9821224E0,5.8690634E0,4.4690757E0,6.8148804E-1,0E0,1.0071626E0,2.025427E0,0E0,3.518734E-1,3.122253E0,3.7270303E0,6.2757087E0,4.2549276E0,5.8378406E0,8.584913E0,5.1532636E0,2.7804325E0,5.5509996E0,5.9806986E0,3.714023E0,2.5100505E0,4.08501E0,3.9328623E0,0E0,0E0,2.5677972E0,2.4631865E0,4.5508213E0,7.78741E0,3.6607115E0,4.522145E0,5.0794563E0,2.8656812E0,0E0,0E0,0E0,0E0,0E0,0E0,0E0,0E0,0E0,0E0,0E0,0E0,0E0,0E0,0E0,0E0,0E0,0E0,0E0,0E0,0E0,0E0,0E0,0E0,0E0,0E0,0E0,0E0,0E0,0E0,0E0,0E0,0E0,0E0,0E0,0E0,0E0,0E0,0E0,0E0,0E0,0E0,0E0,0E0,0E0,0E0,0E0,0E0,0E0,0E0,0E0,0E0],"parents":[2147483647,0,0,1,1,2,2,3,3,4,4,5,5,6,6,7,7,8,8,9,9,10,10,11,11,12,12,13,13,14,14,15,15,16,16,17,17,18,18,19,19,20,20,21,21,22,22,23,23,24,24,26,26,27,27,28,28,29,29,30,30,31,31,33,33,34,34,36,36,37,37,38,38,39,39,40,40,41,41,42,42,43,43,44,44,45,45,46,46,47,47,48,48,49,49,50,50,53,53,54,54,55,55,56,56,57,57,58,58,59,59,60,60],"right_children":[2,4,6,8,10,12,14,16,18,20,22,24,26,28,30,32,34,36,38,40,42,44,46,48,50,-1,52,54,56,58,60,62,-1,64,66,-1,68,70,72,74,76,78,80,82,84,86,88,90,92,94,96,-1,-1,98,100,102,104,106,108,110,112,-1,-1,-1,-1,-1,-1,-1,-1,-1,-1,-1,-1,-1,-1,-1,-1,-1,-1,-1,-1,-1,-1,-1,-1,-1,-1,-1,-1,-1,-1,-1,-1,-1,-1,-1,-1,-1,-1,-1,-1,-1,-1,-1,-1,-1,-1,-1,-1,-1,-1,-1,-1],"split_conditions":[3E0,3E1,1.04E2,1.39E0,1.01009E-1,1E2,1.94E2,1E0,2.08E0,2.72E2,1E0,2.26E2,2.221E1,2.21E2,5.33E2,1.6E1,1.7E1,9E0,2E0,6.65E2,3.55E2,2E0,1.39E2,6.53006E-1,3.6411E-2,-3.8839552E-1,8E0,1.62E2,8E0,4.932E1,6.67E2,2.63E2,-5.792193E-3,2E0,1E0,8.070261E-2,5.46E2,1.85E2,2.346058E0,2E0,1E0,6.0564E-2,2E0,6.39E1,8.56E2,1.41E2,1.7E2,9.96E0,1.1E1,4.333E1,1.39179E-1,-3.1143773E-1,1.2796414E-1,1.49E2,9.3E1,9.74E-3,4E0,3.25E2,2.51268E-1,3.407E-3,6.99E2,1.0150926E-1,4.4832987E-1,5.3497426E-2,-1.9428097E-1,-8.182601E-2,3.2312816E-1,-3.4572455E-1,-6.855305E-2,-3.657525E-2,2.0833273E-1,1.9968975E-2,2.3707104E-1,-1.1390992E-2,-6.1166625E-2,3.4072243E-2,-1.0992764E-1,5.3210367E-2,-1.0106422E-2,-2.963609E-2,-5.280408E-4,-5.0344873E-2,1.4499058E-1,1.7105268E-3,-1.9950122E-2,5.9147373E-2,-4.0094294E-2,8.92809E-2,1.207283E-2,2.5115746E-1,3.225544E-2,-3.113129E-1,1.3205963E-1,1.7108926E-1,-1.63062E-1,-1.2071443E-1,1.5505753E-2,-2.1438025E-1,1.6311046E-3,2.886274E-1,7.6164743E-3,-1.940466E-1,2.527023E-1,1.6819802E-1,-1.05393745E-1,4.88718E-2,-9.515308E-3,-4.6447936E-2,-2.6123884E-1,-3.3694336E-1,7.715921E-2,1.9024437E-2,-1.3019063E-1],"split_indices":[4,5,5,9,10,5,5,4,9,5,7,8,9,8,5,3,5,5,3,8,5,3,5,10,10,0,3,5,3,9,5,8,0,0,0,0,8,8,10,4,0,10,0,9,5,8,5,9,3,9,10,0,0,8,8,10,4,5,10,10,8,0,0,0,0,0,0,0,0,0,0,0,0,0,0,0,0,0,0,0,0,0,0,0,0,0,0,0,0,0,0,0,0,0,0,0,0,0,0,0,0,0,0,0,0,0,0,0,0,0,0,0,0],"split_type":[0,0,0,0,0,0,0,0,0,0,0,0,0,0,0,0,0,0,0,0,0,0,0,0,0,0,0,0,0,0,0,0,0,0,0,0,0,0,0,0,0,0,0,0,0,0,0,0,0,0,0,0,0,0,0,0,0,0,0,0,0,0,0,0,0,0,0,0,0,0,0,0,0,0,0,0,0,0,0,0,0,0,0,0,0,0,0,0,0,0,0,0,0,0,0,0,0,0,0,0,0,0,0,0,0,0,0,0,0,0,0,0,0],"sum_hessian":[1.5175635E4,1.3833024E4,1.3426097E3,4.286621E2,1.3404362E4,1.4140335E2,1.2012064E3,1.5711016E1,4.1295108E2,6.091314E3,7.313049E3,1.3497029E2,6.433065E0,1.0935506E2,1.0918513E3,7.4661694E0,8.244846E0,5.7163863E0,4.0723468E2,1.5309497E3,4.5603643E3,4.361896E3,2.9511526E3,4.387636E1,9.1093925E1,3.5984192E0,2.834646E0,3.2028694E1,7.732636E1,4.6160425E2,6.302471E2,5.7011724E0,1.7649966E0,4.6345625E0,3.6102836E0,1.2506492E0,4.465737E0,2.1699753E1,3.8553494E2,1.4084076E3,1.22542145E2,5.4018005E2,4.020184E3,2.331254E2,4.1287705E3,3.3007666E2,2.621076E3,4.0711758E1,3.1646056E0,1.5362551E1,7.573137E1,1.2756779E0,1.5589681E0,2.0996431E1,1.1032263E1,2.9517986E1,4.7808376E1,4.09213E2,5.239122E1,1.7757193E2,4.5267514E2,1.34674E0,4.3544326E0,1.8451482E0,2.7894144E0,1.1375581E0,2.4727254E0,3.364173E0,1.101564E0,6.165029E0,1.5534723E1,3.7926978E2,6.2651753E0,1.1231584E3,2.8524918E2,2.2082546E1,1.004596E2,3.183978E2,2.2178226E2,1.3968376E3,2.6233464E3,2.2122058E2,1.19048195E1,3.500578E3,6.281927E2,6.1556396E1,2.6852026E2,9.267857E1,2.5283975E3,8.0060835E0,3.2705673E1,2.0290637E0,1.1355419E0,1.1809906E1,3.552645E0,4.1479794E1,3.425158E1,1.3496016E1,7.500416E0,3.5466897E0,7.4855733E0,1.4939272E0,2.802406E1,3.6041573E1,1.1766802E1,1.5446906E2,2.5474396E2,4.199856E1,1.0392661E1,1.737053E0,1.7583488E2,4.4176947E2,1.0905679E1],"tree_param":{"num_deleted":"0","num_feature":"11","num_nodes":"113","size_leaf_vector":"1"}},{"base_weights":[-1.9379265E-3,-1.3890583E-2,3.571548E-2,-2.7763005E-2,1.2022465E-2,1.6932605E-2,8.0101654E-2,-2.0238709E-2,-1.6525334E-1,-3.2665554E-2,3.316416E-2,1.0854572E-2,2.2758931E-1,5.5672485E-1,7.470219E-2,-3.714088E-2,1.2382467E-2,-2.7544174E-1,-6.916653E-2,6.268187E-4,-2.797632E-1,-7.4695755E-4,8.449688E-2,1.4605023E-2,-3.3419412E-1,5.9744686E-1,-1.1159877E-1,-1.6339663E-1,7.2188705E-1,1.7101455E-2,1.139029E-1,9.20216E-2,-4.5201123E-2,1.2352636E-1,-1.5951153E-2,6.156416E-1,-3.058611E-1,3.18425E-1,-1.4203632E-1,9.33126E-3,-6.8185097E-1,-3.505598E-1,2.8787294E-1,1.2705065E-1,-4.115818E-2,1.08714655E-1,-1.0413131E-1,-8.733042E-3,6.3542165E-2,-4.2658356E-1,2.7680045E-1,1.0607183E0,8.159017E-2,-2.934031E-1,7.316351E-1,1.1303508E0,1.8395339E-1,8.5814014E-2,-1.5531062E-1,1.2822992E-1,-3.3033141E-1,4.612641E-2,-3.218739E-2,-5.2241158E-2,-1.0534294E-2,6.691584E-2,-2.7532278E-2,-1.1811584E-1,-2.8079443E-3,3.492087E-1,8.454635E-3,-9.915937E-2,1.1752352E-1,-2.7603075E-2,2.3988764E-1,-1.9828631E-1,-2.7935548E-2,6.5755084E-2,-3.6456017E-3,2.1076708E-1,-2.685941E-1,-1.5876937E-1,-3.7579685E-2,-1.11621745E-1,1.8619765E-1,1.3575606E-1,2.4312228E-2,-1.870239E-2,5.150571E-2,1.914006E-2,9.47275E-2,-1.9374926E-1,-4.9348366E-3,6.350815E-3,-3.8329408E-2,-2.1083435E-1,2.1838276E-2,1.578629E-1,-1.7618695E-1,4.4332418E-1,2.4069658E-1,-3.642024E-2,3.479971E-1,-1.5662651E-1,5.688151E-2,-6.783132E-2,3.9960524E-1,1.457434E-1,4.0887448E-1,2.73191E-1,-8.059636E-2,3.2092895E-2,-2.6169962E-1,-3.401657E-2,-3.253549E-1,2.7910523E-2,7.3576055E-2,4.1631896E-2,-2.3847415E-1],"categories":[],"categories_nodes":[],"categories_segments":[],"categories_sizes":[],"default_left":[0,0,0,0,0,0,0,0,0,0,0,0,0,0,0,0,0,0,0,0,0,0,0,0,0,0,0,0,0,0,0,0,0,0,0,0,0,0,0,0,0,0,0,0,0,0,0,0,0,0,0,0,0,0,0,0,0,0,0,0,0,0,0,0,0,0,0,0,0,0,0,0,0,0,0,0,0,0,0,0,0,0,0,0,0,0,0,0,0,0,0,0,0,0,0,0,0,0,0,0,0,0,0,0,0,0,0,0,0,0,0,0,0,0,0,0,0,0,0],"id":12,"left_children":[1,3,5,7,9,11,13,15,17,19,21,23,25,27,29,31,33,35,37,39,41,43,45,47,49,51,53,-1,55,57,59,61,63,65,67,69,71,73,75,77,79,81,83,85,87,89,91,93,95,97,-1,99,101,103,105,107,109,111,113,115,117,-1,-1,-1,-1,-1,-1,-1,-1,-1,-1,-1,-1,-1,-1,-1,-1,-1,-1,-1,-1,-1,-1,-1,-1,-1,-1,-1,-1,-1,-1,-1,-1,-1,-1,-1,-1,-1,-1,-1,-1,-1,-1,-1,-1,-1,-1,-1,-1,-1,-1,-1,-1,-1,-1,-1,-1,-1,-1],"loss_changes":[6.817773E0,4.1337547E0,3.0417342E0,7.744634E0,3.7896347E0,3.2830305E0,2.7508364E0,3.916279E0,4.0938473E0,1.059865E1,4.739503E0,3.2337961E0,9.088001E0,2.5759788E0,2.4232802E0,4.874705E0,7.6374264E0,5.084152E0,5.9437704E0,6.757034E0,6.2484503E0,8.47768E0,4.959142E0,2.8206892E0,3.5138352E0,8.172103E0,6.0943694E0,0E0,2.1793556E0,5.180105E0,4.1088934E0,3.4017332E0,5.721822E0,1.0577207E1,4.809437E0,1.9949086E0,3.146801E0,6.662014E0,4.4184237E0,5.0656786E0,4.8621354E0,5.4267826E0,4.077057E0,5.86899E0,5.633759E0,8.910521E0,5.8670645E0,5.956758E0,5.7052054E0,4.246443E0,0E0,7.673321E-1,3.9572608E0,3.6628397E0,4.377259E0,2.3444366E-1,2.1797822E0,6.429573E0,4.7322245E0,2.5294657E0,4.5218363E0,0E0,0E0,0E0,0E0,0E0,0E0,0E0,0E0,0E0,0E0,0E0,0E0,0E0,0E0,0E0,0E0,0E0,0E0,0E0,0E0,0E0,0E0,0E0,0E0,0E0,0E0,0E0,0E0,0E0,0E0,0E0,0E0,0E0,0E0,0E0,0E0,0E0,0E0,0E0,0E0,0E0,0E0,0E0,0E0,0E0,0E0,0E0,0E0,0E0,0E0,0E0,0E0,0E0,0E0,0E0,0E0,0E0,0E0],"parents":[2147483647,0,0,1,1,2,2,3,3,4,4,5,5,6,6,7,7,8,8,9,9,10,10,11,11,12,12,13,13,14,14,15,15,16,16,17,17,18,18,19,19,20,20,21,21,22,22,23,23,24,24,25,25,26,26,28,28,29,29,30,30,31,31,32,32,33,33,34,34,35,35,36,36,37,37,38,38,39,39,40,40,41,41,42,42,43,43,44,44,45,45,46,46,47,47,48,48,49,49,51,51,52,52,53,53,54,54,55,55,56,56,57,57,58,58,59,59,60,60],"right_children":[2,4,6,8,10,12,14,16,18,20,22,24,26,28,30,32,34,36,38,40,42,44,46,48,50,52,54,-1,56,58,60,62,64,66,68,70,72,74,76,78,80,82,84,86,88,90,92,94,96,98,-1,100,102,104,106,108,110,112,114,116,118,-1,-1,-1,-1,-1,-1,-1,-1,-1,-1,-1,-1,-1,-1,-1,-1,-1,-1,-1,-1,-1,-1,-1,-1,-1,-1,-1,-1,-1,-1,-1,-1,-1,-1,-1,-1,-1,-1,-1,-1,-1,-1,-1,-1,-1,-1,-1,-1,-1,-1,-1,-1,-1,-1,-1,-1,-1,-1],"split_conditions":[1E0,1E0,1E0,1.9E1,2.37E2,9.72E2,5.3E-1,1.68595E-1,3.31E2,2.1E2,2.751E1,9.64E2,9E0,3E0,8.0406E-2,2.59E0,2.09957E-1,1.9E1,3.91E2,9.87E2,1.8E1,3.5E2,8.91E2,4.89E2,1.511661E0,1.05949E-1,4.58E1,-1.6339663E-1,1.10468E-1,5.8974E-2,9.72E2,1.5E1,5.46E0,3E0,2.13078E-1,1.03483E-1,1.698392E0,1E0,4.16E2,3.74E0,3.0975E-2,2.631E1,7.1751E-2,2.3159E-2,3E0,7.39E2,9.06E2,3.88E2,2.658E-3,4.63E0,2.7680045E-1,9.79E2,5.63752E-1,1.6E1,7.9483E-2,1.8E-1,1.8E-1,7.812E1,9.68E2,3E0,1.64442E-1,4.612641E-2,-3.218739E-2,-5.2241158E-2,-1.0534294E-2,6.691584E-2,-2.7532278E-2,-1.1811584E-1,-2.8079443E-3,3.492087E-1,8.454635E-3,-9.915937E-2,1.1752352E-1,-2.7603075E-2,2.3988764E-1,-1.9828631E-1,-2.7935548E-2,6.5755084E-2,-3.6456017E-3,2.1076708E-1,-2.685941E-1,-1.5876937E-1,-3.7579685E-2,-1.11621745E-1,1.8619765E-1,1.3575606E-1,2.4312228E-2,-1.870239E-2,5.150571E-2,1.914006E-2,9.47275E-2,-1.9374926E-1,-4.9348366E-3,6.350815E-3,-3.8329408E-2,-2.1083435E-1,2.1838276E-2,1.578629E-1,-1.7618695E-1,4.4332418E-1,2.4069658E-1,-3.642024E-2,3.479971E-1,-1.5662651E-1,5.688151E-2,-6.783132E-2,3.9960524E-1,1.457434E-1,4.0887448E-1,2.73191E-1,-8.059636E-2,3.2092895E-2,-2.6169962E-1,-3.401657E-2,-3.253549E-1,2.7910523E-2,7.3576055E-2,4.1631896E-2,-2.3847415E-1],"split_indices":[2,6,6,3,8,5,9,10,8,8,9,5,3,3,10,9,10,8,8,5,3,8,5,8,10,10,9,0,10,10,5,3,9,0,10,10,10,7,8,9,10,9,10,10,4,5,5,8,10,9,0,5,10,3,10,9,9,9,5,0,10,0,0,0,0,0,0,0,0,0,0,0,0,0,0,0,0,0,0,0,0,0,0,0,0,0,0,0,0,0,0,0,0,0,0,0,0,0,0,0,0,0,0,0,0,0,0,0,0,0,0,0,0,0,0,0,0,0,0],"split_type":[0,0,0,0,0,0,0,0,0,0,0,0,0,0,0,0,0,0,0,0,0,0,0,0,0,0,0,0,0,0,0,0,0,0,0,0,0,0,0,0,0,0,0,0,0,0,0,0,0,0,0,0,0,0,0,0,0,0,0,0,0,0,0,0,0,0,0,0,0,0,0,0,0,0,0,0,0,0,0,0,0,0,0,0,0,0,0,0,0,0,0,0,0,0,0,0,0,0,0,0,0,0,0,0,0,0,0,0,0,0,0,0,0,0,0,0,0,0,0],"sum_hessian":[1.5146543E4,1.1497439E4,3.6491035E3,7.4884585E3,4.0089807E3,2.565039E3,1.0840647E3,7.1009966E3,3.874619E2,1.2873385E3,2.7216423E3,2.494128E3,7.0911E1,1.0999576E1,1.0730651E3,4.6773564E3,2.4236404E3,1.7961745E2,2.0784448E2,1.1353641E3,1.5197432E2,1.6395306E3,1.0821116E3,2.4682573E3,2.5870647E1,3.3557655E1,3.735335E1,1.1347593E0,9.864816E0,4.3513E2,6.3793506E2,2.7412848E2,4.403228E3,4.9165857E2,1.9319819E3,5.294209E0,1.7432324E2,3.2358913E1,1.7548557E2,1.1220398E3,1.3324365E1,1.3546172E2,1.6512606E1,3.9337292E2,1.2461577E3,9.593636E2,1.2274804E2,1.6717997E3,7.964577E2,2.4714529E1,1.1561189E0,1.7123478E1,1.643418E1,3.1264631E1,6.0887194E0,4.9812045E0,4.8836117E0,3.1149146E2,1.2363854E2,6.1869293E2,1.9242142E1,2.094761E2,6.4652374E1,3.1829642E2,4.0849314E3,3.362057E2,1.554529E2,3.2124123E1,1.8998578E3,2.2305505E0,3.0636585E0,1.6887726E2,5.4459734E0,1.790004E1,1.4458874E1,1.4039861E1,1.6144571E2,1.03345E2,1.01869476E3,1.4739366E0,1.1850429E1,7.479549E1,6.0666237E1,5.495823E0,1.1016783E1,4.7627235E1,3.457457E2,1.134004E3,1.1215373E2,7.8942084E2,1.6994275E2,1.6213741E1,1.065343E2,1.3367991E3,3.3500058E2,8.606987E0,7.878507E2,3.2386873E0,2.1475842E1,4.745594E0,1.2377885E1,1.457761E1,1.8565686E0,2.1163593E1,1.0101036E1,2.586343E0,3.5023763E0,2.1397977E0,2.8414068E0,1.4859201E0,3.3976915E0,3.0562946E2,5.8619976E0,1.19374855E2,4.2636914E0,4.7702325E2,1.416697E2,9.923423E0,9.318718E0],"tree_param":{"num_deleted":"0","num_feature":"11","num_nodes":"119","size_leaf_vector":"1"}},{"base_weights":[-1.4272863E-3,-1.5591886E-2,1.8247692E-2,-4.5268267E-2,1.4590007E-3,1.4705858E-2,1.5012991E-1,-4.7638822E-2,5.4002494E-1,1.5712012E-1,-1.7885996E-3,1.04338154E-1,9.589987E-3,5.8281977E-2,4.835746E-1,2.1647795E-1,-5.1985815E-2,8.6465126E-1,-6.133585E-1,3.2028982E-1,-1.7442714E-1,-5.7351317E-2,8.880549E-3,2.3441935E-1,-7.988462E-2,-7.604827E-3,5.3504918E-2,-6.4871216E-1,9.45534E-2,7.5645715E-1,3.657405E-2,1.1239301E-1,1.1277202E0,-6.0689867E-2,6.2042125E-2,-6.486359E-2,1.1835526E0,-2.2096571E-1,-4.84037E-2,1.1108222E-1,6.2854147E-1,-8.767397E-1,4.02378E-2,-6.533623E-2,6.775207E-1,5.602836E-3,2.1544741E-1,2.1068162E-1,1.3205925E0,-1.48167E-1,7.508255E-1,1.3313945E-1,-1.6082464E-2,1.5718572E-2,1.3597164E-1,1.1708394E-1,-9.5344335E-1,3.3288357E-1,-5.473021E-2,1.2237841E0,4.4789416E-1,3.564401E-1,-1.9360535E-1,1.4900225E-1,-4.14568E-2,4.9890974E-1,1.2179438E-1,-2.4019154E-2,-3.900755E-3,1.4870471E-1,7.5263362E-3,5.4942364E-1,4.2542905E-2,1.0791323E-1,-1.5896025E-1,1.8586807E-2,2.2961749E-1,-3.891482E-1,-5.4965694E-2,1.3995977E-1,-7.834837E-2,1.7329996E-2,-3.2998353E-2,-4.117782E-2,4.273089E-1,2.9780956E-3,-5.117098E-2,2.0386955E-1,-2.1483188E-3,1.954762E-1,4.659175E-2,5.4204863E-1,3.248555E-2,6.667391E-4,-1.600909E-1,3.394482E-1,-1.3506918E-2,1.7342193E-1,1.7175307E-2,-2.8721964E-2,-9.737106E-4,1.3341334E-2,-3.1425886E-2,-1.1381701E-1,4.816186E-2,-9.218253E-2,-3.4116644E-1,2.5119367E-1,4.300933E-2,1.4615455E-1,-3.900769E-2,1.3356335E-1,4.6527287E-1,-3.762842E-2,2.538074E-1,-1.5314241E-1,1.6738075E-1],"categories":[],"categories_nodes":[],"categories_segments":[],"categories_sizes":[],"default_left":[0,0,0,0,0,0,0,0,0,0,0,0,0,0,0,0,0,0,0,0,0,0,0,0,0,0,0,0,0,0,0,0,0,0,0,0,0,0,0,0,0,0,0,0,0,0,0,0,0,0,0,0,0,0,0,0,0,0,0,0,0,0,0,0,0,0,0,0,0,0,0,0,0,0,0,0,0,0,0,0,0,0,0,0,0,0,0,0,0,0,0,0,0,0,0,0,0,0,0,0,0,0,0,0,0,0,0,0,0,0,0,0,0,0,0,0,0],"id":13,"left_children":[1,3,5,7,9,11,13,15,17,19,21,23,25,27,29,31,33,35,37,39,41,43,45,47,49,51,53,55,57,59,61,63,65,67,69,-1,71,-1,-1,73,75,77,79,81,83,85,87,89,91,93,95,97,99,101,103,-1,105,107,109,111,113,-1,115,-1,-1,-1,-1,-1,-1,-1,-1,-1,-1,-1,-1,-1,-1,-1,-1,-1,-1,-1,-1,-1,-1,-1,-1,-1,-1,-1,-1,-1,-1,-1,-1,-1,-1,-1,-1,-1,-1,-1,-1,-1,-1,-1,-1,-1,-1,-1,-1,-1,-1,-1,-1,-1,-1],"loss_changes":[4.212812E0,4.447382E0,2.9534192E0,4.475571E0,2.8225527E0,2.8251019E0,5.0367723E0,3.6796422E0,5.404646E0,6.228902E0,3.2430112E0,7.990928E0,4.403816E0,3.4155502E0,4.3122196E0,4.7986126E0,3.1244135E0,3.9006386E0,7.295847E-2,4.8844895E0,5.8068676E0,5.2153034E0,3.1061919E0,4.755829E0,7.9634137E0,5.0033784E0,5.1113014E0,2.4333575E0,4.4759E0,2.630249E0,4.0834384E0,4.6634927E0,1.338839E0,2.6983309E0,3.5687985E0,0E0,5.3551044E0,0E0,0E0,7.6771355E0,2.344243E0,2.3881931E0,4.011963E0,4.8039837E0,6.013108E0,3.444133E0,7.4085293E0,4.592903E0,2.1539025E0,7.4649563E0,3.286255E0,8.011078E0,4.0431166E0,3.9065819E0,6.587822E0,0E0,2.8283262E-1,4.506459E0,3.241755E0,1.3950281E0,3.4964366E0,0E0,3.3748493E0,0E0,0E0,0E0,0E0,0E0,0E0,0E0,0E0,0E0,0E0,0E0,0E0,0E0,0E0,0E0,0E0,0E0,0E0,0E0,0E0,0E0,0E0,0E0,0E0,0E0,0E0,0E0,0E0,0E0,0E0,0E0,0E0,0E0,0E0,0E0,0E0,0E0,0E0,0E0,0E0,0E0,0E0,0E0,0E0,0E0,0E0,0E0,0E0,0E0,0E0,0E0,0E0,0E0,0E0],"parents":[2147483647,0,0,1,1,2,2,3,3,4,4,5,5,6,6,7,7,8,8,9,9,10,10,11,11,12,12,13,13,14,14,15,15,16,16,17,17,18,18,19,19,20,20,21,21,22,22,23,23,24,24,25,25,26,26,27,27,28,28,29,29,30,30,31,31,32,32,33,33,34,34,36,36,39,39,40,40,41,41,42,42,43,43,44,44,45,45,46,46,47,47,48,48,49,49,50,50,51,51,52,52,53,53,54,54,56,56,57,57,58,58,59,59,60,60,62,62],"right_children":[2,4,6,8,10,12,14,16,18,20,22,24,26,28,30,32,34,36,38,40,42,44,46,48,50,52,54,56,58,60,62,64,66,68,70,-1,72,-1,-1,74,76,78,80,82,84,86,88,90,92,94,96,98,100,102,104,-1,106,108,110,112,114,-1,116,-1,-1,-1,-1,-1,-1,-1,-1,-1,-1,-1,-1,-1,-1,-1,-1,-1,-1,-1,-1,-1,-1,-1,-1,-1,-1,-1,-1,-1,-1,-1,-1,-1,-1,-1,-1,-1,-1,-1,-1,-1,-1,-1,-1,-1,-1,-1,-1,-1,-1,-1,-1,-1,-1],"split_conditions":[1E0,2E0,1.970387E0,1.077E2,2.4E1,2E0,3.873E1,1.3E1,1.6E1,1.45398E-1,3.5568E-2,5.73E2,3E0,4.1E1,4.33E2,5.447E1,9.29E2,7.5649E-2,1E0,7.8694E-2,1.62E2,9.91E2,7.1E2,7.07E2,5.91662E-1,2.43E0,3.229E1,7.2E0,3.17E2,4.58E1,5.3E1,1.614E1,7E0,2E0,3.1E0,-6.486359E-2,3.55E2,-2.2096571E-1,-4.84037E-2,5.2004E-2,1.3E1,1E1,1.506E1,9.74E-3,9E0,6.94E2,3.36E2,1.9061E-2,1E0,3E0,2.811E1,1.04E2,1.39E2,2.513E1,3.3E1,1.1708394E-1,2.91E2,2.888985E0,1.2E2,3.36E2,5.795E1,3.564401E-1,6.79E2,1.4900225E-1,-4.14568E-2,4.9890974E-1,1.2179438E-1,-2.4019154E-2,-3.900755E-3,1.4870471E-1,7.5263362E-3,5.4942364E-1,4.2542905E-2,1.0791323E-1,-1.5896025E-1,1.8586807E-2,