{"learner":{"attributes":{"scikit_learn":"{\"_estimator_type\": \"classifier\"}"},"feature_names":["IP_Address_Flag","Previous_Fraudulent_Activity","Transaction_Amount_Ratio","Failed_Transaction_Rate","Transaction_Distance_Ratio","Transaction_Count_Ratio","Multiple_Account_Login","Transaction_Location_Flag","Suspicious_IP_Flag"],"feature_types":["int","int","float","float","float","float","int","int","int"],"gradient_booster":{"model":{"gbtree_model_param":{"num_parallel_tree":"1","num_trees":"250"},"iteration_indptr":[0,1,2,3,4,5,6,7,8,9,10,11,12,13,14,15,16,17,18,19,20,21,22,23,24,25,26,27,28,29,30,31,32,33,34,35,36,37,38,39,40,41,42,43,44,45,46,47,48,49,50,51,52,53,54,55,56,57,58,59,60,61,62,63,64,65,66,67,68,69,70,71,72,73,74,75,76,77,78,79,80,81,82,83,84,85,86,87,88,89,90,91,92,93,94,95,96,97,98,99,100,101,102,103,104,105,106,107,108,109,110,111,112,113,114,115,116,117,118,119,120,121,122,123,124,125,126,127,128,129,130,131,132,133,134,135,136,137,138,139,140,141,142,143,144,145,146,147,148,149,150,151,152,153,154,155,156,157,158,159,160,161,162,163,164,165,166,167,168,169,170,171,172,173,174,175,176,177,178,179,180,181,182,183,184,185,186,187,188,189,190,191,192,193,194,195,196,197,198,199,200,201,202,203,204,205,206,207,208,209,210,211,212,213,214,215,216,217,218,219,220,221,222,223,224,225,226,227,228,229,230,231,232,233,234,235,236,237,238,239,240,241,242,243,244,245,246,247,248,249,250],"tree_info":[0,0,0,0,0,0,0,0,0,0,0,0,0,0,0,0,0,0,0,0,0,0,0,0,0,0,0,0,0,0,0,0,0,0,0,0,0,0,0,0,0,0,0,0,0,0,0,0,0,0,0,0,0,0,0,0,0,0,0,0,0,0,0,0,0,0,0,0,0,0,0,0,0,0,0,0,0,0,0,0,0,0,0,0,0,0,0,0,0,0,0,0,0,0,0,0,0,0,0,0,0,0,0,0,0,0,0,0,0,0,0,0,0,0,0,0,0,0,0,0,0,0,0,0,0,0,0,0,0,0,0,0,0,0,0,0,0,0,0,0,0,0,0,0,0,0,0,0,0,0,0,0,0,0,0,0,0,0,0,0,0,0,0,0,0,0,0,0,0,0,0,0,0,0,0,0,0,0,0,0,0,0,0,0,0,0,0,0,0,0,0,0,0,0,0,0,0,0,0,0,0,0,0,0,0,0,0,0,0,0,0,0,0,0,0,0,0,0,0,0,0,0,0,0,0,0,0,0,0,0,0,0,0,0,0,0,0,0,0,0,0,0,0,0,0,0,0,0,0,0],"trees":[{"base_weights":[-0E0,-9.5664567E-1,1.881736E0,-1.3891575E0,1.16187E0,9.919892E-1,1.9795492E0,-1.5606129E0,1.7969236E0,3.0875927E-1,1.9128472E0,1.21703856E-1,1.9219452E0,1.7863264E0,1.997801E-1,-1.7696621E0,-2.6602885E-1,4.6875E-1,1.9481034E0,-4.045384E-1,1.9993597E-1,1.3154302E0,1.9731086E0,-6.1793214E-1,1.9979508E-1,1.5405651E0,1.9992541E-1,1.2182554E0,1.984076E0,-1.80292E0,1.7047452E0,-9.183583E-1,1.9993843E-1,-6.33694E-1,1.8737673E0,1.3826367E0,1.9848053E0,-1.0091277E0,1.9986564E-1,2.8846154E-1,1.9385515E0,1.7756143E0,1.9946836E-1,-1.2597436E0,1.995906E-1,5.681818E-1,1.9946453E-1,-6.369427E-2,1.8964547E0,1.7380353E0,1.9967532E-1,-1.9083902E0,-1.0127667E0,8.1632656E-1,1.9665908E0,-1.405959E0,1.9987623E-1,-1.2333965E0,1.9672132E-1,8.77193E-1,1.9911505E-1,1.5228426E-1,1.9437939E0,1.2121212E0,1.9952928E-1,-1.4064294E0,1.9971056E-1,-4.4673538E-1,1.984127E-1,1.5384616E0,1.9966303E-1,6.10687E-1,1.9346336E0,-1.6192071E0,1.9899245E-1,-6.5868264E-1,1.6577541E0,-8.0924857E-1,1.984127E-1,1.1627907E0,1.9726198E0,-6.25E-2,1.9346049E0,-1.9183455E-1,1.7564403E-1,-1.4480428E-1,1.9984917E-1,-4.8128344E-2,1.9806764E-1,9.090909E-2,1.9814958E-1,-1.6550641E-1,1.5111695E-1,-1.6101696E-1,1.9298247E-1,-9.090909E-2,1.8918918E-1,-1.0714286E-1,1.724138E-1,9.090909E-2,1.9901721E-1,-1.25E-1,1.9607843E-1,-1.6267699E-1,1.9937205E-1,-1.3178295E-1,1.2690356E-1,-3.7037037E-2,1.8471338E-1,-6.569343E-2,1.968504E-1,1.292517E-1,1.9863014E-1,-1.827576E-1,1.9796954E-1,-1.3636364E-1,1.8918918E-1,-0E0,1.8562876E-1,-1.4590748E-1,1.969697E-1,-1.4925373E-2,1.9626169E-1,1.3432835E-1,1.997406E-1,9.090909E-2,1.9884726E-1],"categories":[],"categories_nodes":[],"categories_segments":[],"categories_sizes":[],"default_left":[0,0,0,0,0,0,0,0,0,0,0,0,0,0,0,0,0,0,0,0,0,0,0,0,0,0,0,0,0,0,0,0,0,0,0,0,0,0,0,0,0,0,0,0,0,0,0,0,0,0,0,0,0,0,0,0,0,0,0,0,0,0,0,0,0,0,0,0,0,0,0,0,0,0,0,0,0,0,0,0,0,0,0,0,0,0,0,0,0,0,0,0,0,0,0,0,0,0,0,0,0,0,0,0,0,0,0,0,0,0,0,0,0,0,0,0,0,0,0,0,0,0,0,0,0,0,0],"id":0,"left_children":[1,3,5,7,9,11,13,15,17,19,21,23,25,27,-1,29,31,33,35,37,-1,39,41,43,-1,45,-1,47,49,51,53,55,-1,57,59,61,63,65,-1,67,69,71,-1,73,-1,75,-1,77,79,81,-1,83,85,87,89,91,-1,93,-1,95,-1,97,99,101,-1,103,-1,105,-1,107,-1,109,111,113,-1,115,117,119,-1,121,123,-1,125,-1,-1,-1,-1,-1,-1,-1,-1,-1,-1,-1,-1,-1,-1,-1,-1,-1,-1,-1,-1,-1,-1,-1,-1,-1,-1,-1,-1,-1,-1,-1,-1,-1,-1,-1,-1,-1,-1,-1,-1,-1,-1,-1,-1],"loss_changes":[3.6003453E4,1.2149481E4,5.864512E2,6.015457E3,1.4402239E3,5.404857E2,2.10625E1,2.8278125E3,1.12824585E2,1.2694126E3,4.2783203E1,4.7903244E2,9.210815E0,5.8745728E1,0E0,1.0398457E3,2.1471992E3,8.9338425E1,1.0203003E1,1.0758903E3,0E0,7.023999E1,4.272461E0,4.1562296E2,0E0,2.4105133E1,0E0,1.1812242E2,8.673096E-1,7.4243555E2,1.969432E1,1.6048794E3,0E0,5.070122E1,2.7908096E0,2.144249E1,3.5980225E0,7.0687695E2,0E0,5.1949192E1,1.2810364E0,1.9860626E1,0E0,2.3260632E2,0E0,2.3636124E1,0E0,7.2071045E1,4.7355347E0,9.341259E0,0E0,2.8716406E2,1.37603E3,2.9708414E1,8.577881E-1,7.026505E2,0E0,3.1715088E1,0E0,5.3377304E0,0E0,1.9131182E1,8.436127E-1,1.2410873E1,0E0,3.918512E2,0E0,4.3660038E1,0E0,5.4301643E0,0E0,2.2677008E1,2.8900757E0,1.3466876E2,0E0,1.5271594E1,3.0772667E0,6.2769165E1,0E0,9.054197E0,9.850464E-1,0E0,8.3291626E-1,0E0,0E0,0E0,0E0,0E0,0E0,0E0,0E0,0E0,0E0,0E0,0E0,0E0,0E0,0E0,0E0,0E0,0E0,0E0,0E0,0E0,0E0,0E0,0E0,0E0,0E0,0E0,0E0,0E0,0E0,0E0,0E0,0E0,0E0,0E0,0E0,0E0,0E0,0E0,0E0,0E0,0E0,0E0,0E0],"parents":[2147483647,0,0,1,1,2,2,3,3,4,4,5,5,6,6,7,7,8,8,9,9,10,10,11,11,12,12,13,13,15,15,16,16,17,17,18,18,19,19,21,21,22,22,23,23,25,25,27,27,28,28,29,29,30,30,31,31,33,33,34,34,35,35,36,36,37,37,39,39,40,40,41,41,43,43,45,45,47,47,48,48,49,49,51,51,52,52,53,53,54,54,55,55,57,57,59,59,61,61,62,62,63,63,65,65,67,67,69,69,71,71,72,72,73,73,75,75,76,76,77,77,79,79,80,80,82,82],"right_children":[2,4,6,8,10,12,14,16,18,20,22,24,26,28,-1,30,32,34,36,38,-1,40,42,44,-1,46,-1,48,50,52,54,56,-1,58,60,62,64,66,-1,68,70,72,-1,74,-1,76,-1,78,80,82,-1,84,86,88,90,92,-1,94,-1,96,-1,98,100,102,-1,104,-1,106,-1,108,-1,110,112,114,-1,116,118,120,-1,122,124,-1,126,-1,-1,-1,-1,-1,-1,-1,-1,-1,-1,-1,-1,-1,-1,-1,-1,-1,-1,-1,-1,-1,-1,-1,-1,-1,-1,-1,-1,-1,-1,-1,-1,-1,-1,-1,-1,-1,-1,-1,-1,-1,-1,-1,-1],"split_conditions":[7E0,2E0,8E0,8.313492E-1,3.505618E-1,3.6899564E-1,9E0,1E0,8.907563E-1,1E0,4.0163934E-1,1E0,4.6341464E-1,2.1875E-1,1.997801E-1,3.3654404E1,1E0,5.566647E0,9.403973E-1,1E0,1.9993597E-1,4.815075E0,4.5652175E-1,2E0,1.9979508E-1,4.284275E0,1.9992541E-1,1.3675214E0,2.5E-1,1E0,3.941874E1,1E0,1.9993843E-1,1E0,6.447656E0,3.7063806E0,2.6647678E-1,1E0,1.9986564E-1,1E0,2.3944745E0,1.9046663E0,1.9946836E-1,1E0,1.995906E-1,4.518364E0,1.9946453E-1,1E0,1.8733333E0,1.5925767E0,1.9967532E-1,7.151193E1,1E0,2.094082E-1,2.4305556E-2,4.1525424E-1,1.9987623E-1,1E0,1.9672132E-1,3.3567126E0,1.9911505E-1,7.307692E-1,8.0637753E-1,9.286077E-1,1.9952928E-1,3E0,1.9971056E-1,8.558659E0,1.984127E-1,1.880109E-1,1.9966303E-1,6.818182E-1,1.5332091E0,1E0,1.9899245E-1,1E0,1.7391305E-1,2E0,1.984127E-1,9.756097E-2,1.1208451E0,-6.25E-2,1.7391305E-1,-1.9183455E-1,1.7564403E-1,-1.4480428E-1,1.9984917E-1,-4.8128344E-2,1.9806764E-1,9.090909E-2,1.9814958E-1,-1.6550641E-1,1.5111695E-1,-1.6101696E-1,1.9298247E-1,-9.090909E-2,1.8918918E-1,-1.0714286E-1,1.724138E-1,9.090909E-2,1.9901721E-1,-1.25E-1,1.9607843E-1,-1.6267699E-1,1.9937205E-1,-1.3178295E-1,1.2690356E-1,-3.7037037E-2,1.8471338E-1,-6.569343E-2,1.968504E-1,1.292517E-1,1.9863014E-1,-1.827576E-1,1.9796954E-1,-1.3636364E-1,1.8918918E-1,-0E0,1.8562876E-1,-1.4590748E-1,1.969697E-1,-1.4925373E-2,1.9626169E-1,1.3432835E-1,1.997406E-1,9.090909E-2,1.9884726E-1],"split_indices":[6,0,6,5,5,5,6,1,5,7,5,8,5,5,0,4,7,4,5,1,0,4,5,0,0,4,0,3,5,8,4,8,0,1,4,4,4,8,0,8,2,4,0,7,0,2,0,1,3,2,0,2,7,5,3,5,0,8,0,2,0,3,2,2,0,0,0,2,0,3,0,3,2,1,0,7,3,0,0,5,4,0,3,0,0,0,0,0,0,0,0,0,0,0,0,0,0,0,0,0,0,0,0,0,0,0,0,0,0,0,0,0,0,0,0,0,0,0,0,0,0,0,0,0,0,0,0],"split_type":[0,0,0,0,0,0,0,0,0,0,0,0,0,0,0,0,0,0,0,0,0,0,0,0,0,0,0,0,0,0,0,0,0,0,0,0,0,0,0,0,0,0,0,0,0,0,0,0,0,0,0,0,0,0,0,0,0,0,0,0,0,0,0,0,0,0,0,0,0,0,0,0,0,0,0,0,0,0,0,0,0,0,0,0,0,0,0,0,0,0,0,0,0,0,0,0,0,0,0,0,0,0,0,0,0,0,0,0,0,0,0,0,0,0,0,0,0,0,0,0,0,0,0,0,0,0,0],"sum_hessian":[2E4,1.325925E4,6.74075E3,1.101125E4,2.248E3,6.6775E2,6.073E3,1.0449E4,5.6225E2,1.0525E3,1.1955E3,3.45E2,3.2275E2,5.25E2,5.548E3,8.99625E3,1.45275E3,5.75E1,5.0475E2,7.4025E2,3.1225E2,1.0975E2,1.08575E3,2.475E2,9.75E1,5.475E1,2.68E2,1.3575E2,3.8925E2,8.911E3,8.525E1,1.128E3,3.2475E2,3.225E1,2.525E1,3.1E1,4.7375E2,5.915E2,1.4875E2,4.15E1,6.825E1,1.0775E2,9.78E2,1.9875E2,4.875E1,1.75E1,3.725E1,4.7E1,8.875E1,1.975E1,3.695E2,7.8615E3,1.0495E3,1.95E1,6.575E1,9.665E2,1.615E2,2.625E1,6E0,2.75E0,2.25E1,9.75E0,2.125E1,6.5E0,4.6725E2,5.225E2,6.9E1,2.9E1,1.25E1,9E0,5.925E1,1.3E1,9.475E1,1.79E2,1.975E1,8.25E0,9.25E0,3.45E1,1.25E1,8.5E0,8.025E1,1.5E0,1.825E1,7.84025E3,2.125E1,9.17E2,1.325E2,9.25E0,1.025E1,1E0,6.475E1,8.905E2,7.6E1,2.35E1,2.75E0,1E0,1.75E0,5.5E0,4.25E0,1E0,2.025E1,1.5E0,5E0,4.9075E2,3.175E1,1.925E1,9.75E0,1.25E0,7.75E0,6.75E0,6.25E0,7.25E0,8.75E1,1.6925E2,9.75E0,6.5E0,1.75E0,1E0,8.25E0,2.8E1,6.5E0,3.25E0,5.25E0,3.25E0,7.7E1,1E0,1.725E1],"tree_param":{"num_deleted":"0","num_feature":"9","num_nodes":"127","size_leaf_vector":"1"}},{"base_weights":[7.528108E-5,-8.68791E-1,1.7110505E0,-1.2615495E0,1.0557314E0,9.0182275E-1,1.8000531E0,-1.4172007E0,1.6337137E0,2.8047678E-1,1.7390457E0,4.1087642E-2,1.6823308E0,1.6239628E0,1.8166934E-1,-1.6050863E0,-2.0391297E-1,4.2652267E-1,1.771331E0,-3.6689594E-1,1.8182497E-1,1.194588E0,1.7940536E0,-6.3418055E-1,1.8168013E-1,9.997057E-1,1.7852618E0,1.1197113E0,1.8090142E0,-1.6378722E0,1.6099077E0,-8.1305146E-1,1.8182157E-1,-5.229253E-1,1.7754985E0,1.256017E0,1.8048388E0,-9.1147715E-1,1.8175714E-1,1.1246464E-1,1.686351E0,1.6133401E0,1.8138154E0,-1.2093326E0,1.8148765E-1,8.485335E-3,1.7948804E0,1.5382656E0,1.8181066E-1,1.6633473E-2,1.7264328E0,1.513271E0,1.8165146E-1,-1.7371093E0,-8.98268E-1,8.110197E-1,1.8370545E0,-1.2403033E0,1.819493E-1,-1.0785792E0,1.7940307E-1,1.0459333E-1,1.8113253E-1,1.385086E-1,1.768063E0,1.1013671E0,1.814401E-1,-1.2747247E0,1.8161534E-1,-6.374917E-1,1.8622263E-1,9.5607066E-1,1.7626706E0,5.5376E-1,1.7585866E0,1.7417467E0,1.8189643E-1,-1.5327668E0,1.809833E-1,-5.4434305E-1,1.8174027E-1,1.3969601E0,1.8318395E-1,3.059024E-1,1.7575091E0,-7.324129E-1,1.8481822E-1,1.0767009E0,1.7944027E0,-1.0554442E-2,1.7976761E-1,-1.7463021E-1,1.917048E-1,-1.310351E-1,1.8175188E-1,-3.7037514E-2,1.8563858E-1,1.1208059E-1,1.8509136E-1,-1.4409825E-1,1.9846909E-1,-1.4352499E-1,1.7653644E-1,-9.690255E-2,1.5674283E-1,1.0104686E-1,1.8103938E-1,-1.13711834E-1,1.7858857E-1,-1.4741921E-1,1.8134764E-1,-1.1389251E-1,1.8405698E-1,-1.2669154E-1,1.6751167E-1,1.3968389E-1,1.8159114E-1,-5.928531E-2,1.792357E-1,1.1700076E-1,1.8062268E-1,-1.8812677E-2,1.7858279E-1,-1.699758E-1,1.796872E-1,-1.0466545E-1,1.787098E-1,1.0064023E-1,1.6831936E-1,-1.091144E-1,1.4709191E-1,1.314898E-1,1.813972E-1,-1.2887457E-1,1.8581466E-1,-4.3221172E-2,1.6801722E-1,1.2961821E-1,1.8166198E-1],"categories":[],"categories_nodes":[],"categories_segments":[],"categories_sizes":[],"default_left":[0,0,0,0,0,0,0,0,0,0,0,0,0,0,0,0,0,0,0,0,0,0,0,0,0,0,0,0,0,0,0,0,0,0,0,0,0,0,0,0,0,0,0,0,0,0,0,0,0,0,0,0,0,0,0,0,0,0,0,0,0,0,0,0,0,0,0,0,0,0,0,0,0,0,0,0,0,0,0,0,0,0,0,0,0,0,0,0,0,0,0,0,0,0,0,0,0,0,0,0,0,0,0,0,0,0,0,0,0,0,0,0,0,0,0,0,0,0,0,0,0,0,0,0,0,0,0,0,0,0,0,0,0,0,0,0,0,0,0],"id":1,"left_children":[1,3,5,7,9,11,13,15,17,19,21,23,25,27,-1,29,31,33,35,37,-1,39,41,43,-1,45,47,49,51,53,55,57,-1,59,61,63,65,67,-1,69,71,73,75,77,-1,79,81,83,-1,85,87,89,-1,91,93,95,97,99,-1,101,-1,-1,-1,103,105,107,-1,109,-1,111,-1,113,115,117,119,121,-1,123,-1,125,-1,127,-1,129,131,133,-1,135,137,-1,-1,-1,-1,-1,-1,-1,-1,-1,-1,-1,-1,-1,-1,-1,-1,-1,-1,-1,-1,-1,-1,-1,-1,-1,-1,-1,-1,-1,-1,-1,-1,-1,-1,-1,-1,-1,-1,-1,-1,-1,-1,-1,-1,-1,-1,-1,-1,-1,-1],"loss_changes":[2.9461883E4,9.935022E3,4.805625E2,4.919508E3,1.1801001E3,4.444375E2,1.7324219E1,2.361414E3,9.2451416E1,1.0391776E3,3.5248535E1,3.7748376E2,2.4199036E1,4.8329834E1,0E0,9.457637E2,1.7112783E3,7.3258865E1,8.40564E0,8.741113E2,0E0,5.795993E1,3.5473633E0,3.2149084E2,0E0,3.600911E1,2.1652222E0,9.362094E1,5.687256E-1,6.515625E2,1.6291992E1,1.2010789E3,0E0,4.3457806E1,4.2794037E-1,1.7629261E1,2.9561768E0,5.8293555E2,0E0,4.493124E1,4.00618E0,1.635379E1,4.248047E-2,1.8070023E2,0E0,2.0536654E1,1.1692047E-1,9.678482E0,0E0,6.837624E1,3.7924194E0,4.625496E0,0E0,2.6332422E2,1.1760779E3,2.5060839E1,4.920349E-1,5.948148E2,0E0,2.7810667E1,0E0,0E0,0E0,1.5665603E1,4.9529266E-1,1.0234033E1,0E0,3.2000232E2,0E0,3.0005016E1,0E0,1.188999E1,1.0648651E0,1.8614998E1,2.4234009E0,5.7276764E0,0E0,9.312787E1,0E0,1.8609028E1,0E0,1.1853933E-1,0E0,9.212144E0,5.25177E-1,5.122235E1,0E0,8.083158E0,6.672363E-1,0E0,0E0,0E0,0E0,0E0,0E0,0E0,0E0,0E0,0E0,0E0,0E0,0E0,0E0,0E0,0E0,0E0,0E0,0E0,0E0,0E0,0E0,0E0,0E0,0E0,0E0,0E0,0E0,0E0,0E0,0E0,0E0,0E0,0E0,0E0,0E0,0E0,0E0,0E0,0E0,0E0,0E0,0E0,0E0,0E0,0E0,0E0,0E0,0E0,0E0],"parents":[2147483647,0,0,1,1,2,2,3,3,4,4,5,5,6,6,7,7,8,8,9,9,10,10,11,11,12,12,13,13,15,15,16,16,17,17,18,18,19,19,21,21,22,22,23,23,25,25,26,26,27,27,28,28,29,29,30,30,31,31,33,33,34,34,35,35,36,36,37,37,39,39,40,40,41,41,42,42,43,43,45,45,46,46,47,47,49,49,50,50,51,51,53,53,54,54,55,55,56,56,57,57,59,59,63,63,64,64,65,65,67,67,69,69,71,71,72,72,73,73,74,74,75,75,77,77,79,79,81,81,83,83,84,84,85,85,87,87,88,88],"right_children":[2,4,6,8,10,12,14,16,18,20,22,24,26,28,-1,30,32,34,36,38,-1,40,42,44,-1,46,48,50,52,54,56,58,-1,60,62,64,66,68,-1,70,72,74,76,78,-1,80,82,84,-1,86,88,90,-1,92,94,96,98,100,-1,102,-1,-1,-1,104,106,108,-1,110,-1,112,-1,114,116,118,120,122,-1,124,-1,126,-1,128,-1,130,132,134,-1,136,138,-1,-1,-1,-1,-1,-1,-1,-1,-1,-1,-1,-1,-1,-1,-1,-1,-1,-1,-1,-1,-1,-1,-1,-1,-1,-1,-1,-1,-1,-1,-1,-1,-1,-1,-1,-1,-1,-1,-1,-1,-1,-1,-1,-1,-1,-1,-1,-1,-1,-1],"split_conditions":[7E0,2E0,8E0,8.313492E-1,3.505618E-1,3.2197616E-1,9E0,1E0,8.907563E-1,1E0,4.0163934E-1,1E0,4.0163934E-1,2.2841726E-1,1.8166934E-1,3.3654404E1,1E0,5.8068576E0,9.403973E-1,1E0,1.8182497E-1,3.7063806E0,4.5652175E-1,2E0,1.8168013E-1,5.3120217E0,4.6341464E-1,1.3675214E0,6.2567544E-1,1E0,3.941874E1,1E0,1.8182157E-1,1E0,6.447656E0,3.7063806E0,2.6647678E-1,1E0,1.8175714E-1,1E0,4.815075E0,1.9046663E0,4.8928973E-1,1E0,1.8148765E-1,2E0,1.6666667E-1,1.7961576E0,1.8181066E-1,1E0,1.8733333E0,1.5925767E0,1.8165146E-1,8.892858E0,1E0,2.094082E-1,3.125E-2,4.4594595E-1,1.819493E-1,1E0,1.7940307E-1,1.0459333E-1,1.8113253E-1,7.307692E-1,9.893928E-1,9.286077E-1,1.814401E-1,3E0,1.8161534E-1,3E0,1.8622263E-1,4.6153846E-1,2.3944745E0,6.818182E-1,1.5332091E0,5.2455443E-1,1.8189643E-1,1E0,1.809833E-1,1E0,1.8174027E-1,1.0219887E1,1.8318395E-1,3.0256746E0,1.880109E-1,1E0,1.8481822E-1,2.8238087E0,1.1208451E0,-1.0554442E-2,1.7976761E-1,-1.7463021E-1,1.917048E-1,-1.310351E-1,1.8175188E-1,-3.7037514E-2,1.8563858E-1,1.1208059E-1,1.8509136E-1,-1.4409825E-1,1.9846909E-1,-1.4352499E-1,1.7653644E-1,-9.690255E-2,1.5674283E-1,1.0104686E-1,1.8103938E-1,-1.13711834E-1,1.7858857E-1,-1.4741921E-1,1.8134764E-1,-1.1389251E-1,1.8405698E-1,-1.2669154E-1,1.6751167E-1,1.3968389E-1,1.8159114E-1,-5.928531E-2,1.792357E-1,1.1700076E-1,1.8062268E-1,-1.8812677E-2,1.7858279E-1,-1.699758E-1,1.796872E-1,-1.0466545E-1,1.787098E-1,1.0064023E-1,1.6831936E-1,-1.091144E-1,1.4709191E-1,1.314898E-1,1.813972E-1,-1.2887457E-1,1.8581466E-1,-4.3221172E-2,1.6801722E-1,1.2961821E-1,1.8166198E-1],"split_indices":[6,0,6,5,5,5,6,7,5,8,5,8,5,5,0,4,1,4,5,1,0,4,5,0,0,4,5,3,4,8,4,8,0,1,4,4,4,7,0,1,4,4,5,1,0,0,3,4,0,7,3,2,0,3,1,5,3,5,0,8,0,0,0,3,2,2,0,0,0,0,0,3,2,3,2,4,0,7,0,1,0,4,0,2,3,8,0,4,4,0,0,0,0,0,0,0,0,0,0,0,0,0,0,0,0,0,0,0,0,0,0,0,0,0,0,0,0,0,0,0,0,0,0,0,0,0,0,0,0,0,0,0,0,0,0,0,0,0,0],"split_type":[0,0,0,0,0,0,0,0,0,0,0,0,0,0,0,0,0,0,0,0,0,0,0,0,0,0,0,0,0,0,0,0,0,0,0,0,0,0,0,0,0,0,0,0,0,0,0,0,0,0,0,0,0,0,0,0,0,0,0,0,0,0,0,0,0,0,0,0,0,0,0,0,0,0,0,0,0,0,0,0,0,0,0,0,0,0,0,0,0,0,0,0,0,0,0,0,0,0,0,0,0,0,0,0,0,0,0,0,0,0,0,0,0,0,0,0,0,0,0,0,0,0,0,0,0,0,0,0,0,0,0,0,0,0,0,0,0,0,0],"sum_hessian":[1.9817982E4,1.3143506E4,6.674477E3,1.0915827E4,2.2276787E3,6.6146185E2,6.013015E3,1.0358974E4,5.568541E2,1.0436951E3,1.1839835E3,3.1461426E2,3.468476E2,5.200071E2,5.4930083E3,8.969895E3,1.3890793E3,5.702604E1,4.998281E2,7.3454285E2,3.0915222E2,1.0885253E2,1.075131E3,2.279817E2,8.663257E1,4.5587563E1,3.0126004E2,1.3979128E2,3.802158E2,8.879393E3,9.050146E1,1.0675533E3,3.21526E2,3.3505287E1,2.352075E1,3.0751554E1,4.6907654E2,5.880116E2,1.4653125E2,3.404952E1,7.480302E1,1.0679495E2,9.6833606E2,1.8466454E2,4.3317165E1,2.0337296E1,2.5250267E1,3.592031E1,2.6533972E2,4.9641335E1,9.014995E1,9.905487E0,3.703103E2,7.8288193E3,1.0505732E3,2.013667E1,7.0364784E1,9.1853204E2,1.4902135E2,2.7067413E1,6.4378757E0,1.242297E0,2.2278452E1,9.702817E0,2.1048738E1,6.446404E0,4.6263013E2,5.1895404E2,6.905756E1,2.38786E1,1.0170917E1,7.205777E0,6.759724E1,1.2932565E1,9.386239E1,6.683301E1,9.0150305E2,1.6684062E2,1.7823906E1,1.5630363E1,4.706932E0,2.4756792E0,2.277459E1,5.4614058E0,3.0458904E1,3.527498E1,1.4366356E1,8.697131E0,8.145281E1,1.4896104E0,8.415876E0,7.8092256E3,1.9593695E1,9.1220984E2,1.3836346E2,9.483591E0,1.0653078E1,1.4910963E0,6.887369E1,8.6477563E2,5.3756405E1,2.4095083E1,2.9723303E0,5.484246E0,4.218571E0,1.2454774E0,1.980326E1,1.4941558E0,4.952248E0,4.8751746E2,3.143657E1,1.9904902E1,3.9736977E0,1.7425025E0,5.4632745E0,8.93384E0,5.86634E1,6.7427225E0,6.1898417E0,7.2198043E0,8.6642586E1,1.485178E0,6.534783E1,1.589193E2,7.921324E0,1.2905061E1,2.725302E0,1.2380269E0,1.2376523E0,2.4862838E0,2.975122E0,3.7207565E0,2.6738148E1,2.9080154E1,6.1948237E0,2.4927263E0,6.204405E0,3.7304728E0,7.772234E1],"tree_param":{"num_deleted":"0","num_feature":"9","num_nodes":"139","size_leaf_vector":"1"}},{"base_weights":[2.4770212E-4,-8.006136E-1,1.5824906E0,-1.1623806E0,9.745217E-1,8.333081E-1,1.665006E0,-1.3095717E0,1.4389503E0,2.5872624E-1,1.607499E0,3.8256016E-2,1.5546534E0,1.5002642E0,1.6805969E-1,-1.4869733E0,-2.0887868E-1,2.9016578E-1,1.6380308E0,-3.3696994E-1,1.6821453E-1,1.0991653E0,1.6591437E0,-5.8481556E-1,1.6808616E-1,9.199121E-1,1.6509991E0,1.0189182E0,1.6688434E0,-1.5151215E0,1.4548377E0,-7.431457E-1,1.6821143E-1,-5.355589E-1,1.662696E0,1.1570655E0,1.6694596E0,-8.364853E-1,1.6815503E-1,1.0374459E-1,1.5567006E0,1.4886097E0,1.6778432E0,-1.1148808E0,1.6791454E-1,9.421311E-3,1.6577476E0,1.4185517E0,1.6820243E-1,-5.205768E-2,1.5921675E0,1.4513615E0,1.680108E-1,-1.6056017E0,-8.3521944E-1,6.7269737E-1,1.6899196E0,-1.1410719E0,1.6819665E-1,-1.0094403E0,1.6955991E-1,7.963095E-2,1.7160497E0,1.2726668E-1,1.6346598E0,1.01518E0,1.6783888E0,-1.1688805E0,1.6803035E-1,-5.785309E-1,1.7146853E-1,8.7508464E-1,1.6286007E0,5.070294E-1,1.624666E0,1.6094342E0,1.6827372E-1,-1.4127796E0,1.6745955E-1,-4.951702E-1,1.7816152E-1,1.2885822E0,1.6922617E-1,2.7982253E-1,1.6235536E0,-6.881655E-1,1.7139387E-1,9.6412855E-1,1.6584517E0,-6.303608E-2,1.6302881E0,-1.6150056E-1,1.9020198E-1,-1.19581334E-1,1.6813071E-1,-4.1857656E-2,1.6834597E-1,8.8612765E-2,1.7043823E-1,-1.3706195E-1,1.4134313E-1,-1.3028358E-1,1.763051E-1,1.291687E-1,1.7486458E-1,-1.277921E-1,1.12185135E-1,9.242662E-2,1.6751409E-1,-1.04103684E-1,1.6532785E-1,1.4200987E-1,1.680582E-1,-1.3439529E-1,1.8992774E-1,-1.0327454E-1,1.6950707E-1,-1.15848064E-1,1.5376632E-1,1.2791254E-1,1.6800644E-1,-5.3599723E-2,1.6590486E-1,1.0666255E-1,1.6705494E-1,-1.7020047E-2,1.6512045E-1,-1.5665923E-1,1.6632204E-1,-1.0980501E-1,1.6591357E-1,8.998979E-2,1.5815245E-1,-1.04323484E-1,1.3922052E-1,8.556977E-2,1.6531578E-1,-1.2409637E-1,1.705123E-1,-1.8787619E-2,1.6855358E-1,1.1071855E-1,1.6806398E-1,1.0313951E-1,1.6779962E-1],"categories":[],"categories_nodes":[],"categories_segments":[],"categories_sizes":[],"default_left":[0,0,0,0,0,0,0,0,0,0,0,0,0,0,0,0,0,0,0,0,0,0,0,0,0,0,0,0,0,0,0,0,0,0,0,0,0,0,0,0,0,0,0,0,0,0,0,0,0,0,0,0,0,0,0,0,0,0,0,0,0,0,0,0,0,0,0,0,0,0,0,0,0,0,0,0,0,0,0,0,0,0,0,0,0,0,0,0,0,0,0,0,0,0,0,0,0,0,0,0,0,0,0,0,0,0,0,0,0,0,0,0,0,0,0,0,0,0,0,0,0,0,0,0,0,0,0,0,0,0,0,0,0,0,0,0,0,0,0,0,0,0,0,0,0],"id":2,"left_children":[1,3,5,7,9,11,13,15,17,19,21,23,25,27,-1,29,31,33,35,37,-1,39,41,43,-1,45,47,49,51,53,55,57,-1,59,61,63,65,67,-1,69,71,73,75,77,-1,79,81,83,-1,85,87,89,-1,91,93,95,97,99,-1,101,-1,-1,103,105,107,109,111,113,-1,115,-1,117,119,121,123,125,-1,127,-1,129,-1,131,-1,133,135,137,-1,139,141,-1,143,-1,-1,-1,-1,-1,-1,-1,-1,-1,-1,-1,-1,-1,-1,-1,-1,-1,-1,-1,-1,-1,-1,-1,-1,-1,-1,-1,-1,-1,-1,-1,-1,-1,-1,-1,-1,-1,-1,-1,-1,-1,-1,-1,-1,-1,-1,-1,-1,-1,-1,-1,-1,-1,-1],"loss_changes":[2.4523416E4,8.251767E3,4.0191895E2,4.087211E3,9.855862E2,3.7017E2,1.4795898E1,1.972625E3,1.3069458E2,8.6580853E2,3.0125488E1,3.1445E2,2.0543762E1,4.100476E1,0E0,7.206582E2,1.4169181E3,9.592141E1,7.171753E0,7.259787E2,0E0,4.8610123E1,3.0915527E0,2.675019E2,0E0,3.0110504E1,1.8794556E0,8.097012E1,6.7663574E-1,5.300156E2,1.5056931E1,1.055433E3,0E0,5.60723E1,1.332695E0,1.4837364E1,2.5E0,4.8301138E2,0E0,3.717009E1,3.4419098E0,1.3863831E1,4.4921875E-2,1.502738E2,0E0,1.8120241E1,9.739685E-2,8.176849E0,0E0,5.187549E1,3.4160004E0,7.2667236E0,0E0,2.5117578E2,9.1885895E2,2.1285954E1,5.857086E-1,5.510513E2,0E0,3.5753937E1,0E0,0E0,1.871109E-1,1.3672032E1,4.3844223E-1,8.579046E0,1.6723633E-2,2.7412933E2,0E0,2.472056E1,0E0,9.8727455E0,9.729309E-1,1.5538707E1,2.1689758E0,4.8810883E0,0E0,7.746887E1,0E0,2.0669275E1,0E0,1.464386E-1,0E0,8.231526E0,5.365753E-1,4.5119896E1,0E0,7.0453105E0,7.62619E-1,0E0,3.3376694E-1,0E0,0E0,0E0,0E0,0E0,0E0,0E0,0E0,0E0,0E0,0E0,0E0,0E0,0E0,0E0,0E0,0E0,0E0,0E0,0E0,0E0,0E0,0E0,0E0,0E0,0E0,0E0,0E0,0E0,0E0,0E0,0E0,0E0,0E0,0E0,0E0,0E0,0E0,0E0,0E0,0E0,0E0,0E0,0E0,0E0,0E0,0E0,0E0,0E0,0E0,0E0,0E0,0E0,0E0],"parents":[2147483647,0,0,1,1,2,2,3,3,4,4,5,5,6,6,7,7,8,8,9,9,10,10,11,11,12,12,13,13,15,15,16,16,17,17,18,18,19,19,21,21,22,22,23,23,25,25,26,26,27,27,28,28,29,29,30,30,31,31,33,33,34,34,35,35,36,36,37,37,39,39,40,40,41,41,42,42,43,43,45,45,46,46,47,47,49,49,50,50,51,51,53,53,54,54,55,55,56,56,57,57,59,59,62,62,63,63,64,64,65,65,66,66,67,67,69,69,71,71,72,72,73,73,74,74,75,75,77,77,79,79,81,81,83,83,84,84,85,85,87,87,88,88,90,90],"right_children":[2,4,6,8,10,12,14,16,18,20,22,24,26,28,-1,30,32,34,36,38,-1,40,42,44,-1,46,48,50,52,54,56,58,-1,60,62,64,66,68,-1,70,72,74,76,78,-1,80,82,84,-1,86,88,90,-1,92,94,96,98,100,-1,102,-1,-1,104,106,108,110,112,114,-1,116,-1,118,120,122,124,126,-1,128,-1,130,-1,132,-1,134,136,138,-1,140,142,-1,144,-1,-1,-1,-1,-1,-1,-1,-1,-1,-1,-1,-1,-1,-1,-1,-1,-1,-1,-1,-1,-1,-1,-1,-1,-1,-1,-1,-1,-1,-1,-1,-1,-1,-1,-1,-1,-1,-1,-1,-1,-1,-1,-1,-1,-1,-1,-1,-1,-1,-1,-1,-1,-1,-1],"split_conditions":[7E0,2E0,8E0,8.131868E-1,3.505618E-1,3.2197616E-1,9E0,1E0,8.907563E-1,1E0,4.0163934E-1,1E0,4.0163934E-1,2.1875E-1,1.6805969E-1,3.3654404E1,1E0,6.447656E0,9.403973E-1,1E0,1.6821453E-1,3.7063806E0,4.5652175E-1,2E0,1.6808616E-1,5.3120217E0,4.6341464E-1,1.3675214E0,2.5E-1,1E0,3.941874E1,1E0,1.6821143E-1,1E0,7.0307546E0,3.7063806E0,2.6647678E-1,1E0,1.6815503E-1,1E0,4.815075E0,1.9046663E0,4.8928973E-1,1E0,1.6791454E-1,1.3578802E1,1.6666667E-1,1.7961576E0,1.6820243E-1,1E0,1.8733333E0,1.5925767E0,1.680108E-1,8.892858E0,1E0,2.094082E-1,3.125E-2,4.078795E-1,1.6819665E-1,1E0,1.6955991E-1,7.963095E-2,1.8974178E0,3.4210527E-1,9.893928E-1,9.286077E-1,1.754386E-2,3.8965516E0,1.6803035E-1,3E0,1.7146853E-1,4.6153846E-1,2.3944745E0,6.818182E-1,1.5332091E0,5.2455443E-1,1.6827372E-1,1E0,1.6745955E-1,1E0,1.7816152E-1,3.5906643E-1,1.6922617E-1,5.297297E-1,9.893928E-1,2E0,1.7139387E-1,9.756097E-2,1.1208451E0,-6.303608E-2,2.536023E-1,-1.6150056E-1,1.9020198E-1,-1.19581334E-1,1.6813071E-1,-4.1857656E-2,1.6834597E-1,8.8612765E-2,1.7043823E-1,-1.3706195E-1,1.4134313E-1,-1.3028358E-1,1.763051E-1,1.291687E-1,1.7486458E-1,-1.277921E-1,1.12185135E-1,9.242662E-2,1.6751409E-1,-1.04103684E-1,1.6532785E-1,1.4200987E-1,1.680582E-1,-1.3439529E-1,1.8992774E-1,-1.0327454E-1,1.6950707E-1,-1.15848064E-1,1.5376632E-1,1.2791254E-1,1.6800644E-1,-5.3599723E-2,1.6590486E-1,1.0666255E-1,1.6705494E-1,-1.7020047E-2,1.6512045E-1,-1.5665923E-1,1.6632204E-1,-1.0980501E-1,1.6591357E-1,8.998979E-2,1.5815245E-1,-1.04323484E-1,1.3922052E-1,8.556977E-2,1.6531578E-1,-1.2409637E-1,1.705123E-1,-1.8787619E-2,1.6855358E-1,1.1071855E-1,1.6806398E-1,1.0313951E-1,1.6779962E-1],"split_indices":[6,0,6,5,5,5,6,1,5,8,5,8,5,5,0,4,7,4,5,1,0,4,5,0,0,4,5,3,5,7,4,8,0,1,4,4,4,7,0,1,4,4,5,1,0,2,3,4,0,1,3,2,0,3,8,5,3,5,0,8,0,0,2,3,2,2,3,3,0,0,0,3,2,3,2,4,0,7,0,1,0,5,0,3,2,0,0,5,4,0,3,0,0,0,0,0,0,0,0,0,0,0,0,0,0,0,0,0,0,0,0,0,0,0,0,0,0,0,0,0,0,0,0,0,0,0,0,0,0,0,0,0,0,0,0,0,0,0,0,0,0,0,0,0,0],"split_type":[0,0,0,0,0,0,0,0,0,0,0,0,0,0,0,0,0,0,0,0,0,0,0,0,0,0,0,0,0,0,0,0,0,0,0,0,0,0,0,0,0,0,0,0,0,0,0,0,0,0,0,0,0,0,0,0,0,0,0,0,0,0,0,0,0,0,0,0,0,0,0,0,0,0,0,0,0,0,0,0,0,0,0,0,0,0,0,0,0,0,0,0,0,0,0,0,0,0,0,0,0,0,0,0,0,0,0,0,0,0,0,0,0,0,0,0,0,0,0,0,0,0,0,0,0,0,0,0,0,0,0,0,0,0,0,0,0,0,0,0,0,0,0,0,0],"sum_hessian":[1.9352898E4,1.2849235E4,6.5036646E3,1.0673951E4,2.1752832E3,6.4536017E2,5.858304E3,1.0102378E4,5.7157355E2,1.0209237E3,1.1543596E3,3.0704584E2,3.3831436E2,5.0732272E2,5.3509814E3,8.700122E3,1.4022556E3,8.445807E1,4.871155E2,7.1977606E2,3.0114758E2,1.06667694E2,1.0476919E3,2.2265352E2,8.439232E1,4.4723465E1,2.9359088E2,1.3177336E2,3.7554938E2,8.617714E3,8.240861E1,1.0933962E3,3.088593E2,5.277138E1,3.1686686E1,3.01102E1,4.570053E2,5.770374E2,1.4273866E2,3.362824E1,7.303945E1,1.04326584E2,9.4336536E2,1.8045421E2,4.2199318E1,2.0064768E1,2.4658695E1,3.512198E1,2.584689E2,4.59737E1,8.579965E1,1.913334E1,3.5641602E2,7.605456E3,1.01225757E3,1.9134026E1,6.3274582E1,9.3932025E2,1.5407605E2,4.3571808E1,9.199573E0,1.9305102E0,2.9756176E1,9.580079E0,2.053012E1,6.3073883E0,4.506979E2,5.0976566E2,6.7271774E1,2.3668219E1,9.960022E0,7.0950665E0,6.594438E1,1.2757816E1,9.156876E1,6.518466E1,8.7818066E2,1.630869E2,1.7367315E1,1.5674012E1,4.390756E0,2.4360437E0,2.2222652E1,5.39435E0,2.9727627E1,3.384415E1,1.2129552E1,8.339347E0,7.7460304E1,1.4944026E0,1.7638937E1,7.585175E3,2.0281584E1,8.854357E2,1.2682188E2,9.228752E0,9.9052725E0,1.2284485E0,6.2046135E1,8.619149E2,7.740534E1,3.945006E1,4.121746E0,2.4123805E0,2.7343796E1,3.958653E0,5.6214266E0,1.2353004E0,1.929482E1,1.4788325E0,4.828556E0,4.34059E0,4.4635733E2,4.8230124E2,2.7464417E1,1.9772661E1,3.8955562E0,1.725223E0,5.3698435E0,8.796347E0,5.7148037E1,6.7237105E0,6.0341063E0,7.141191E0,8.4427574E1,1.4878275E0,6.369683E1,1.5536697E2,7.719921E0,1.2285077E1,3.3889346E0,1.221936E0,1.2141078E0,2.4666982E0,2.9276516E0,1.2145936E0,2.8513035E1,2.753281E1,6.311339E0,3.239767E0,5.09958E0,3.1940458E0,7.4266266E1,1.4683378E0,1.6170599E1],"tree_param":{"num_deleted":"0","num_feature":"9","num_nodes":"145","size_leaf_vector":"1"}},{"base_weights":[4.6679642E-4,-7.459591E-1,1.4824413E0,-1.0829924E0,9.093611E-1,7.794859E-1,1.5600255E0,-1.219938E0,1.3457798E0,2.4499097E-1,1.5085388E0,3.611653E-2,1.4544753E0,1.4034386E0,1.5748721E0,-1.3837869E0,-1.7384234E-1,2.700145E-1,1.5339708E0,-3.0799615E-1,1.5764923E-1,1.0335041E0,1.5540447E0,-5.455862E-1,1.5752634E-1,8.551838E-1,1.5462724E0,9.602305E-1,1.567866E0,1.5515167E0,1.5771994E-1,-1.4136455E0,1.2885056E0,-6.730257E-1,1.5766084E-1,-4.949444E-1,1.5473744E0,1.0753592E0,1.5641963E0,-7.6725507E-1,1.576019E-1,1.0083453E-1,1.4821943E0,1.389361E0,1.5721774E0,-1.0395954E0,1.5736564E-1,1.0358621E-2,1.5504068E0,1.3222225E0,1.5763515E-1,1.4150689E-2,1.4910715E0,1.2869148E0,1.5750667E-1,1.3737015E0,1.5768513E-1,-1.5027748E0,-7.543128E-1,5.115645E-1,1.6532637E0,-1.0016019E0,1.842549E0,-9.320866E-1,1.5854833E-1,7.271566E-2,1.5991511E0,1.1607515E-1,1.5299029E0,9.458437E-1,1.5726855E0,-1.0720682E0,1.5747772E-1,-5.6348E-1,1.6007021E-1,1.0425965E0,1.5859047E-1,4.6754718E-1,1.5192562E0,1.4649175E0,1.5752634E-1,-1.3169593E0,1.5693486E-1,-4.9325913E-1,1.6774438E-1,1.2083273E0,1.5862343E-1,1.1925072E-1,1.4972805E0,-6.3158685E-1,1.629688E-1,9.0840083E-1,1.5538036E0,-2.7370855E-2,1.5697294E-1,-9.872743E-1,1.5743703E-1,-1.5122955E-1,1.9175376E-1,-1.1063277E-1,1.57576E-1,-4.780592E-2,1.6044085E-1,7.571425E-2,1.6692029E-1,-1.2687801E-1,1.5790282E-1,8.565896E-2,1.9953108E-1,-1.1792505E-1,1.9196124E-1,1.1955483E-1,1.6304784E-1,-6.579423E-2,1.8229574E-1,8.4853955E-2,1.5699005E-1,-9.5758945E-2,1.5494478E-1,1.3235167E-1,1.5748166E-1,-1.2549976E-1,1.7099033E-1,-9.30393E-2,1.7826776E-1,-3.1092037E-2,1.4801222E-1,-3.435217E-2,1.7684089E-1,9.773788E-2,1.564856E-1,4.2582985E-2,1.5316375E-1,-1.4601573E-1,1.5588717E-1,-1.0092317E-1,1.6750497E-1,7.511621E-2,1.515553E-1,-1.0539991E-1,1.5859549E-1,1.058955E-1,1.5807514E-1,-1.1123818E-1,1.6552286E-1,-4.284017E-2,1.4657366E-1,1.0928079E-1,1.5751086E-1,-2.0535265E-1,1.4715366E-1],"categories":[],"categories_nodes":[],"categories_segments":[],"categories_sizes":[],"default_left":[0,0,0,0,0,0,0,0,0,0,0,0,0,0,0,0,0,0,0,0,0,0,0,0,0,0,0,0,0,0,0,0,0,0,0,0,0,0,0,0,0,0,0,0,0,0,0,0,0,0,0,0,0,0,0,0,0,0,0,0,0,0,0,0,0,0,0,0,0,0,0,0,0,0,0,0,0,0,0,0,0,0,0,0,0,0,0,0,0,0,0,0,0,0,0,0,0,0,0,0,0,0,0,0,0,0,0,0,0,0,0,0,0,0,0,0,0,0,0,0,0,0,0,0,0,0,0,0,0,0,0,0,0,0,0,0,0,0,0,0,0,0,0,0,0,0,0,0,0,0,0],"id":3,"left_children":[1,3,5,7,9,11,13,15,17,19,21,23,25,27,29,31,33,35,37,39,-1,41,43,45,-1,47,49,51,53,55,-1,57,59,61,-1,63,65,67,69,71,-1,73,75,77,79,81,-1,83,85,87,-1,89,91,93,-1,95,-1,97,99,101,103,105,107,109,-1,-1,111,113,115,117,119,121,-1,123,-1,125,-1,127,129,131,-1,133,-1,135,-1,137,-1,139,141,143,-1,145,147,-1,-1,149,-1,-1,-1,-1,-1,-1,-1,-1,-1,-1,-1,-1,-1,-1,-1,-1,-1,-1,-1,-1,-1,-1,-1,-1,-1,-1,-1,-1,-1,-1,-1,-1,-1,-1,-1,-1,-1,-1,-1,-1,-1,-1,-1,-1,-1,-1,-1,-1,-1,-1,-1,-1,-1,-1,-1],"loss_changes":[2.0676766E4,6.9352754E3,3.413457E2,3.4353867E3,8.370797E2,3.123635E2,1.2887695E1,1.67575E3,1.1157123E2,7.3438116E2,2.3740967E1,2.654294E2,1.7817139E1,3.5503235E1,3.515625E-2,6.746465E2,1.1570869E3,8.040268E1,6.3358154E0,6.099075E2,0E0,4.0559906E1,2.7939453E0,2.2541263E2,0E0,2.5584484E1,1.6975098E0,6.661593E1,5.1885986E-1,1.913208E0,0E0,4.9114062E2,2.6400482E1,8.518264E2,0E0,4.6976246E1,1.1923752E0,1.2771908E1,2.1607666E0,4.0472165E2,0E0,3.1576832E1,2.8188934E0,1.2013153E1,6.982422E-2,1.26509E2,0E0,1.6677814E1,1.0120392E-1,7.162056E0,0E0,4.9945274E1,2.964676E0,4.2184067E0,0E0,2.8455765E1,0E0,2.4008398E2,8.16854E2,3.2524883E1,7.813721E-1,6.285855E2,1.7762756E1,3.0261982E1,0E0,0E0,1.7050171E-1,1.2721522E1,4.0893936E-1,7.282356E0,2.1972656E-2,2.5542627E2,0E0,1.9082458E1,0E0,7.618313E0,0E0,1.3364413E1,2.031662E0,1.7942696E0,0E0,6.522095E1,0E0,1.7238941E1,0E0,2.633071E-1,0E0,7.8072486E0,9.2124176E-1,3.7793503E1,0E0,6.3954663E0,5.799103E-1,0E0,0E0,1.27311E1,0E0,0E0,0E0,0E0,0E0,0E0,0E0,0E0,0E0,0E0,0E0,0E0,0E0,0E0,0E0,0E0,0E0,0E0,0E0,0E0,0E0,0E0,0E0,0E0,0E0,0E0,0E0,0E0,0E0,0E0,0E0,0E0,0E0,0E0,0E0,0E0,0E0,0E0,0E0,0E0,0E0,0E0,0E0,0E0,0E0,0E0,0E0,0E0,0E0,0E0,0E0,0E0,0E0,0E0,0E0],"parents":[2147483647,0,0,1,1,2,2,3,3,4,4,5,5,6,6,7,7,8,8,9,9,10,10,11,11,12,12,13,13,14,14,15,15,16,16,17,17,18,18,19,19,21,21,22,22,23,23,25,25,26,26,27,27,28,28,29,29,31,31,32,32,33,33,35,35,36,36,37,37,38,38,39,39,41,41,42,42,43,43,44,44,45,45,47,47,48,48,49,49,51,51,52,52,53,53,55,55,57,57,58,58,59,59,60,60,61,61,62,62,63,63,66,66,67,67,68,68,69,69,70,70,71,71,73,73,75,75,77,77,78,78,79,79,81,81,83,83,85,85,87,87,88,88,89,89,91,91,92,92,95,95],"right_children":[2,4,6,8,10,12,14,16,18,20,22,24,26,28,30,32,34,36,38,40,-1,42,44,46,-1,48,50,52,54,56,-1,58,60,62,-1,64,66,68,70,72,-1,74,76,78,80,82,-1,84,86,88,-1,90,92,94,-1,96,-1,98,100,102,104,106,108,110,-1,-1,112,114,116,118,120,122,-1,124,-1,126,-1,128,130,132,-1,134,-1,136,-1,138,-1,140,142,144,-1,146,148,-1,-1,150,-1,-1,-1,-1,-1,-1,-1,-1,-1,-1,-1,-1,-1,-1,-1,-1,-1,-1,-1,-1,-1,-1,-1,-1,-1,-1,-1,-1,-1,-1,-1,-1,-1,-1,-1,-1,-1,-1,-1,-1,-1,-1,-1,-1,-1,-1,-1,-1,-1,-1,-1,-1,-1,-1,-1],"split_conditions":[7E0,2E0,8E0,8.131868E-1,3.5365853E-1,3.2197616E-1,9E0,1E0,8.907563E-1,1E0,4.0163934E-1,1E0,4.0163934E-1,2.2841726E-1,1E1,3.1981169E1,1E0,6.447656E0,9.403973E-1,1E0,1.5764923E-1,3.7063806E0,4.5652175E-1,2E0,1.5752634E-1,5.3120217E0,4.6341464E-1,1.3675214E0,6.2567544E-1,1.185567E-1,1.5771994E-1,1E0,3.941874E1,4.2857143E-1,1.5766084E-1,1E0,7.0307546E0,3.7063806E0,2.6647678E-1,1E0,1.576019E-1,1E0,3.6363637E-1,1.9046663E0,5.518222E-1,1E0,1.5736564E-1,1E0,3.302139E-1,1.6346916E0,1.5763515E-1,1E0,1.8733333E0,2.8373015E-1,1.5750667E-1,7.5384617E-1,1.5768513E-1,7.151193E1,1E0,2.238806E-1,6.097561E-2,1E0,4.5652175E-1,1.84264E1,1.5854833E-1,7.271566E-2,1.8974178E0,1E0,9.893928E-1,9.286077E-1,1.754386E-2,3E0,1.5747772E-1,1.1569707E1,1.6007021E-1,6.447656E0,1.5859047E-1,8.410188E0,1.5332091E0,5.2455443E-1,1.5752634E-1,1E0,1.5693486E-1,1.3578802E1,1.6774438E-1,1.0035211E0,1.5862343E-1,1E0,3.7063806E0,1E0,1.629688E-1,2.8238087E0,1.1208451E0,-2.7370855E-2,1.5697294E-1,4.3987055E0,1.5743703E-1,-1.5122955E-1,1.9175376E-1,-1.1063277E-1,1.57576E-1,-4.780592E-2,1.6044085E-1,7.571425E-2,1.6692029E-1,-1.2687801E-1,1.5790282E-1,8.565896E-2,1.9953108E-1,-1.1792505E-1,1.9196124E-1,1.1955483E-1,1.6304784E-1,-6.579423E-2,1.8229574E-1,8.4853955E-2,1.5699005E-1,-9.5758945E-2,1.5494478E-1,1.3235167E-1,1.5748166E-1,-1.2549976E-1,1.7099033E-1,-9.30393E-2,1.7826776E-1,-3.1092037E-2,1.4801222E-1,-3.435217E-2,1.7684089E-1,9.773788E-2,1.564856E-1,4.2582985E-2,1.5316375E-1,-1.4601573E-1,1.5588717E-1,-1.0092317E-1,1.6750497E-1,7.511621E-2,1.515553E-1,-1.0539991E-1,1.5859549E-1,1.058955E-1,1.5807514E-1,-1.1123818E-1,1.6552286E-1,-4.284017E-2,1.4657366E-1,1.0928079E-1,1.5751086E-1,-2.0535265E-1,1.4715366E-1],"split_indices":[6,0,6,5,5,5,6,8,5,8,5,8,5,5,6,4,1,4,5,1,0,4,5,0,0,4,5,3,4,5,0,7,4,5,0,1,4,4,4,7,0,1,3,4,2,1,0,8,5,4,0,7,3,5,0,3,0,2,1,5,3,7,5,2,0,0,2,7,2,2,3,0,0,2,0,4,0,2,2,4,0,7,0,2,0,3,0,1,4,8,0,4,4,0,0,4,0,0,0,0,0,0,0,0,0,0,0,0,0,0,0,0,0,0,0,0,0,0,0,0,0,0,0,0,0,0,0,0,0,0,0,0,0,0,0,0,0,0,0,0,0,0,0,0,0,0,0,0,0,0,0],"split_type":[0,0,0,0,0,0,0,0,0,0,0,0,0,0,0,0,0,0,0,0,0,0,0,0,0,0,0,0,0,0,0,0,0,0,0,0,0,0,0,0,0,0,0,0,0,0,0,0,0,0,0,0,0,0,0,0,0,0,0,0,0,0,0,0,0,0,0,0,0,0,0,0,0,0,0,0,0,0,0,0,0,0,0,0,0,0,0,0,0,0,0,0,0,0,0,0,0,0,0,0,0,0,0,0,0,0,0,0,0,0,0,0,0,0,0,0,0,0,0,0,0,0,0,0,0,0,0,0,0,0,0,0,0,0,0,0,0,0,0,0,0,0,0,0,0,0,0,0,0,0,0],"sum_hessian":[1.8691773E4,1.2430802E4,6.2609707E3,1.0327994E4,2.1028079E3,6.224383E2,5.6385327E3,9.776783E3,5.512112E2,9.972238E2,1.1055841E3,2.962652E2,3.261731E2,4.8914114E2,5.1493916E3,8.452797E3,1.3239857E3,8.210634E1,4.691048E2,7.046513E2,2.9257254E2,9.6857796E1,1.00872626E3,2.1505296E2,8.121223E1,4.3462513E1,2.8271057E2,1.3254767E2,3.5659348E2,4.7266177E2,4.6767295E3,8.359441E3,9.33561E1,1.0302473E3,2.937384E2,5.1391384E1,3.0714958E1,2.9231647E1,4.3987317E2,5.665941E2,1.3805714E2,3.1500908E1,6.535689E1,1.008208E2,9.0790546E2,1.7444066E2,4.06123E1,1.9666073E1,2.379644E1,3.3994274E1,2.4871631E2,4.767773E1,8.486994E1,9.360239E0,3.4723325E2,5.9633812E1,4.1302795E2,7.363858E3,9.955834E2,2.9902824E1,6.345328E1,9.1127924E2,1.1896815E2,4.2513573E1,8.8778105E0,1.9131057E0,2.8801851E1,9.438295E0,1.9793352E1,6.1092944E0,4.337639E2,5.0139264E2,6.520151E1,2.1874697E1,9.626211E0,1.2686751E1,5.2670135E1,1.250905E1,8.831175E1,2.672168E1,8.811838E2,1.5772229E2,1.6718367E1,1.5157486E1,4.508586E0,2.5852396E0,2.12112E1,4.339821E0,2.9654453E1,3.4106224E1,1.35715065E1,8.399687E0,7.647025E1,1.4365133E0,7.9237256E0,4.6407638E0,5.499305E1,7.3434727E3,2.0384888E1,8.649621E2,1.3062129E2,1.5722021E1,1.4180803E1,1.1936717E0,6.225961E1,8.258301E2,8.544914E1,1.6048462E1,1.02919685E2,3.9176678E1,3.3368928E0,2.3566308E0,2.644522E1,6.5359163E0,2.902379E0,1.2206649E0,1.8572687E1,1.456778E0,4.6525164E0,4.205806E0,4.2955807E2,4.7050906E2,3.088357E1,1.8968569E1,2.9061286E0,3.106258E0,9.580493E0,7.7503867E0,4.7586637E0,7.02886E0,8.128289E1,1.6568186E0,2.5064861E1,1.5028813E2,7.4341636E0,1.2287094E1,2.8703916E0,1.1775268E0,1.4077127E0,2.4267483E0,1.9130726E0,4.9627156E0,2.4691736E1,2.8223656E1,5.8825684E0,2.4783509E0,5.9213357E0,3.6089985E0,7.286125E1,3.2485347E0,1.3922291E0],"tree_param":{"num_deleted":"0","num_feature":"9","num_nodes":"151","size_leaf_vector":"1"}},{"base_weights":[7.182623E-4,-7.0084524E-1,1.4025428E0,-1.0172738E0,8.5671204E-1,7.360159E-1,1.476305E0,-1.1421795E0,1.3353602E0,2.263492E-1,1.4219499E0,9.069676E-2,1.4303278E0,1.3250223E0,1.490687E0,-1.3037386E0,-1.4721757E-1,4.7165373E-1,1.4674546E0,-2.908841E-1,1.4923559E-1,9.5986396E-1,1.46973E0,-4.5559552E-1,1.494352E-1,1.1317241E0,1.492209E-1,9.0140945E-1,1.4835263E0,1.4677395E0,1.492975E-1,-1.4006314E0,-6.179168E-1,-6.05427E-1,1.4924644E-1,-2.9183105E-1,1.471172E0,8.255321E-1,1.4771764E0,-7.2172433E-1,1.4917569E-1,2.0897104E-1,1.4391516E0,1.3059448E0,1.487892E0,-9.249365E-1,1.4896198E-1,3.569356E-1,1.4760532E0,1.4305347E-2,1.4069575E0,1.2075664E0,1.4906679E-1,1.2938638E0,1.4926463E-1,-1.4155108E0,1.2675508E0,-9.3181425E-1,1.6881173E0,-9.4408983E-1,1.4921848E-1,-7.642437E-1,1.5284541E-1,1.08897686E-1,1.4935975E-1,-8.087626E-2,1.4867692E-1,1.1216257E0,1.4884207E0,-1.0011656E0,1.4904825E-1,-3.5295424E-1,1.5727621E-1,1.0808333E0,1.4936386E-1,4.275152E-1,1.4340258E0,1.4169844E0,1.492996E-1,-1.1896931E0,1.5004192E-1,-3.5631683E-1,1.5338866E-1,7.842218E-2,1.4973213E-1,-5.819733E-1,1.5358852E-1,8.4112424E-1,1.4692317E0,-2.4725296E-2,1.4843959E-1,-8.6901844E-1,1.490305E-1,-1.4253888E-1,2.0630257E-1,-1.20735444E-1,1.3496642E-1,-1.1786268E-1,1.4943114E-1,7.380048E-2,1.8348567E-1,-1.1662588E-1,1.4550619E-1,-1.0590147E-1,1.8092145E-1,-1.4120613E-2,1.4533561E-1,1.24166064E-1,1.4905573E-1,-1.1846433E-1,1.5003537E-1,-1.0345417E-1,1.00395195E-1,-2.1660803E-2,1.5245901E-1,-5.058046E-2,1.5174012E-1,1.0500058E-1,1.5035154E-1,-2.683716E-2,1.4596854E-1,-1.3419183E-1,1.4818944E-1,-1.0026622E-1,1.5782486E-1,-1.022646E-1,1.555372E-1,-2.139706E-2,1.5133913E-1,1.0109273E-1,1.4909968E-1,-1.7701933E-1,1.3936023E-1],"categories":[],"categories_nodes":[],"categories_segments":[],"categories_sizes":[],"default_left":[0,0,0,0,0,0,0,0,0,0,0,0,0,0,0,0,0,0,0,0,0,0,0,0,0,0,0,0,0,0,0,0,0,0,0,0,0,0,0,0,0,0,0,0,0,0,0,0,0,0,0,0,0,0,0,0,0,0,0,0,0,0,0,0,0,0,0,0,0,0,0,0,0,0,0,0,0,0,0,0,0,0,0,0,0,0,0,0,0,0,0,0,0,0,0,0,0,0,0,0,0,0,0,0,0,0,0,0,0,0,0,0,0,0,0,0,0,0,0,0,0,0,0,0,0,0,0,0,0,0,0,0,0],"id":4,"left_children":[1,3,5,7,9,11,13,15,17,19,21,23,25,27,29,31,33,35,37,39,-1,41,43,45,-1,47,-1,49,51,53,-1,55,57,59,-1,61,63,65,67,69,-1,71,73,75,77,79,-1,81,83,85,87,89,-1,91,-1,93,95,97,99,101,-1,103,-1,-1,-1,-1,-1,105,107,109,-1,111,-1,113,-1,115,117,119,-1,121,-1,123,-1,-1,-1,125,-1,127,129,-1,-1,131,-1,-1,-1,-1,-1,-1,-1,-1,-1,-1,-1,-1,-1,-1,-1,-1,-1,-1,-1,-1,-1,-1,-1,-1,-1,-1,-1,-1,-1,-1,-1,-1,-1,-1,-1,-1,-1,-1,-1,-1,-1],"loss_changes":[1.7606764E4,5.880569E3,2.9346484E2,2.9142852E3,7.178219E2,2.666566E2,1.1499023E1,1.5137051E3,5.6976746E1,6.2383E2,2.3310791E1,2.36687E2,5.128723E0,3.1265015E1,3.90625E-2,5.382637E2,9.8852466E2,5.077018E1,2.5842896E0,5.1959344E2,0E0,3.5897865E1,2.6689453E0,2.0300288E2,0E0,1.31873665E1,0E0,5.721679E1,4.9035645E-1,1.7597656E0,0E0,2.8199316E2,7.262311E2,7.306465E2,0E0,3.2596313E1,8.421707E-2,7.356397E0,1.5402222E0,3.3693338E2,0E0,2.9951729E1,1.0279083E0,1.0840118E1,1.0168457E-1,1.1516678E2,0E0,1.2983744E1,3.876648E-1,4.2201958E1,2.740097E0,3.7044268E0,0E0,2.4455093E1,0E0,2.4285352E2,8.173664E0,5.2888336E2,1.6624603E1,4.7212494E2,0E0,2.299014E1,0E0,0E0,0E0,0E0,0E0,5.6746025E0,3.3081055E-2,2.2220938E2,0E0,2.573092E1,0E0,4.8707705E0,0E0,1.2763754E1,2.0975952E0,4.363785E0,0E0,6.588022E1,0E0,1.2250954E1,0E0,0E0,0E0,3.1636526E1,0E0,5.9135528E0,5.782318E-1,0E0,0E0,1.0095434E1,0E0,0E0,0E0,0E0,0E0,0E0,0E0,0E0,0E0,0E0,0E0,0E0,0E0,0E0,0E0,0E0,0E0,0E0,0E0,0E0,0E0,0E0,0E0,0E0,0E0,0E0,0E0,0E0,0E0,0E0,0E0,0E0,0E0,0E0,0E0,0E0,0E0,0E0,0E0,0E0,0E0],"parents":[2147483647,0,0,1,1,2,2,3,3,4,4,5,5,6,6,7,7,8,8,9,9,10,10,11,11,12,12,13,13,14,14,15,15,16,16,17,17,18,18,19,19,21,21,22,22,23,23,25,25,27,27,28,28,29,29,31,31,32,32,33,33,35,35,36,36,37,37,38,38,39,39,41,41,42,42,43,43,44,44,45,45,47,47,48,48,49,49,50,50,51,51,53,53,55,55,56,56,57,57,58,58,59,59,61,61,67,67,68,68,69,69,71,71,73,73,75,75,76,76,77,77,79,79,81,81,85,85,87,87,88,88,91,91],"right_children":[2,4,6,8,10,12,14,16,18,20,22,24,26,28,30,32,34,36,38,40,-1,42,44,46,-1,48,-1,50,52,54,-1,56,58,60,-1,62,64,66,68,70,-1,72,74,76,78,80,-1,82,84,86,88,90,-1,92,-1,94,96,98,100,102,-1,104,-1,-1,-1,-1,-1,106,108,110,-1,112,-1,114,-1,116,118,120,-1,122,-1,124,-1,-1,-1,126,-1,128,130,-1,-1,132,-1,-1,-1,-1,-1,-1,-1,-1,-1,-1,-1,-1,-1,-1,-1,-1,-1,-1,-1,-1,-1,-1,-1,-1,-1,-1,-1,-1,-1,-1,-1,-1,-1,-1,-1,-1,-1,-1,-1,-1,-1],"split_conditions":[7E0,2E0,8E0,8.313492E-1,3.505618E-1,3.6899564E-1,9E0,1E0,9.148265E-1,1E0,4.0163934E-1,1E0,4.6341464E-1,2.2841726E-1,1E1,1E0,1E0,5.8068576E0,2.6647678E-1,1E0,1.4923559E-1,4.815075E0,4.5652175E-1,2E0,1.494352E-1,3.9888992E0,1.492209E-1,1.3675214E0,6.2567544E-1,1.185567E-1,1.492975E-1,3.506522E1,4.2857143E-1,1E0,1.4924644E-1,1E0,6.447656E0,1.721489E0,9.403973E-1,1E0,1.4917569E-1,1E0,2.3944745E0,1.9046663E0,4.8928973E-1,1E0,1.4896198E-1,9.361624E0,6.8034464E-1,1E0,1.8733333E0,2.8373015E-1,1.4906679E-1,7.5384617E-1,1.4926463E-1,8.892858E0,1.754386E-2,1E0,1.7447147E0,4.1525424E-1,1.4921848E-1,1E0,1.5284541E-1,1.08897686E-1,1.4935975E-1,-8.087626E-2,1.4867692E-1,1.7391305E-1,1.754386E-2,3.3255813E0,1.4904825E-1,8.558659E0,1.5727621E-1,7.453315E0,1.4936386E-1,6.818182E-1,4.047746E0,5.2455443E-1,1.492996E-1,1E0,1.5004192E-1,1E0,1.5338866E-1,7.842218E-2,1.4973213E-1,1E0,1.5358852E-1,9.756097E-2,1.1208451E0,-2.4725296E-2,1.4843959E-1,4.3987055E0,1.490305E-1,-1.4253888E-1,2.0630257E-1,-1.20735444E-1,1.3496642E-1,-1.1786268E-1,1.4943114E-1,7.380048E-2,1.8348567E-1,-1.1662588E-1,1.4550619E-1,-1.0590147E-1,1.8092145E-1,-1.4120613E-2,1.4533561E-1,1.24166064E-1,1.4905573E-1,-1.1846433E-1,1.5003537E-1,-1.0345417E-1,1.00395195E-1,-2.1660803E-2,1.5245901E-1,-5.058046E-2,1.5174012E-1,1.0500058E-1,1.5035154E-1,-2.683716E-2,1.4596854E-1,-1.3419183E-1,1.4818944E-1,-1.0026622E-1,1.5782486E-1,-1.022646E-1,1.555372E-1,-2.139706E-2,1.5133913E-1,1.0109273E-1,1.4909968E-1,-1.7701933E-1,1.3936023E-1],"split_indices":[6,0,6,5,5,5,6,1,5,7,5,8,5,5,6,8,7,4,4,1,0,4,5,0,0,4,0,3,4,5,0,4,5,8,0,8,4,2,5,8,0,8,2,4,5,7,0,2,2,7,3,5,0,3,0,3,3,7,4,5,0,7,0,0,0,0,0,3,3,3,0,2,0,4,0,3,4,4,0,1,0,7,0,0,0,8,0,5,4,0,0,4,0,0,0,0,0,0,0,0,0,0,0,0,0,0,0,0,0,0,0,0,0,0,0,0,0,0,0,0,0,0,0,0,0,0,0,0,0,0,0,0,0],"split_type":[0,0,0,0,0,0,0,0,0,0,0,0,0,0,0,0,0,0,0,0,0,0,0,0,0,0,0,0,0,0,0,0,0,0,0,0,0,0,0,0,0,0,0,0,0,0,0,0,0,0,0,0,0,0,0,0,0,0,0,0,0,0,0,0,0,0,0,0,0,0,0,0,0,0,0,0,0,0,0,0,0,0,0,0,0,0,0,0,0,0,0,0,0,0,0,0,0,0,0,0,0,0,0,0,0,0,0,0,0,0,0,0,0,0,0,0,0,0,0,0,0,0,0,0,0,0,0,0,0,0,0,0,0],"sum_hessian":[1.7902516E4,1.1931348E4,5.971167E3,9.91673E3,2.0146178E3,5.9507446E2,5.3760923E3,9.416825E3,4.9990515E2,9.5250653E2,1.0621113E3,3.0847726E2,2.8659717E2,4.6753076E2,4.9085615E3,8.101324E3,1.315501E3,6.637374E1,4.335314E2,6.7628424E2,2.7622226E2,9.972933E1,9.6238196E2,2.221037E2,8.637357E1,4.952872E1,2.3706845E2,1.2748559E2,3.4004517E2,4.508434E2,4.4577183E3,7.0983633E3,1.0029608E3,1.0282261E3,2.872749E2,3.767012E1,2.8703623E1,6.5960727E0,4.2693533E2,5.446977E2,1.3158656E2,3.8911247E1,6.0818085E1,9.679284E1,8.655892E2,1.7897348E2,4.313022E1,1.5301614E1,3.4227104E1,4.6316E1,8.1169586E1,9.006999E0,3.3103815E2,5.71529E1,3.9369052E2,7.059045E3,3.931836E1,8.828472E2,1.2011361E2,8.8534125E2,1.4288478E2,2.9954216E1,7.7159047E0,1.8655257E0,2.6838097E1,1.8935983E0,4.702474E0,1.3396802E1,4.1353854E2,4.836578E2,6.1039894E1,2.7609411E1,1.1301836E1,8.302536E0,5.251555E1,1.2372327E1,8.442051E1,5.9992374E1,8.055968E2,1.6140512E2,1.7568354E1,9.571094E0,5.7305207E0,1.1337694E0,3.3093334E1,3.3320194E1,1.2995809E1,8.19145E0,7.2978134E1,1.4416089E0,7.5653896E0,4.730142E0,5.242276E1,7.039115E3,1.9929863E1,1.2186216E0,3.8099735E1,8.0137396E2,8.147325E1,1.6149754E1,1.0396386E2,8.1035156E2,7.498971E1,2.692859E1,3.0256257E0,2.799E0,1.0597802E1,4.0494485E0,4.094891E2,4.506564E2,3.3001404E1,1.8393787E1,9.215625E0,2.129006E0,6.17353E0,6.69375E0,5.6785774E0,1.3182294E1,7.123821E1,1.4693724E0,5.8523003E1,1.5275124E2,8.653886E0,7.2102833E0,2.3608105E0,2.7667856E1,5.652338E0,3.2145386E0,4.976911E0,3.523725E0,6.9454414E1,3.3983738E0,1.331768E0],"tree_param":{"num_deleted":"0","num_feature":"9","num_nodes":"133","size_leaf_vector":"1"}},{"base_weights":[9.648097E-4,-6.630098E-1,1.3375022E0,-9.622974E-1,8.121293E-1,7.001861E-1,1.4082565E0,-1.083634E0,1.2093346E0,2.1765825E-1,1.3575829E0,6.1272494E-2,1.337776E0,1.2605469E0,1.4223423E0,-1.2360256E0,-1.4759015E-1,2.4840602E-1,1.3821201E0,-2.6872745E-1,1.4240147E-1,9.872961E-1,1.4103208E0,-4.6114185E-1,1.4245579E-1,8.0741835E-1,1.394196E0,8.5201305E-1,1.4149016E0,1.3996986E0,1.4246006E-1,-1.3288847E0,-5.7498693E-1,-5.7475084E-1,1.4240922E-1,-4.1955805E-1,1.3923175E0,9.439566E-1,1.4119387E0,-6.6639906E-1,1.4235246E-1,2.0004168E-1,1.3496208E0,1.1792865E0,1.4186538E0,-9.0547824E-1,1.4213642E-1,3.6087513E-2,1.437119E-1,1.1762464E0,1.4238858E-1,1.46183865E-2,1.337577E0,1.1404749E0,1.4220828E-1,1.2289087E0,1.4242809E-1,-1.3442843E0,1.2368155E0,-9.0386796E-1,1.4458523E0,-8.8827515E-1,1.423704E-1,-8.039985E-1,1.4927667E-1,6.1940964E-2,1.4433849E0,6.906375E-2,1.3849386E0,8.430295E-1,1.4199021E0,-9.144565E-1,1.5405624E0,-3.9626318E-1,1.5219562E-1,1.008463E0,1.433008E-1,-8.478039E-2,1.421382E-1,1.3223861E0,1.4226921E0,-1.1542542E0,1.4176582E-1,-7.720073E-1,9.342425E-1,2.0511475E-1,1.3628643E0,-5.3854334E-1,1.4599334E-1,8.004193E-1,1.4050661E0,-3.0487776E-2,1.4244081E-1,-7.785842E-1,1.4220008E-1,-1.3534383E-1,1.9964187E-1,3.4148987E-2,1.4545655E-1,-1.09551445E-1,1.757696E-1,1.2551201E-2,1.8412423E-1,-1.0798516E-1,1.5059349E-1,-1.040286E-1,1.7072344E-1,1.0481484E-1,1.474788E-1,-8.150336E-2,1.2695447E-1,6.935418E-2,1.4285104E-1,-7.4757084E-2,1.4724123E-1,1.17074125E-1,1.4220947E-1,-1.0995251E-1,1.4206676E-1,1.6334438E-1,1.4187856E-1,-9.1108605E-2,1.3683693E-1,-6.2777996E-2,1.2400158E-1,-1.0911598E-1,1.6164067E-1,6.6012494E-2,1.4223045E-1,1.302824E-1,1.4250092E-1,-1.2899682E-1,1.4297685E-1,-2.1750787E-2,-1.4956354E-1,-6.2051356E-2,1.4050548E-1,-6.856573E-2,1.4857878E-1,8.964139E-2,1.4264809E-1,-9.17569E-2,1.6467711E-1,-5.486929E-2,1.4568885E-1,5.345623E-2,1.4182955E-1,-1.5615596E-1,1.3284683E-1],"categories":[],"categories_nodes":[],"categories_segments":[],"categories_sizes":[],"default_left":[0,0,0,0,0,0,0,0,0,0,0,0,0,0,0,0,0,0,0,0,0,0,0,0,0,0,0,0,0,0,0,0,0,0,0,0,0,0,0,0,0,0,0,0,0,0,0,0,0,0,0,0,0,0,0,0,0,0,0,0,0,0,0,0,0,0,0,0,0,0,0,0,0,0,0,0,0,0,0,0,0,0,0,0,0,0,0,0,0,0,0,0,0,0,0,0,0,0,0,0,0,0,0,0,0,0,0,0,0,0,0,0,0,0,0,0,0,0,0,0,0,0,0,0,0,0,0,0,0,0,0,0,0,0,0,0,0,0,0,0,0,0,0,0,0,0,0,0,0],"id":5,"left_children":[1,3,5,7,9,11,13,15,17,19,21,23,25,27,29,31,33,35,37,39,-1,41,43,45,-1,47,49,51,53,55,-1,57,59,61,-1,63,65,67,69,71,-1,73,75,77,79,81,-1,83,-1,85,-1,87,89,91,-1,93,-1,95,97,99,101,103,-1,105,-1,-1,107,109,111,113,115,117,119,121,-1,123,-1,125,-1,127,129,131,-1,133,135,137,139,141,-1,143,145,-1,-1,147,-1,-1,-1,-1,-1,-1,-1,-1,-1,-1,-1,-1,-1,-1,-1,-1,-1,-1,-1,-1,-1,-1,-1,-1,-1,-1,-1,-1,-1,-1,-1,-1,-1,-1,-1,-1,-1,-1,-1,-1,-1,-1,-1,-1,-1,-1,-1,-1,-1,-1,-1,-1,-1,-1,-1],"loss_changes":[1.5112992E4,5.023266E3,2.5478223E2,2.492504E3,6.222554E2,2.3015787E2,1.0405273E1,1.2778398E3,8.307861E1,5.3892194E2,1.9404419E1,2.0113246E2,8.349457E0,2.7864014E1,3.8085938E-2,4.7282422E2,8.42212E2,5.844494E1,5.409851E0,4.4061816E2,0E0,3.565715E1,1.5187988E0,1.7091838E2,0E0,1.3317247E1,1.4856262E0,4.9582E1,4.7229004E-1,1.6170044E0,0E0,2.6706055E2,6.309161E2,6.1815155E2,0E0,3.5643295E1,1.023407E0,1.0536428E1,1.6790161E0,2.9035385E2,0E0,3.1233713E1,2.292221E0,9.523777E0,1.4013672E-1,9.566872E1,0E0,9.094216E0,0E0,5.6269913E0,0E0,3.5942677E1,2.6857452E0,3.619769E0,0E0,2.1212608E1,0E0,2.0561621E2,7.817711E0,4.165797E2,6.93468E1,3.9126184E2,0E0,2.4088512E1,0E0,0E0,1.7272186E-1,9.9375725E0,4.482689E-1,5.8432574E0,4.736328E-2,2.0612878E2,3.7451935E-1,2.4955559E1,0E0,6.5799007E0,0E0,8.891197E0,0E0,2.2506142E0,3.930664E-2,5.2549637E1,0E0,2.6149807E0,4.429772E0,5.9739027E0,6.4827347E-1,2.7083035E1,0E0,7.915959E0,7.1232605E-1,0E0,0E0,8.194533E0,0E0,0E0,0E0,0E0,0E0,0E0,0E0,0E0,0E0,0E0,0E0,0E0,0E0,0E0,0E0,0E0,0E0,0E0,0E0,0E0,0E0,0E0,0E0,0E0,0E0,0E0,0E0,0E0,0E0,0E0,0E0,0E0,0E0,0E0,0E0,0E0,0E0,0E0,0E0,0E0,0E0,0E0,0E0,0E0,0E0,0E0,0E0,0E0,0E0,0E0,0E0,0E0,0E0,0E0,0E0],"parents":[2147483647,0,0,1,1,2,2,3,3,4,4,5,5,6,6,7,7,8,8,9,9,10,10,11,11,12,12,13,13,14,14,15,15,16,16,17,17,18,18,19,19,21,21,22,22,23,23,25,25,26,26,27,27,28,28,29,29,31,31,32,32,33,33,35,35,36,36,37,37,38,38,39,39,41,41,42,42,43,43,44,44,45,45,47,47,49,49,51,51,52,52,53,53,55,55,57,57,58,58,59,59,60,60,61,61,63,63,66,66,67,67,68,68,69,69,70,70,71,71,72,72,73,73,75,75,77,77,79,79,80,80,81,81,83,83,84,84,85,85,86,86,87,87,89,89,90,90,93,93],"right_children":[2,4,6,8,10,12,14,16,18,20,22,24,26,28,30,32,34,36,38,40,-1,42,44,46,-1,48,50,52,54,56,-1,58,60,62,-1,64,66,68,70,72,-1,74,76,78,80,82,-1,84,-1,86,-1,88,90,92,-1,94,-1,96,98,100,102,104,-1,106,-1,-1,108,110,112,114,116,118,120,122,-1,124,-1,126,-1,128,130,132,-1,134,136,138,140,142,-1,144,146,-1,-1,148,-1,-1,-1,-1,-1,-1,-1,-1,-1,-1,-1,-1,-1,-1,-1,-1,-1,-1,-1,-1,-1,-1,-1,-1,-1,-1,-1,-1,-1,-1,-1,-1,-1,-1,-1,-1,-1,-1,-1,-1,-1,-1,-1,-1,-1,-1,-1,-1,-1,-1,-1,-1,-1,-1,-1],"split_conditions":[7E0,2E0,8E0,8.131868E-1,3.5365853E-1,3.4474617E-1,9E0,1E0,8.907563E-1,1E0,4.214765E-1,1E0,4.0163934E-1,2.2841726E-1,1E1,1E0,1E0,6.447656E0,9.403973E-1,1E0,1.4240147E-1,3.7063806E0,6.2567544E-1,2E0,1.4245579E-1,4.9329557E0,4.6341464E-1,1.3675214E0,6.2567544E-1,1.185567E-1,1.4246006E-1,3.506522E1,3.8502672E-1,1E0,1.4240922E-1,1E0,7.0307546E0,3.7063806E0,2.6647678E-1,3E0,1.4235246E-1,1E0,3.6363637E-1,4.8928973E-1,6.097561E-2,1E0,1.4213642E-1,4.781418E0,1.437119E-1,1.7961576E0,1.4238858E-1,1E0,2.1086364E0,1.5925767E0,1.4220828E-1,7.5384617E-1,1.4242809E-1,7.151193E1,3.941874E1,3.4074075E0,2.5280082E0,1.3369894E1,1.423704E-1,1E0,1.4927667E-1,6.1940964E-2,1.8974178E0,7.307692E-1,9.893928E-1,3.129771E-1,1.754386E-2,1E0,1E0,1.0476191E0,1.5219562E-1,1.721489E0,1.433008E-1,1E0,1.421382E-1,3.767009E0,3.7642983E-1,1E0,1.4176582E-1,2.8351247E0,1.7391305E-1,1E0,1.880109E-1,2E0,1.4599334E-1,2.3535354E0,2.5163728E-1,-3.0487776E-2,1.4244081E-1,4.3987055E0,1.4220008E-1,-1.3534383E-1,1.9964187E-1,3.4148987E-2,1.4545655E-1,-1.09551445E-1,1.757696E-1,1.2551201E-2,1.8412423E-1,-1.0798516E-1,1.5059349E-1,-1.040286E-1,1.7072344E-1,1.0481484E-1,1.474788E-1,-8.150336E-2,1.2695447E-1,6.935418E-2,1.4285104E-1,-7.4757084E-2,1.4724123E-1,1.17074125E-1,1.4220947E-1,-1.0995251E-1,1.4206676E-1,1.6334438E-1,1.4187856E-1,-9.1108605E-2,1.3683693E-1,-6.2777996E-2,1.2400158E-1,-1.0911598E-1,1.6164067E-1,6.6012494E-2,1.4223045E-1,1.302824E-1,1.4250092E-1,-1.2899682E-1,1.4297685E-1,-2.1750787E-2,-1.4956354E-1,-6.2051356E-2,1.4050548E-1,-6.856573E-2,1.4857878E-1,8.964139E-2,1.4264809E-1,-9.17569E-2,1.6467711E-1,-5.486929E-2,1.4568885E-1,5.345623E-2,1.4182955E-1,-1.5615596E-1,1.3284683E-1],"split_indices":[6,0,6,5,5,5,6,1,5,8,5,8,5,5,6,7,7,4,5,1,0,4,4,0,0,4,5,3,4,5,0,4,5,8,0,8,4,4,4,0,0,8,3,5,3,1,0,2,0,4,0,7,4,2,0,3,0,2,4,3,4,4,0,7,0,0,2,3,2,3,3,7,7,3,0,2,0,1,0,4,2,7,0,2,3,7,3,0,0,3,2,0,0,4,0,0,0,0,0,0,0,0,0,0,0,0,0,0,0,0,0,0,0,0,0,0,0,0,0,0,0,0,0,0,0,0,0,0,0,0,0,0,0,0,0,0,0,0,0,0,0,0,0,0,0,0,0,0,0],"split_type":[0,0,0,0,0,0,0,0,0,0,0,0,0,0,0,0,0,0,0,0,0,0,0,0,0,0,0,0,0,0,0,0,0,0,0,0,0,0,0,0,0,0,0,0,0,0,0,0,0,0,0,0,0,0,0,0,0,0,0,0,0,0,0,0,0,0,0,0,0,0,0,0,0,0,0,0,0,0,0,0,0,0,0,0,0,0,0,0,0,0,0,0,0,0,0,0,0,0,0,0,0,0,0,0,0,0,0,0,0,0,0,0,0,0,0,0,0,0,0,0,0,0,0,0,0,0,0,0,0,0,0,0,0,0,0,0,0,0,0,0,0,0,0,0,0,0,0,0,0],"sum_hessian":[1.7029926E4,1.13776875E4,5.652239E3,9.458674E3,1.9190134E3,5.649121E2,5.0873267E3,8.958198E3,5.004757E2,9.1831433E2,1.0006991E3,2.822179E2,2.826942E2,4.4368326E2,4.6436436E3,7.7039355E3,1.2542628E3,7.631297E1,4.2416275E2,6.5450494E2,2.6380936E2,1.25001434E2,8.7569763E2,2.0408008E2,7.8137825E1,2.732893E1,2.553653E2,1.2184516E2,3.218381E2,4.2676428E2,4.216879E3,6.7549375E3,9.4899805E2,9.8627167E2,2.6799106E2,4.821949E1,2.8093477E1,2.7234537E1,3.969282E2,5.300146E2,1.244904E2,3.944691E1,8.555453E1,3.0981556E1,8.4471606E2,1.6515071E2,3.8929367E1,1.2330646E1,1.4998284E1,3.1103056E1,2.2426224E2,4.47585E1,7.708666E1,8.614636E0,3.1322348E2,5.4338066E1,3.724262E2,6.714683E3,4.0254364E1,8.1621814E2,1.3277995E2,8.5257275E2,1.3369893E2,4.01966E1,8.022888E0,1.8225174E0,2.627096E1,9.165723E0,1.8068813E1,5.6269035E0,3.913013E2,4.7651404E2,5.3500534E1,2.7232552E1,1.2214359E1,1.7061415E1,6.849311E1,4.990315E0,2.5991241E1,3.53304E1,8.093857E2,1.4922147E2,1.592925E1,6.498137E0,5.832508E0,5.047345E0,2.6055712E1,3.241509E1,1.2343408E1,8.747756E0,6.8338905E1,1.4132342E0,7.201402E0,4.7413316E0,4.9596737E1,6.696393E3,1.8289812E1,7.925172E0,3.232919E1,7.6144867E2,5.476945E1,3.0629503E1,1.02150444E2,7.8945795E2,6.3114822E1,3.679322E1,3.4033813E0,2.1867208E0,2.408424E1,5.2969084E0,3.8688147E0,1.1714818E0,1.6897331E1,1.5899482E0,4.036956E0,3.8801367E0,3.8742117E2,4.415706E2,3.494344E1,2.9646925E1,2.385361E1,2.111943E1,6.1131206E0,2.0939085E0,1.4967506E1,3.1579878E0,1.832327E0,4.73138E0,3.059902E1,1.641783E1,7.929679E2,1.4182294E2,7.398519E0,3.7526367E0,2.7455003E0,1.3482864E0,4.4842215E0,3.004221E0,2.0431244E0,3.3082206E0,2.2747492E1,2.7673372E1,4.7417173E0,2.8686993E0,5.879057E0,1.0850029E0,6.725391E1,3.4756703E0,1.2656614E0],"tree_param":{"num_deleted":"0","num_feature":"9","num_nodes":"149","size_leaf_vector":"1"}},{"base_weights":[1.2353841E-3,-6.29882E-1,1.2836173E0,-9.138489E-1,7.7475613E-1,6.7002374E-1,1.3519902E0,-1.0287502E0,1.1568183E0,1.9391887E-1,1.289148E0,2.9830262E-2,1.2541033E0,1.2058821E0,1.3659796E0,-1.1760436E0,-1.0753183E-1,2.351686E-1,1.325465E0,-2.6943615E-1,1.36763E-1,8.417097E-1,1.3442831E0,-4.6628717E-1,1.3662708E-1,7.3081607E-1,1.3374044E0,8.0804783E-1,1.3581259E0,1.3435408E0,1.3682179E-1,-1.2706094E0,-5.2235013E-1,-5.047957E-1,1.3677259E-1,-3.9155427E-1,1.3262829E0,8.935457E-1,1.355297E0,-6.3904804E-1,1.3670442E-1,1.1906259E-1,1.34213E0,1.177445E0,1.3630631E0,-8.8413393E-1,1.3648543E-1,2.0884555E-2,1.352548E0,1.1185716E0,1.3675314E-1,1.5012565E-2,1.2785935E0,1.0817684E0,1.3654552E-1,1.175056E0,1.3678984E-1,-1.2856609E0,1.2379134E0,-8.424828E-1,1.4078313E0,-8.1087404E-1,1.4809445E0,-7.657699E-1,1.4306268E-1,5.6791127E-2,1.37872E0,6.491363E-2,1.3251175E0,7.9510653E-1,1.3632892E0,-9.2551E-1,1.1509559E0,-3.4892046E-1,1.5006347E-1,8.951661E-1,1.4069895E0,6.448608E-1,1.3761604E-1,1.289537E0,1.3683891E-1,-1.11744E0,1.3602495E-1,-4.0456137E-1,1.4848128E-1,9.688855E-1,1.3906132E-1,4.534776E-1,1.3829207E-1,-4.8786247E-1,1.4885706E0,7.499663E-1,1.3466312E0,-2.777026E-2,1.3657035E-1,-7.063167E-1,1.3656226E-1,-1.2978537E-1,1.2764929E-1,5.152523E-2,1.5379153E-1,-1.05519794E-1,1.3669205E-1,-1.5775738E-2,1.672108E-1,-1.0368717E-1,1.4340168E-1,5.7451367E-2,1.7590578E-1,-1.0792234E-1,1.0260588E-1,9.821072E-2,1.4110951E-1,-6.0920533E-2,1.6084981E-1,6.408622E-2,1.3702826E-1,-6.8202876E-2,1.4081532E-1,1.1080998E-1,1.3655792E-1,-1.10770024E-1,1.3642043E-1,4.1506883E-2,1.8764523E-1,-1.0961938E-1,9.937806E-2,-2.3827268E-2,1.3970253E-1,1.6161351E-1,1.3696495E-1,-4.0241405E-2,1.322981E-1,2.0631183E-2,1.3500538E-1,-1.2374424E-1,1.3487503E-1,-8.394509E-2,1.4919274E-1,1.2730141E-1,5.9453625E-2,-7.2896875E-2,1.3556321E-1,-9.82489E-2,1.4441696E-1,1.6931754E-1,1.3420565E-1,-4.9333826E-2,1.3917735E-1,4.9447447E-2,1.3601592E-1,-1.399606E-1,1.273112E-1],"categories":[],"categories_nodes":[],"categories_segments":[],"categories_sizes":[],"default_left":[0,0,0,0,0,0,0,0,0,0,0,0,0,0,0,0,0,0,0,0,0,0,0,0,0,0,0,0,0,0,0,0,0,0,0,0,0,0,0,0,0,0,0,0,0,0,0,0,0,0,0,0,0,0,0,0,0,0,0,0,0,0,0,0,0,0,0,0,0,0,0,0,0,0,0,0,0,0,0,0,0,0,0,0,0,0,0,0,0,0,0,0,0,0,0,0,0,0,0,0,0,0,0,0,0,0,0,0,0,0,0,0,0,0,0,0,0,0,0,0,0,0,0,0,0,0,0,0,0,0,0,0,0,0,0,0,0,0,0,0,0,0,0,0,0,0,0,0,0,0,0,0,0],"id":6,"left_children":[1,3,5,7,9,11,13,15,17,19,21,23,25,27,29,31,33,35,37,39,-1,41,43,45,-1,47,49,51,53,55,-1,57,59,61,-1,63,65,67,69,71,-1,73,75,77,79,81,-1,83,85,87,-1,89,91,93,-1,95,-1,97,99,101,103,105,107,109,-1,-1,111,113,115,117,119,121,123,125,-1,127,129,131,-1,133,-1,135,-1,137,-1,139,-1,141,-1,143,145,147,149,-1,-1,151,-1,-1,-1,-1,-1,-1,-1,-1,-1,-1,-1,-1,-1,-1,-1,-1,-1,-1,-1,-1,-1,-1,-1,-1,-1,-1,-1,-1,-1,-1,-1,-1,-1,-1,-1,-1,-1,-1,-1,-1,-1,-1,-1,-1,-1,-1,-1,-1,-1,-1,-1,-1,-1,-1,-1,-1,-1],"loss_changes":[1.3050296E4,4.3104375E3,2.2303027E2,2.1388472E3,5.4295386E2,1.9944939E2,9.615234E0,1.1556074E3,7.34317E1,4.64294E2,2.366272E1,1.6885898E2,1.2060669E1,2.5266052E1,3.564453E-2,4.5383203E2,6.881839E2,5.012737E1,5.0265503E0,3.7033685E2,0E0,3.8316193E1,2.5274658E0,1.4223285E2,0E0,1.7001343E1,1.4326172E0,4.336033E1,4.658203E-1,1.4873657E0,0E0,2.4235547E2,5.736288E2,5.623894E2,0E0,3.1878365E1,9.850197E-1,9.32658E0,1.5638428E0,2.561878E2,0E0,2.8164116E1,1.6893768E0,9.174805E0,1.2524414E-1,7.937008E1,0E0,1.1325664E1,1.651802E-1,5.1507187E0,0E0,3.2213512E1,2.5220108E0,3.2441196E0,0E0,1.8536453E1,0E0,1.9936328E2,8.22628E0,3.743197E2,5.4672516E1,4.0684064E2,3.1053528E1,2.1856215E1,0E0,0E0,1.8164444E-1,9.509638E0,4.4247818E-1,5.0708847E0,6.378174E-2,1.7976852E2,3.6728752E1,3.2777714E1,0E0,4.703475E0,2.043457E-1,1.7078108E1,0E0,3.4972916E0,0E0,4.074037E1,0E0,1.1749075E1,0E0,1.728909E-1,0E0,9.254185E0,0E0,3.1117352E1,1.0433388E-1,6.8846636E0,6.7614746E-1,0E0,0E0,6.760406E0,0E0,0E0,0E0,0E0,0E0,0E0,0E0,0E0,0E0,0E0,0E0,0E0,0E0,0E0,0E0,0E0,0E0,0E0,0E0,0E0,0E0,0E0,0E0,0E0,0E0,0E0,0E0,0E0,0E0,0E0,0E0,0E0,0E0,0E0,0E0,0E0,0E0,0E0,0E0,0E0,0E0,0E0,0E0,0E0,0E0,0E0,0E0,0E0,0E0,0E0,0E0,0E0,0E0,0E0,0E0,0E0,0E0],"parents":[2147483647,0,0,1,1,2,2,3,3,4,4,5,5,6,6,7,7,8,8,9,9,10,10,11,11,12,12,13,13,14,14,15,15,16,16,17,17,18,18,19,19,21,21,22,22,23,23,25,25,26,26,27,27,28,28,29,29,31,31,32,32,33,33,35,35,36,36,37,37,38,38,39,39,41,41,42,42,43,43,44,44,45,45,47,47,48,48,49,49,51,51,52,52,53,53,55,55,57,57,58,58,59,59,60,60,61,61,62,62,63,63,66,66,67,67,68,68,69,69,70,70,71,71,72,72,73,73,75,75,76,76,77,77,79,79,81,81,83,83,85,85,87,87,89,89,90,90,91,91,92,92,95,95],"right_children":[2,4,6,8,10,12,14,16,18,20,22,24,26,28,30,32,34,36,38,40,-1,42,44,46,-1,48,50,52,54,56,-1,58,60,62,-1,64,66,68,70,72,-1,74,76,78,80,82,-1,84,86,88,-1,90,92,94,-1,96,-1,98,100,102,104,106,108,110,-1,-1,112,114,116,118,120,122,124,126,-1,128,130,132,-1,134,-1,136,-1,138,-1,140,-1,142,-1,144,146,148,150,-1,-1,152,-1,-1,-1,-1,-1,-1,-1,-1,-1,-1,-1,-1,-1,-1,-1,-1,-1,-1,-1,-1,-1,-1,-1,-1,-1,-1,-1,-1,-1,-1,-1,-1,-1,-1,-1,-1,-1,-1,-1,-1,-1,-1,-1,-1,-1,-1,-1,-1,-1,-1,-1,-1,-1,-1,-1,-1,-1],"split_conditions":[7E0,2E0,8E0,8.131868E-1,3.4210527E-1,3.2197616E-1,9E0,1E0,8.907563E-1,1E0,4.0163934E-1,1E0,4.0163934E-1,2.2841726E-1,1E1,1E0,1E0,6.447656E0,9.403973E-1,1E0,1.36763E-1,4.815075E0,4.5652175E-1,2E0,1.3662708E-1,5.3120217E0,4.6341464E-1,1.3675214E0,6.2567544E-1,1.185567E-1,1.3682179E-1,3.506522E1,3.9473686E-1,4.078795E-1,1.3677259E-1,1E0,7.0307546E0,3.7063806E0,2.6647678E-1,1.134357E1,1.3670442E-1,1E0,2.3944745E0,4.047746E0,4.8928973E-1,1E0,1.3648543E-1,1E0,1.6666667E-1,4.4615884E0,1.3675314E-1,1E0,2.1086364E0,2.8373015E-1,1.3654552E-1,7.5384617E-1,1.3678984E-1,8E0,6.902174E-1,1E0,1.9046663E0,1E0,4.5652175E-1,1.2224239E1,1.4306268E-1,5.6791127E-2,1.8974178E0,1E0,9.893928E-1,3.129771E-1,1.754386E-2,1E0,1.5353535E0,8.558659E0,1.5006347E-1,7.453315E0,3.505618E-1,5.4391103E0,1.3761604E-1,1.1208451E0,1.3683891E-1,1E0,1.3602495E-1,1.3578802E1,1.4848128E-1,1.0227273E-1,1.3906132E-1,3.7063806E0,1.3829207E-1,2E0,1E0,2.3535354E0,2.5163728E-1,-2.777026E-2,1.3657035E-1,4.3987055E0,1.3656226E-1,-1.2978537E-1,1.2764929E-1,5.152523E-2,1.5379153E-1,-1.05519794E-1,1.3669205E-1,-1.5775738E-2,1.672108E-1,-1.0368717E-1,1.4340168E-1,5.7451367E-2,1.7590578E-1,-1.0792234E-1,1.0260588E-1,9.821072E-2,1.4110951E-1,-6.0920533E-2,1.6084981E-1,6.408622E-2,1.3702826E-1,-6.8202876E-2,1.4081532E-1,1.1080998E-1,1.3655792E-1,-1.10770024E-1,1.3642043E-1,4.1506883E-2,1.8764523E-1,-1.0961938E-1,9.937806E-2,-2.3827268E-2,1.3970253E-1,1.6161351E-1,1.3696495E-1,-4.0241405E-2,1.322981E-1,2.0631183E-2,1.3500538E-1,-1.2374424E-1,1.3487503E-1,-8.394509E-2,1.4919274E-1,1.2730141E-1,5.9453625E-2,-7.2896875E-2,1.3556321E-1,-9.82489E-2,1.4441696E-1,1.6931754E-1,1.3420565E-1,-4.9333826E-2,1.3917735E-1,4.9447447E-2,1.3601592E-1,-1.399606E-1,1.273112E-1],"split_indices":[6,0,6,5,5,5,6,8,5,8,5,8,5,5,6,7,1,4,5,1,0,4,5,0,0,4,5,3,4,5,0,4,5,5,0,1,4,4,4,4,0,7,2,4,5,1,0,8,3,2,0,1,4,5,0,3,0,3,3,1,4,7,5,2,0,0,2,7,2,3,3,7,3,2,0,4,5,2,0,4,0,7,0,2,0,3,0,4,0,0,7,3,2,0,0,4,0,0,0,0,0,0,0,0,0,0,0,0,0,0,0,0,0,0,0,0,0,0,0,0,0,0,0,0,0,0,0,0,0,0,0,0,0,0,0,0,0,0,0,0,0,0,0,0,0,0,0,0,0,0,0,0,0],"split_type":[0,0,0,0,0,0,0,0,0,0,0,0,0,0,0,0,0,0,0,0,0,0,0,0,0,0,0,0,0,0,0,0,0,0,0,0,0,0,0,0,0,0,0,0,0,0,0,0,0,0,0,0,0,0,0,0,0,0,0,0,0,0,0,0,0,0,0,0,0,0,0,0,0,0,0,0,0,0,0,0,0,0,0,0,0,0,0,0,0,0,0,0,0,0,0,0,0,0,0,0,0,0,0,0,0,0,0,0,0,0,0,0,0,0,0,0,0,0,0,0,0,0,0,0,0,0,0,0,0,0,0,0,0,0,0,0,0,0,0,0,0,0,0,0,0,0,0,0,0,0,0,0,0],"sum_hessian":[1.6124544E4,1.0806321E4,5.318222E3,8.989089E3,1.8172329E3,5.333056E2,4.7849165E3,8.516556E3,4.7253323E2,8.535572E2,9.636758E2,2.5448106E2,2.7882455E2,4.1886566E2,4.3660513E3,7.3425312E3,1.174024E3,7.31283E1,3.994049E2,6.1202167E2,2.4153549E2,1.0589913E2,8.577766E2,1.8563441E2,6.884665E1,3.842439E1,2.4040016E2,1.1610305E2,3.027626E2,4.0148193E2,3.964569E3,6.4144927E3,9.280388E2,9.250014E2,2.4902264E2,4.648944E1,2.663886E1,2.6004057E1,3.7340085E2,4.9930963E2,1.12712036E2,4.337947E1,6.251966E1,8.743022E1,7.703464E2,1.511869E2,3.444751E1,1.7987978E1,2.043641E1,2.9552622E1,2.1084753E2,4.3274117E1,7.282893E1,8.206167E0,2.9455643E2,5.1332706E1,3.5014923E2,6.3762827E3,3.820967E1,7.960631E2,1.3197571E2,8.015163E2,1.23485085E2,3.8616806E1,7.8726377E0,1.7993157E0,2.4839546E1,8.944796E0,1.7059261E1,5.393709E0,3.6800714E2,4.3046826E2,6.884137E1,3.245923E1,1.0920243E1,8.110214E0,5.4409447E1,2.3872671E1,6.355755E1,5.3675053E1,7.166713E2,1.3699622E2,1.419069E1,1.39935465E1,3.9944315E0,2.0833585E0,1.8353052E1,8.482488E0,2.1070135E1,3.231351E1,1.0960606E1,8.441767E0,6.438717E1,1.4181781E0,6.787989E0,4.69643E0,4.6636276E1,6.346132E3,3.0150913E1,1.1288665E1,2.6921005E1,7.26199E2,6.986414E1,1.9066301E1,1.1290942E2,7.282552E2,7.326109E1,2.9064434E1,9.4420654E1,3.2901035E1,5.7157702E0,2.1110876E0,2.2728458E1,6.2679644E0,2.6768312E0,1.150345E0,1.5908916E1,1.5786653E0,3.8150442E0,3.7043517E0,3.643028E2,3.9878867E2,3.167959E1,3.4253994E1,3.458738E1,2.086518E1,1.15940485E1,2.505075E0,5.6051397E0,7.6019497E0,4.68075E1,9.398491E0,1.447418E1,2.8633468E0,5.0811707E1,1.3068695E2,6.309274E0,1.1428564E1,2.564982E0,1.0170372E0,1.0663214E0,3.6792815E0,4.8032064E0,2.5766167E1,6.547343E0,4.1331186E0,6.827487E0,2.8819687E0,5.5597982E0,1.0648568E0,6.3322308E1,3.4998944E0,1.1965357E0],"tree_param":{"num_deleted":"0","num_feature":"9","num_nodes":"153","size_leaf_vector":"1"}},{"base_weights":[1.5099507E-3,-6.012483E-1,1.2384738E0,-8.7224334E-1,7.414017E-1,6.444327E-1,1.3049433E0,-9.784853E-1,1.1710172E0,1.935579E-1,1.2493138E0,7.956112E-2,1.2591039E0,1.1597724E0,1.3188994E0,-1.1238548E0,-9.7274035E-2,4.0394154E-1,1.2942383E0,-2.4158078E-1,1.320893E-1,8.834886E-1,1.3055129E0,-3.9294592E-1,1.3215794E-1,9.7333604E-1,1.320452E-1,7.70701E-1,1.3105417E0,1.2965729E0,1.3211267E-1,-1.2203795E0,-4.6832895E-1,-4.982158E-1,1.2622972E0,-4.418825E-1,1.0780692E0,6.850125E-1,1.3040571E0,-5.932901E-1,1.3198741E-1,2.673425E-1,1.2809865E0,1.0664968E0,1.3142862E0,-7.9415935E-1,1.318069E-1,2.9086885E-1,1.30409E0,1.5694808E-2,1.2282298E0,1.0302383E0,1.318086E-1,1.1296861E0,1.3208014E-1,-1.2330447E0,1.6041819E0,-7.6337075E-1,1.3781618E0,-8.044928E-1,1.3203041E-1,2.4512844E-1,1.4522126E0,-8.561354E-1,1.3729334E-1,3.9336264E-1,1.3185887E0,-7.5351045E-2,1.3348457E-1,9.483193E-1,1.3158928E0,-9.1817707E-1,9.434353E-1,-3.6818972E-1,1.1404486E0,9.9918294E-1,1.3221617E-1,-1.1198777E-1,1.317199E-1,1.2080326E0,1.3187895E0,-1.0196818E0,1.3268052E-1,-2.9535687E-1,1.3520557E-1,6.0476106E-2,1.3274029E-1,-5.5955064E-1,1.2391155E0,6.6702193E-1,1.2950207E0,-3.2825995E-2,1.3253845E-1,-6.465528E-1,1.3184842E-1,-1.2438762E-1,1.7563875E-1,4.267667E-2,2.0921922E-1,-9.455394E-2,2.0116015E-1,5.3481825E-2,1.6787568E-1,-9.659234E-2,1.9553332E-1,-6.600906E-2,1.4621244E-1,1.1841817E-1,1.5163353E-1,-1.0308182E-1,2.0964566E-1,-6.3188985E-2,1.3284098E-1,5.0311457E-2,1.3661009E-1,6.757611E-4,1.3634E-1,1.0518185E-1,1.3183162E-1,-1.0770384E-1,1.4724724E-1,2.8975893E-2,1.728879E-1,-9.1330096E-2,1.4956222E-1,3.1300966E-2,1.3744466E-1,-2.4000255E-2,1.3497129E-1,-1.0130545E-1,1.4801864E-1,3.4767054E-2,1.2954988E-1,1.1880233E-1,1.3213512E-1,-1.1084367E-1,2.3864399E-1,-8.7264076E-2,1.4587718E-1,-9.435055E-2,1.3797538E-1,5.7338733E-2,1.6002935E-1,-2.825946E-2,1.3543898E-1,8.039623E-2,1.3205896E-1,-1.2687819E-1,1.2253564E-1],"categories":[],"categories_nodes":[],"categories_segments":[],"categories_sizes":[],"default_left":[0,0,0,0,0,0,0,0,0,0,0,0,0,0,0,0,0,0,0,0,0,0,0,0,0,0,0,0,0,0,0,0,0,0,0,0,0,0,0,0,0,0,0,0,0,0,0,0,0,0,0,0,0,0,0,0,0,0,0,0,0,0,0,0,0,0,0,0,0,0,0,0,0,0,0,0,0,0,0,0,0,0,0,0,0,0,0,0,0,0,0,0,0,0,0,0,0,0,0,0,0,0,0,0,0,0,0,0,0,0,0,0,0,0,0,0,0,0,0,0,0,0,0,0,0,0,0,0,0,0,0,0,0,0,0,0,0,0,0,0,0,0,0,0,0,0,0,0,0],"id":7,"left_children":[1,3,5,7,9,11,13,15,17,19,21,23,25,27,29,31,33,35,37,39,-1,41,43,45,-1,47,-1,49,51,53,-1,55,57,59,61,63,65,67,69,71,-1,73,75,77,79,81,-1,83,85,87,89,91,-1,93,-1,95,97,99,101,103,-1,105,107,109,-1,111,113,-1,-1,115,117,119,121,123,125,127,-1,129,-1,131,133,135,-1,137,-1,-1,-1,139,141,143,145,-1,-1,147,-1,-1,-1,-1,-1,-1,-1,-1,-1,-1,-1,-1,-1,-1,-1,-1,-1,-1,-1,-1,-1,-1,-1,-1,-1,-1,-1,-1,-1,-1,-1,-1,-1,-1,-1,-1,-1,-1,-1,-1,-1,-1,-1,-1,-1,-1,-1,-1,-1,-1,-1,-1,-1,-1,-1],"loss_changes":[1.1330447E4,3.7177766E3,1.9651367E2,1.8456763E3,4.7746558E2,1.7402841E2,8.918457E0,1.035252E3,3.9670288E1,4.0506155E2,1.8191162E1,1.5340604E2,4.0796204E0,2.298462E1,3.2226562E-2,4.3889062E2,6.239448E2,3.3296024E1,2.076416E0,3.2728427E2,0E0,2.9082642E1,1.4780273E0,1.3010643E2,0E0,9.624039E0,0E0,3.8049774E1,4.6368408E-1,1.3706055E0,0E0,2.1651367E2,4.8526556E2,4.9242844E2,5.0321564E1,1.9613667E1,5.2967567E0,5.6655846E0,1.3748779E0,2.4290147E2,0E0,2.598116E1,7.0609283E-1,8.243517E0,1.965332E-1,7.354152E1,0E0,8.812335E0,3.8928604E-1,2.9392807E1,2.4845734E0,3.206213E0,0E0,1.6297184E1,0E0,1.9513965E2,1.5445381E1,3.8838153E2,3.102208E1,3.3725964E2,0E0,4.5411907E1,3.5954285E0,1.1137499E1,0E0,8.3144E0,8.608589E-1,0E0,0E0,4.621461E0,8.178711E-2,1.5264908E2,4.3553253E1,2.7699966E1,3.7745724E0,4.2104664E0,0E0,7.291393E0,0E0,2.320652E0,8.178711E-2,4.221663E1,0E0,9.408589E0,0E0,0E0,0E0,2.1284164E1,3.119831E0,4.9344444E0,6.620865E-1,0E0,0E0,5.6436286E0,0E0,0E0,0E0,0E0,0E0,0E0,0E0,0E0,0E0,0E0,0E0,0E0,0E0,0E0,0E0,0E0,0E0,0E0,0E0,0E0,0E0,0E0,0E0,0E0,0E0,0E0,0E0,0E0,0E0,0E0,0E0,0E0,0E0,0E0,0E0,0E0,0E0,0E0,0E0,0E0,0E0,0E0,0E0,0E0,0E0,0E0,0E0,0E0,0E0,0E0,0E0,0E0,0E0,0E0,0E0],"parents":[2147483647,0,0,1,1,2,2,3,3,4,4,5,5,6,6,7,7,8,8,9,9,10,10,11,11,12,12,13,13,14,14,15,15,16,16,17,17,18,18,19,19,21,21,22,22,23,23,25,25,27,27,28,28,29,29,31,31,32,32,33,33,34,34,35,35,36,36,37,37,38,38,39,39,41,41,42,42,43,43,44,44,45,45,47,47,48,48,49,49,50,50,51,51,53,53,55,55,56,56,57,57,58,58,59,59,61,61,62,62,63,63,65,65,66,66,69,69,70,70,71,71,72,72,73,73,74,74,75,75,77,77,79,79,80,80,81,81,83,83,87,87,88,88,89,89,90,90,93,93],"right_children":[2,4,6,8,10,12,14,16,18,20,22,24,26,28,30,32,34,36,38,40,-1,42,44,46,-1,48,-1,50,52,54,-1,56,58,60,62,64,66,68,70,72,-1,74,76,78,80,82,-1,84,86,88,90,92,-1,94,-1,96,98,100,102,104,-1,106,108,110,-1,112,114,-1,-1,116,118,120,122,124,126,128,-1,130,-1,132,134,136,-1,138,-1,-1,-1,140,142,144,146,-1,-1,148,-1,-1,-1,-1,-1,-1,-1,-1,-1,-1,-1,-1,-1,-1,-1,-1,-1,-1,-1,-1,-1,-1,-1,-1,-1,-1,-1,-1,-1,-1,-1,-1,-1,-1,-1,-1,-1,-1,-1,-1,-1,-1,-1,-1,-1,-1,-1,-1,-1,-1,-1,-1,-1,-1,-1],"split_conditions":[7E0,2E0,8E0,8.313492E-1,3.505618E-1,3.6899564E-1,9E0,1E0,9.148265E-1,1E0,4.214765E-1,1E0,4.6341464E-1,2.2841726E-1,1E1,1E0,3.8197425E-1,3.8232028E0,2.6647678E-1,1E0,1.320893E-1,4.815075E0,6.2567544E-1,2E0,1.3215794E-1,3.9888992E0,1.320452E-1,1.3675214E0,6.2567544E-1,1.185567E-1,1.3211267E-1,6.434952E1,4.078795E-1,1E0,2.0586178E0,1E0,4.137244E0,1.721489E0,9.403973E-1,1.0459019E1,1.3198741E-1,8.558659E0,2.3944745E0,4.8928973E-1,6.097561E-2,1E0,1.318069E-1,9.361624E0,6.8034464E-1,7.742765E0,1.8733333E0,1.5925767E0,1.318086E-1,7.5384617E-1,1.3208014E-1,8.892858E0,1.7420815E-1,3.5820897E0,3.2092762E0,3.6793892E0,1.3203041E-1,4.7432432E-1,4.8727555E0,5E0,1.3729334E-1,6.447656E0,6.7510545E-2,-7.5351045E-2,1.3348457E-1,3.2793522E-1,1.754386E-2,3E0,1.7611111E0,1E0,3.6363637E-1,7.453315E0,1.3221617E-1,1E0,1.317199E-1,1.6536174E0,3.7642983E-1,2.8768196E1,1.3268052E-1,1E0,1.3520557E-1,6.0476106E-2,1.3274029E-1,1E0,1.1250983E1,9.756097E-2,1.1208451E0,-3.2825995E-2,1.3253845E-1,4.3987055E0,1.3184842E-1,-1.2438762E-1,1.7563875E-1,4.267667E-2,2.0921922E-1,-9.455394E-2,2.0116015E-1,5.3481825E-2,1.6787568E-1,-9.659234E-2,1.9553332E-1,-6.600906E-2,1.4621244E-1,1.1841817E-1,1.5163353E-1,-1.0308182E-1,2.0964566E-1,-6.3188985E-2,1.3284098E-1,5.0311457E-2,1.3661009E-1,6.757611E-4,1.3634E-1,1.0518185E-1,1.3183162E-1,-1.0770384E-1,1.4724724E-1,2.8975893E-2,1.728879E-1,-9.1330096E-2,1.4956222E-1,3.1300966E-2,1.3744466E-1,-2.4000255E-2,1.3497129E-1,-1.0130545E-1,1.4801864E-1,3.4767054E-2,1.2954988E-1,1.1880233E-1,1.3213512E-1,-1.1084367E-1,2.3864399E-1,-8.7264076E-2,1.4587718E-1,-9.435055E-2,1.3797538E-1,5.7338733E-2,1.6002935E-1,-2.825946E-2,1.3543898E-1,8.039623E-2,1.3205896E-1,-1.2687819E-1,1.2253564E-1],"split_indices":[6,0,6,5,5,5,6,1,5,7,5,8,5,5,6,8,5,4,4,1,0,4,4,0,0,4,0,3,4,5,0,2,5,8,4,8,2,2,5,4,0,2,2,5,3,7,0,2,2,4,3,2,0,3,0,3,5,3,4,3,0,5,4,6,0,4,3,0,0,3,3,0,3,7,3,4,0,1,0,2,2,2,0,7,0,0,0,1,4,5,4,0,0,4,0,0,0,0,0,0,0,0,0,0,0,0,0,0,0,0,0,0,0,0,0,0,0,0,0,0,0,0,0,0,0,0,0,0,0,0,0,0,0,0,0,0,0,0,0,0,0,0,0,0,0,0,0,0,0],"split_type":[0,0,0,0,0,0,0,0,0,0,0,0,0,0,0,0,0,0,0,0,0,0,0,0,0,0,0,0,0,0,0,0,0,0,0,0,0,0,0,0,0,0,0,0,0,0,0,0,0,0,0,0,0,0,0,0,0,0,0,0,0,0,0,0,0,0,0,0,0,0,0,0,0,0,0,0,0,0,0,0,0,0,0,0,0,0,0,0,0,0,0,0,0,0,0,0,0,0,0,0,0,0,0,0,0,0,0,0,0,0,0,0,0,0,0,0,0,0,0,0,0,0,0,0,0,0,0,0,0,0,0,0,0,0,0,0,0,0,0,0,0,0,0,0,0,0,0,0,0],"sum_hessian":[1.5196416E4,1.0217565E4,4.978851E3,8.50166E3,1.7159054E3,5.0114786E2,4.477703E3,8.081504E3,4.2015598E2,8.255691E2,8.9033636E2,2.6121185E2,2.3993599E2,3.9344977E2,4.0842534E3,6.937095E3,1.1444087E3,5.8210712E1,3.6194525E2,5.957102E2,2.2985887E2,1.1878481E2,7.715516E2,1.8927386E2,7.193801E1,4.2703445E1,1.9723254E2,1.1005524E2,2.8339453E2,3.7578125E2,3.7084722E3,6.046653E3,8.904425E2,8.8382837E2,2.6058035E2,2.5832844E1,3.237787E1,5.8531485E0,3.560921E2,4.8624756E2,1.0946265E2,4.6646755E1,7.213806E1,2.7751781E1,7.437998E2,1.5336508E2,3.5908775E1,1.4001384E1,2.8702063E1,4.156644E1,6.84888E1,7.7879224E0,2.756066E2,4.8243256E1,3.27538E2,6.0197163E3,2.6936066E1,7.678156E2,1.2262686E2,7.564774E2,1.2735093E2,4.1034184E1,2.1954619E2,2.1075045E1,4.7578E0,8.485384E0,2.3892485E1,1.816358E0,4.0367904E0,1.1727268E1,3.4436484E2,4.014213E2,8.482627E1,2.702971E1,1.9617044E1,9.518662E0,6.2619396E1,4.8778105E0,2.2873972E1,3.1336699E1,7.124631E2,1.38672E2,1.4693091E1,9.065529E0,4.9358544E0,1.012857E0,2.7689207E1,2.830966E1,1.3256779E1,7.4009967E0,6.1087807E1,1.3880035E0,6.399919E0,4.611851E0,4.3631405E1,5.9980425E3,2.1674004E1,7.9478526E0,1.8988213E1,7.2057776E2,4.7237865E1,3.2295925E1,9.033093E1,7.147354E2,4.1742054E1,2.3557524E1,1.7476662E1,4.275953E1,1.7678665E2,1.995929E1,1.1157544E0,4.062925E0,4.4224596E0,1.379219E0,2.2513266E1,3.6191897E0,8.108079E0,3.526926E0,3.4083792E2,3.7646002E2,2.4961246E1,4.6371243E1,3.845503E1,2.095266E1,6.07705E0,4.3761897E0,1.5240855E1,2.1058035E0,7.4128594E0,3.1381788E0,1.7396317E0,2.9376793E0,2.839902E1,1.4581823E1,6.978813E2,1.3521606E2,3.4559274E0,6.8586116E0,2.2069175E0,2.367391E1,4.635751E0,4.753612E0,8.503166E0,3.1323967E0,4.2685995E0,3.1839051E0,5.79039E1,3.4854841E0,1.1263671E0],"tree_param":{"num_deleted":"0","num_feature":"9","num_nodes":"149","size_leaf_vector":"1"}},{"base_weights":[1.8100084E-3,-5.747766E-1,1.1997627E0,-8.3351505E-1,7.118636E-1,6.2071925E-1,1.2650186E0,-9.376965E-1,1.0739609E0,2.1830146E-1,1.2437497E0,5.3835314E-2,1.1949755E0,1.1187924E0,1.2791542E0,-1.0790951E0,-6.814182E-2,2.175272E-1,1.2367896E0,-2.0850442E-1,1.2887247E-1,1.0384899E0,1.2758371E0,-4.015294E-1,1.2806375E-1,8.396606E-1,1.2722733E0,7.244973E-1,1.2662654E0,1.2568526E0,1.2813789E-1,-1.1076704E0,1.0256697E0,-5.016261E-1,1.0822504E0,-3.4305412E-1,1.2337434E0,8.077473E-1,1.2677023E0,-5.4713815E-1,1.286736E-1,3.1656522E-1,1.2341423E0,1.196533E0,1.2816314E-1,-7.82661E-1,1.2778644E-1,1.7027354E-1,1.2898643E-1,1.0641091E0,1.2807019E-1,-3.176669E-2,1.1817061E0,1.040087E0,1.2785815E-1,1.0909203E0,1.2810424E-1,-1.1925341E0,-5.275299E-1,3.6251765E-1,1.4176326E0,-7.9921365E-1,1.2950304E-1,3.9016107E-1,1.5531873E0,-6.7903584E-1,1.3441798E-1,4.7997702E-2,1.2896193E0,5.234542E-2,1.2344077E0,7.2338647E-1,1.2757697E0,-7.7133405E-1,1.3970242E0,-2.8580576E-1,1.4199951E-1,6.3621795E-1,1.2765415E-1,1.6390817E-1,1.2601774E0,-1.0086193E0,1.3054548E-1,-6.8423235E-1,1.0291835E0,1.320684E-2,1.273464E-1,-4.9248785E-1,1.3797137E-1,7.017794E-1,1.2708154E0,-8.475461E-2,1.2431028E0,-5.9573895E-1,1.2786458E-1,-1.202903E-1,1.7313398E-1,-8.032032E-2,1.2902091E-1,-3.471436E-2,1.8629049E-1,4.3901075E-2,1.4352871E-1,-9.781912E-2,1.6330996E-1,-6.1882433E-2,1.5407647E-1,1.7875092E-1,1.2883085E-1,-9.106186E-2,1.432259E-1,8.748017E-2,1.324979E-1,-5.5578478E-2,1.5064798E-1,5.1432014E-2,1.286292E-1,-6.260274E-2,1.3304447E-1,1.00048184E-1,1.2783593E-1,-9.240218E-2,1.87093E-1,1.4789698E-1,1.280433E-1,-8.843484E-2,1.4674585E-1,-1.2300074E-1,1.3326815E-1,-1.6665347E-1,1.4371635E-1,8.507573E-2,1.2820238E-1,-1.0989231E-1,2.0368107E-1,-1.002201E-1,1.3786575E-1,-1.2360756E-2,1.3052076E-1,-8.558959E-2,1.6649134E-1,-4.0321063E-2,1.2937285E-1,6.0157407E-2,1.2871054E-1,6.581911E-2,1.2948956E-1,-1.1597401E-1,1.1835929E-1],"categories":[],"categories_nodes":[],"categories_segments":[],"categories_sizes":[],"default_left":[0,0,0,0,0,0,0,0,0,0,0,0,0,0,0,0,0,0,0,0,0,0,0,0,0,0,0,0,0,0,0,0,0,0,0,0,0,0,0,0,0,0,0,0,0,0,0,0,0,0,0,0,0,0,0,0,0,0,0,0,0,0,0,0,0,0,0,0,0,0,0,0,0,0,0,0,0,0,0,0,0,0,0,0,0,0,0,0,0,0,0,0,0,0,0,0,0,0,0,0,0,0,0,0,0,0,0,0,0,0,0,0,0,0,0,0,0,0,0,0,0,0,0,0,0,0,0,0,0,0,0,0,0,0,0,0,0,0,0,0,0,0,0,0,0,0,0,0,0],"id":8,"left_children":[1,3,5,7,9,11,13,15,17,19,21,23,25,27,29,31,33,35,37,39,-1,41,43,45,-1,47,49,51,53,55,-1,57,59,61,63,65,67,69,71,73,-1,75,77,79,-1,81,-1,83,-1,85,-1,87,89,91,-1,93,-1,95,97,99,101,103,-1,105,107,109,-1,-1,111,113,115,117,119,121,123,125,-1,127,-1,129,131,133,-1,135,137,-1,-1,139,-1,141,143,-1,145,147,-1,-1,-1,-1,-1,-1,-1,-1,-1,-1,-1,-1,-1,-1,-1,-1,-1,-1,-1,-1,-1,-1,-1,-1,-1,-1,-1,-1,-1,-1,-1,-1,-1,-1,-1,-1,-1,-1,-1,-1,-1,-1,-1,-1,-1,-1,-1,-1,-1,-1,-1,-1,-1,-1,-1],"loss_changes":[9.871256E3,3.2117993E3,1.7538232E2,1.596335E3,4.2402893E2,1.5315898E2,8.482422E0,9.364697E2,5.7990356E1,3.8286618E2,4.987915E0,1.3237994E2,6.3124695E0,2.1344421E1,2.8320312E-2,3.9412988E2,5.3134467E2,3.7973305E1,4.5336304E0,3.0346063E2,0E0,1.4882729E1,1.5551758E-1,1.1072261E2,0E0,1.265192E1,2.0013428E-1,3.4782146E1,6.140137E-1,1.2664795E0,0E0,3.1815332E2,2.2771217E1,4.1387018E2,9.498602E1,2.4461618E1,9.360161E-1,7.654125E0,1.3387451E0,2.1308063E2,0E0,1.5102528E1,2.0250626E0,3.0851212E0,0E0,6.6623E1,0E0,1.2566803E1,0E0,1.5547094E0,0E0,2.4775719E1,2.591713E0,5.617734E0,0E0,1.4403065E1,0E0,1.7115527E2,4.135176E2,3.4937904E1,8.898239E-1,2.8920908E2,0E0,1.373372E2,1.053833E1,1.7691978E1,0E0,0E0,2.0677185E-1,7.7626286E0,5.011692E-1,4.171275E0,1.0101318E-1,1.7694345E2,2.9364014E-1,1.5599779E1,0E0,7.5735006E0,0E0,6.901551E0,2.8894806E-1,3.521083E1,0E0,5.7760043E0,2.7307549E0,0E0,0E0,2.265813E1,0E0,6.619336E0,4.9761963E-1,0E0,3.0944633E-1,4.7535386E0,0E0,0E0,0E0,0E0,0E0,0E0,0E0,0E0,0E0,0E0,0E0,0E0,0E0,0E0,0E0,0E0,0E0,0E0,0E0,0E0,0E0,0E0,0E0,0E0,0E0,0E0,0E0,0E0,0E0,0E0,0E0,0E0,0E0,0E0,0E0,0E0,0E0,0E0,0E0,0E0,0E0,0E0,0E0,0E0,0E0,0E0,0E0,0E0,0E0,0E0,0E0,0E0,0E0,0E0,0E0],"parents":[2147483647,0,0,1,1,2,2,3,3,4,4,5,5,6,6,7,7,8,8,9,9,10,10,11,11,12,12,13,13,14,14,15,15,16,16,17,17,18,18,19,19,21,21,22,22,23,23,25,25,26,26,27,27,28,28,29,29,31,31,32,32,33,33,34,34,35,35,36,36,37,37,38,38,39,39,41,41,42,42,43,43,45,45,47,47,49,49,51,51,52,52,53,53,55,55,57,57,58,58,59,59,60,60,61,61,63,63,64,64,65,65,68,68,69,69,70,70,71,71,72,72,73,73,74,74,75,75,77,77,79,79,80,80,81,81,83,83,84,84,87,87,89,89,90,90,92,92,93,93],"right_children":[2,4,6,8,10,12,14,16,18,20,22,24,26,28,30,32,34,36,38,40,-1,42,44,46,-1,48,50,52,54,56,-1,58,60,62,64,66,68,70,72,74,-1,76,78,80,-1,82,-1,84,-1,86,-1,88,90,92,-1,94,-1,96,98,100,102,104,-1,106,108,110,-1,-1,112,114,116,118,120,122,124,126,-1,128,-1,130,132,134,-1,136,138,-1,-1,140,-1,142,144,-1,146,148,-1,-1,-1,-1,-1,-1,-1,-1,-1,-1,-1,-1,-1,-1,-1,-1,-1,-1,-1,-1,-1,-1,-1,-1,-1,-1,-1,-1,-1,-1,-1,-1,-1,-1,-1,-1,-1,-1,-1,-1,-1,-1,-1,-1,-1,-1,-1,-1,-1,-1,-1,-1,-1,-1,-1],"split_conditions":[7E0,2E0,8E0,8.131868E-1,3.8502672E-1,3.4474617E-1,9E0,1E0,8.907563E-1,1E0,4.5652175E-1,1E0,4.4228095E-1,2.1875E-1,1E1,3.0769579E1,9.671887E0,6.447656E0,9.403973E-1,1E0,1.2887247E-1,2.585216E0,4.8928973E-1,2E0,1.2806375E-1,4.9329557E0,4.6341464E-1,1.3675214E0,2.5E-1,1.185567E-1,1.2813789E-1,1E0,3.941874E1,1E0,2E-1,1E0,7.0307546E0,3.7063806E0,2.6647678E-1,3E0,1.286736E-1,8.410188E0,1.2244855E0,1.1208451E0,1.2816314E-1,1E0,1.2778644E-1,4.781418E0,1.2898643E-1,1.7961576E0,1.2807019E-1,1E0,2.8238087E0,1.5925767E0,1.2785815E-1,7.5384617E-1,1.2810424E-1,7.151193E1,4.078795E-1,3.243243E-1,3.125E-2,4.4228095E-1,1.2950304E-1,1.6593406E0,1E0,1E0,1.3441798E-1,4.7997702E-2,1.8974178E0,1E0,9.893928E-1,3.129771E-1,1.754386E-2,4.3139534E0,1E0,3E0,1.4199951E-1,4.047746E0,1.2765415E-1,1.7783008E0,6.097561E-2,2.713466E1,1.3054548E-1,1E0,1.7391305E-1,1.320684E-2,1.273464E-1,1.1250983E1,1.3797137E-1,2.3535354E0,3.145617E-1,-8.475461E-2,2.536023E-1,4.3987055E0,1.2786458E-1,-1.202903E-1,1.7313398E-1,-8.032032E-2,1.2902091E-1,-3.471436E-2,1.8629049E-1,4.3901075E-2,1.4352871E-1,-9.781912E-2,1.6330996E-1,-6.1882433E-2,1.5407647E-1,1.7875092E-1,1.2883085E-1,-9.106186E-2,1.432259E-1,8.748017E-2,1.324979E-1,-5.5578478E-2,1.5064798E-1,5.1432014E-2,1.286292E-1,-6.260274E-2,1.3304447E-1,1.00048184E-1,1.2783593E-1,-9.240218E-2,1.87093E-1,1.4789698E-1,1.280433E-1,-8.843484E-2,1.4674585E-1,-1.2300074E-1,1.3326815E-1,-1.6665347E-1,1.4371635E-1,8.507573E-2,1.2820238E-1,-1.0989231E-1,2.0368107E-1,-1.002201E-1,1.3786575E-1,-1.2360756E-2,1.3052076E-1,-8.558959E-2,1.6649134E-1,-4.0321063E-2,1.2937285E-1,6.0157407E-2,1.2871054E-1,6.581911E-2,1.2948956E-1,-1.1597401E-1,1.1835929E-1],"split_indices":[6,0,6,5,5,5,6,7,5,8,5,8,5,5,6,4,4,4,5,1,0,4,5,0,0,4,5,3,5,5,0,8,4,1,5,1,4,4,4,0,0,2,2,4,0,1,0,2,0,4,0,1,4,2,0,3,0,2,5,5,3,5,0,3,1,8,0,0,2,7,2,3,3,3,7,0,0,4,0,2,3,2,0,7,3,0,0,4,0,3,2,0,3,4,0,0,0,0,0,0,0,0,0,0,0,0,0,0,0,0,0,0,0,0,0,0,0,0,0,0,0,0,0,0,0,0,0,0,0,0,0,0,0,0,0,0,0,0,0,0,0,0,0,0,0,0,0,0,0],"split_type":[0,0,0,0,0,0,0,0,0,0,0,0,0,0,0,0,0,0,0,0,0,0,0,0,0,0,0,0,0,0,0,0,0,0,0,0,0,0,0,0,0,0,0,0,0,0,0,0,0,0,0,0,0,0,0,0,0,0,0,0,0,0,0,0,0,0,0,0,0,0,0,0,0,0,0,0,0,0,0,0,0,0,0,0,0,0,0,0,0,0,0,0,0,0,0,0,0,0,0,0,0,0,0,0,0,0,0,0,0,0,0,0,0,0,0,0,0,0,0,0,0,0,0,0,0,0,0,0,0,0,0,0,0,0,0,0,0,0,0,0,0,0,0,0,0,0,0,0,0],"sum_hessian":[1.4290985E4,9.647567E3,4.6434185E3,8.032331E3,1.615236E3,4.7040125E2,4.173017E3,7.6163936E3,4.1593735E2,8.378742E2,7.7736176E2,2.3677516E2,2.3362608E2,3.68548E2,3.804469E3,6.5510938E3,1.0653E3,6.648392E1,3.4945343E2,5.990841E2,2.3879007E2,1.0554389E2,6.718179E2,1.727289E2,6.404628E1,4.195554E1,1.9167053E2,1.0048229E2,2.680657E2,3.5023856E2,3.4542305E3,6.463391E3,8.7702576E1,7.737836E2,2.9151636E2,4.289032E1,2.3593597E1,2.366849E1,3.2578494E2,4.8851205E2,1.1057208E2,2.2560644E1,8.2983246E1,4.715713E1,6.2466077E2,1.4082306E2,3.1905827E1,1.6926353E1,2.5029188E1,7.9538603E0,1.8371667E2,3.7894485E1,6.2587803E1,1.4284385E1,2.5378133E2,4.5148182E1,3.0509036E2,5.6384814E3,8.2490936E2,3.2651993E1,5.5050587E1,6.638783E2,1.0990537E2,1.1811593E2,1.7340042E2,3.5817646E1,7.0726743E0,1.69445E0,2.1899147E1,8.583563E0,1.5084927E1,4.890383E0,3.2089456E2,4.3805676E2,5.0455273E1,1.4641715E1,7.918928E0,5.6007385E0,7.738251E1,2.758484E0,4.4398647E1,1.2711901E2,1.3704052E1,8.495125E0,8.431229E0,1.4888103E0,6.4650497E0,2.86183E1,9.276188E0,9.940045E0,5.2647755E1,1.3562787E0,1.2928106E1,4.4999647E0,4.064822E1,5.618615E3,1.9866367E1,7.1632874E2,1.08580635E2,2.2219402E1,1.043259E1,1.0213577E0,5.402923E1,6.184318E2,4.5446457E1,6.29554E1,5.5160526E1,9.170226E1,8.1698166E1,3.2328484E1,3.489163E0,1.9222744E0,1.9976873E1,6.095963E0,2.4875996E0,1.0872048E0,1.3997723E1,1.5164286E0,3.3739543E0,3.3514185E0,3.1754315E2,4.141873E2,2.3869492E1,2.8943787E1,2.1511486E1,1.0952297E1,3.689418E0,1.5012963E0,4.0994425E0,1.118964E0,1.6395199E0,2.451416E0,4.194723E1,1.2352027E2,3.5987365E0,7.4051337E0,1.0899907E0,1.6394451E0,6.7917833E0,2.4544224E1,4.074076E0,3.4785423E0,6.4615035E0,1.3411746E0,5.1306583E1,1.1631472E0,1.1764959E1,3.4433389E0,1.0566257E0],"tree_param":{"num_deleted":"0","num_feature":"9","num_nodes":"149","size_leaf_vector":"1"}},{"base_weights":[2.1292835E-3,-5.508776E-1,1.1666064E0,-7.9862696E-1,6.852828E-1,5.9996134E-1,1.2309393E0,-8.9505476E-1,1.0968093E0,2.08853E-1,1.2085773E0,2.536523E-2,1.1341277E0,1.0832089E0,1.2453016E0,-1.037884E0,-4.693914E-2,4.488012E-1,1.2332097E0,-1.9614847E-1,1.2538622E-1,9.993E-1,1.2416759E0,-4.0952447E-1,1.2453913E-1,6.543507E-1,1.2145878E0,7.029133E-1,1.2357453E0,1.2229424E0,1.2475319E-1,-1.1342264E0,-4.0166995E-1,-4.1560456E-1,1.2128172E0,-1.4854658E-1,1.2044785E0,6.884237E-1,1.2414789E0,-5.162271E-1,1.2648056E-1,3.8686377E-1,1.2251207E0,1.1593565E0,1.2477205E-1,-7.688625E-1,1.24373496E-1,3.7869945E-2,1.2375162E0,9.8706466E-1,1.2468413E-1,1.0202761E-1,1.2177329E0,9.3190306E-1,1.2441663E0,1.0573728E0,1.2471794E-1,-1.1466135E0,1.8204447E0,-6.797031E-1,1.2736061E0,-7.0191836E-1,1.2743674E-1,2.5557226E-1,1.3989683E0,-7.214629E-1,9.4577414E-1,6.858294E-1,1.2602688E-1,-7.099854E-2,1.2457563E-1,9.5302767E-1,1.2442668E-1,-8.159889E-1,8.888158E-1,-2.7944317E-1,1.2472731E0,7.002813E-1,1.2470996E-1,1.528124E-1,1.2246512E0,-9.812687E-1,1.2665306E-1,-3.455313E-1,1.418272E-1,8.255651E-2,1.2803803E-1,3.4550527E-1,1.2593316E-1,-3.8654506E-1,1.3189998E-1,6.938845E-1,1.2471149E-1,-3.58009E-2,1.24559656E-1,1.0920793E0,1.2481242E-1,-5.515331E-1,1.2446705E-1,-1.1608008E-1,1.0893456E-1,1.2259906E-1,2.3837374E-1,-8.611053E-2,1.5509452E-1,5.0193068E-2,1.7414849E-1,-8.585673E-2,1.8720095E-1,-4.9559996E-2,1.5204608E-1,1.0986104E-1,1.4681879E-1,-1.0264015E-1,1.3236605E-1,-9.056704E-3,1.6210952E-1,-1.903831E-2,1.2692422E-1,3.2361496E-2,1.23898424E-1,-9.8211594E-2,1.2650113E-1,2.9921105E-2,1.6835E-1,-8.238154E-2,1.3723008E-1,1.6345758E-2,1.3563962E-1,-4.2704433E-2,1.2618148E-1,-1.4784847E-1,1.3728043E-1,8.070744E-2,1.2475753E-1,-1.0978657E-1,1.2797754E-1,-8.19974E-2,1.11908056E-1,-6.554929E-2,1.2288878E-1,-7.766826E-2,1.4729476E-1,-3.400347E-2,1.2685923E-1,2.9315323E-2,1.2266004E-1,-1.6063449E-1,3.149912E-2],"categories":[],"categories_nodes":[],"categories_segments":[],"categories_sizes":[],"default_left":[0,0,0,0,0,0,0,0,0,0,0,0,0,0,0,0,0,0,0,0,0,0,0,0,0,0,0,0,0,0,0,0,0,0,0,0,0,0,0,0,0,0,0,0,0,0,0,0,0,0,0,0,0,0,0,0,0,0,0,0,0,0,0,0,0,0,0,0,0,0,0,0,0,0,0,0,0,0,0,0,0,0,0,0,0,0,0,0,0,0,0,0,0,0,0,0,0,0,0,0,0,0,0,0,0,0,0,0,0,0,0,0,0,0,0,0,0,0,0,0,0,0,0,0,0,0,0,0,0,0,0,0,0,0,0,0,0,0,0,0,0,0,0,0,0,0,0,0,0],"id":9,"left_children":[1,3,5,7,9,11,13,15,17,19,21,23,25,27,29,31,33,35,37,39,-1,41,43,45,-1,47,49,51,53,55,-1,57,59,61,63,65,67,69,71,73,-1,75,77,79,-1,81,-1,83,85,87,-1,89,91,93,95,97,-1,99,101,103,105,107,-1,109,111,113,115,117,-1,-1,-1,119,-1,121,123,125,127,129,-1,131,133,135,-1,137,-1,-1,-1,139,-1,141,-1,143,-1,-1,-1,145,-1,147,-1,-1,-1,-1,-1,-1,-1,-1,-1,-1,-1,-1,-1,-1,-1,-1,-1,-1,-1,-1,-1,-1,-1,-1,-1,-1,-1,-1,-1,-1,-1,-1,-1,-1,-1,-1,-1,-1,-1,-1,-1,-1,-1,-1,-1,-1,-1,-1,-1,-1,-1],"loss_changes":[8.630696E3,2.7830347E3,1.5723975E2,1.3836763E3,3.7823267E2,1.3510248E2,8.087402E0,8.726011E2,3.234015E1,3.361891E2,4.8842773E0,1.12622665E2,8.72641E0,1.9876526E1,2.34375E-2,3.7784912E2,4.8230444E2,2.8857908E1,1.2783203E0,2.6778656E2,0E0,1.3678528E1,1.6571045E-1,9.306226E1,0E0,1.1851288E1,1.3096924E0,3.0536171E1,5.1220703E-1,1.1738586E0,0E0,1.9617822E2,3.778263E2,3.888109E2,4.1858917E1,2.249571E1,7.300682E-1,3.7910643E0,1.2112427E-1,1.9789966E2,0E0,1.5446548E1,7.485657E-1,2.8788948E0,0E0,5.5726395E1,0E0,8.58805E0,1.9348907E-1,4.274519E0,0E0,2.7209042E1,7.3192596E-1,2.8846292E0,7.293701E-3,1.2786762E1,0E0,1.6927197E2,7.205925E0,2.8160825E2,4.1602814E1,2.7718088E2,0E0,3.6560528E1,3.930481E0,1.4814027E1,8.647997E0,1.5372643E0,0E0,0E0,0E0,5.503259E-1,0E0,1.339703E2,3.8669037E1,1.3808996E1,1.3675747E0,2.0420423E0,0E0,5.7755976E0,2.955017E-1,3.0857086E1,0E0,8.921925E0,0E0,0E0,0E0,6.7152023E0,0E0,2.3814373E1,0E0,1.8551967E0,0E0,0E0,0E0,7.003288E-1,0E0,4.136399E0,0E0,0E0,0E0,0E0,0E0,0E0,0E0,0E0,0E0,0E0,0E0,0E0,0E0,0E0,0E0,0E0,0E0,0E0,0E0,0E0,0E0,0E0,0E0,0E0,0E0,0E0,0E0,0E0,0E0,0E0,0E0,0E0,0E0,0E0,0E0,0E0,0E0,0E0,0E0,0E0,0E0,0E0,0E0,0E0,0E0,0E0,0E0,0E0,0E0,0E0,0E0],"parents":[2147483647,0,0,1,1,2,2,3,3,4,4,5,5,6,6,7,7,8,8,9,9,10,10,11,11,12,12,13,13,14,14,15,15,16,16,17,17,18,18,19,19,21,21,22,22,23,23,25,25,26,26,27,27,28,28,29,29,31,31,32,32,33,33,34,34,35,35,36,36,37,37,38,38,39,39,41,41,42,42,43,43,45,45,47,47,48,48,49,49,51,51,52,52,53,53,54,54,55,55,57,57,58,58,59,59,60,60,61,61,63,63,64,64,65,65,66,66,67,67,71,71,73,73,74,74,75,75,76,76,77,77,79,79,80,80,81,81,83,83,87,87,89,89,91,91,95,95,97,97],"right_children":[2,4,6,8,10,12,14,16,18,20,22,24,26,28,30,32,34,36,38,40,-1,42,44,46,-1,48,50,52,54,56,-1,58,60,62,64,66,68,70,72,74,-1,76,78,80,-1,82,-1,84,86,88,-1,90,92,94,96,98,-1,100,102,104,106,108,-1,110,112,114,116,118,-1,-1,-1,120,-1,122,124,126,128,130,-1,132,134,136,-1,138,-1,-1,-1,140,-1,142,-1,144,-1,-1,-1,146,-1,148,-1,-1,-1,-1,-1,-1,-1,-1,-1,-1,-1,-1,-1,-1,-1,-1,-1,-1,-1,-1,-1,-1,-1,-1,-1,-1,-1,-1,-1,-1,-1,-1,-1,-1,-1,-1,-1,-1,-1,-1,-1,-1,-1,-1,-1,-1,-1,-1,-1,-1,-1],"split_conditions":[7E0,2E0,8E0,8.313492E-1,3.8502672E-1,3.2197616E-1,9E0,1E0,9.403973E-1,1E0,4.5652175E-1,1E0,4.0163934E-1,2.2841726E-1,1E1,1E0,3.8197425E-1,5.566647E0,2.6647678E-1,1E0,1.2538622E-1,3.3770046E0,4.8928973E-1,2E0,1.2453913E-1,5.3120217E0,4.6341464E-1,1.8733333E0,6.2567544E-1,1.185567E-1,1.2475319E-1,8.892858E0,1.2098396E1,1E0,2.0586178E0,8.410188E0,1.5332091E0,9.286077E-1,1.754386E-2,1.0459019E1,1.2648056E-1,6.4366503E0,9.286077E-1,1.1208451E0,1.2477205E-1,1E0,1.24373496E-1,2E0,1.6666667E-1,4.4615884E0,1.2468413E-1,1E0,1.1208451E0,2.8373015E-1,5.518222E-1,7.5384617E-1,1.2471794E-1,3.506522E1,1E0,4.4228095E-1,1.7883597E-1,3.6793892E0,1.2743674E-1,4.9295774E-1,2.6865673E-1,1E0,5.6798244E-1,9.97934E0,1.2602688E-1,-7.099854E-2,1.2457563E-1,8.410188E0,1.2442668E-1,3.3255813E0,1.657078E1,1E0,8.8709675E-2,9.822931E0,1.2470996E-1,1.7783008E0,6.097561E-2,1E0,1.2665306E-1,8.652482E-1,1.418272E-1,8.255651E-2,1.2803803E-1,3.7063806E0,1.2593316E-1,2E0,1.3189998E-1,2.6E0,1.2471149E-1,-3.58009E-2,1.24559656E-1,3.3471075E-1,1.2481242E-1,2.3064451E0,1.2446705E-1,-1.1608008E-1,1.0893456E-1,1.2259906E-1,2.3837374E-1,-8.611053E-2,1.5509452E-1,5.0193068E-2,1.7414849E-1,-8.585673E-2,1.8720095E-1,-4.9559996E-2,1.5204608E-1,1.0986104E-1,1.4681879E-1,-1.0264015E-1,1.3236605E-1,-9.056704E-3,1.6210952E-1,-1.903831E-2,1.2692422E-1,3.2361496E-2,1.23898424E-1,-9.8211594E-2,1.2650113E-1,2.9921105E-2,1.6835E-1,-8.238154E-2,1.3723008E-1,1.6345758E-2,1.3563962E-1,-4.2704433E-2,1.2618148E-1,-1.4784847E-1,1.3728043E-1,8.070744E-2,1.2475753E-1,-1.0978657E-1,1.2797754E-1,-8.19974E-2,1.11908056E-1,-6.554929E-2,1.2288878E-1,-7.766826E-2,1.4729476E-1,-3.400347E-2,1.2685923E-1,2.9315323E-2,1.2266004E-1,-1.6063449E-1,3.149912E-2],"split_indices":[6,0,6,5,5,5,6,1,5,8,5,8,5,5,6,7,5,4,4,7,0,4,5,0,0,4,5,3,4,5,0,3,4,8,4,2,2,2,3,4,0,2,2,4,0,1,0,0,3,2,0,7,4,5,2,3,0,4,8,5,5,3,0,5,3,1,3,4,0,0,0,2,0,3,4,1,3,4,0,2,3,7,0,3,0,0,0,4,0,0,0,3,0,0,0,3,0,4,0,0,0,0,0,0,0,0,0,0,0,0,0,0,0,0,0,0,0,0,0,0,0,0,0,0,0,0,0,0,0,0,0,0,0,0,0,0,0,0,0,0,0,0,0,0,0,0,0,0,0],"split_type":[0,0,0,0,0,0,0,0,0,0,0,0,0,0,0,0,0,0,0,0,0,0,0,0,0,0,0,0,0,0,0,0,0,0,0,0,0,0,0,0,0,0,0,0,0,0,0,0,0,0,0,0,0,0,0,0,0,0,0,0,0,0,0,0,0,0,0,0,0,0,0,0,0,0,0,0,0,0,0,0,0,0,0,0,0,0,0,0,0,0,0,0,0,0,0,0,0,0,0,0,0,0,0,0,0,0,0,0,0,0,0,0,0,0,0,0,0,0,0,0,0,0,0,0,0,0,0,0,0,0,0,0,0,0,0,0,0,0,0,0,0,0,0,0,0,0,0,0,0],"sum_hessian":[1.3402254E4,9.086943E3,4.315311E3,7.5698423E3,1.5171008E3,4.400831E2,3.8752278E3,7.20343E3,3.6641214E2,7.941826E2,7.229182E2,2.1206847E2,2.2801463E2,3.4404382E2,3.5311838E3,6.165149E3,1.0382814E3,6.378986E1,3.0262228E2,5.724186E2,2.2176405E2,9.9146866E1,6.2377136E2,1.5638869E2,5.567978E1,3.287812E1,1.9513652E2,9.865163E1,2.4539218E2,3.2527042E2,3.2059136E3,5.3542695E3,8.108791E2,8.032723E2,2.3500917E2,3.567211E1,2.8117748E1,4.6507277E0,2.9797156E2,4.695993E2,1.0281928E2,2.678258E1,7.236429E1,4.3988815E1,5.7978253E2,1.285103E2,2.7878382E1,1.60343E1,1.684382E1,2.4620312E1,1.705162E2,4.5576084E1,5.3075546E1,6.9187236E0,2.3847346E2,4.210459E1,2.8316583E2,5.331977E3,2.2292515E1,6.955099E2,1.1536921E2,6.869484E2,1.1632382E2,3.8299416E1,1.9670976E2,2.343639E1,1.2235723E1,2.8599362E0,2.525781E1,1.317524E0,3.3332038E0,3.180396E0,2.9479114E2,3.8706256E2,8.2536736E1,1.5131873E1,1.1650705E1,3.040694E0,6.932359E1,2.7000785E0,4.128874E1,1.164136E2,1.2096709E1,1.2607567E1,3.4267337E0,1.7783929E0,1.5065427E1,7.403017E0,1.7217295E1,3.256899E1,1.3007097E1,2.949572E0,5.0125973E1,1.3506606E0,5.568063E0,6.7509394E0,2.3172252E2,4.370143E0,3.773445E1,5.2984062E3,3.3570686E1,1.1000796E1,1.1291719E1,6.432597E2,5.225018E1,4.3625187E1,7.1744026E1,6.476021E2,3.934635E1,2.406744E1,1.4231976E1,3.715848E1,1.5955127E2,2.0438686E1,2.9977033E0,4.861658E0,7.3740644E0,1.1700443E0,1.6898919E0,1.060132E0,2.120264E0,3.584965E2,2.8566095E1,4.7461205E1,3.5075527E1,1.1418692E1,3.7131815E0,1.0885881E0,1.0562118E1,1.0189722E0,2.0217218E0,1.1462271E0,1.5538515E0,2.337121E0,3.895162E1,1.1075372E2,5.6598773E0,9.5560255E0,3.0515409E0,3.4825685E0,3.9204485E0,2.696891E1,5.6000776E0,1.0683705E0,1.8812016E0,1.0187091E0,5.73223E0,1.9324329E0,2.43771E0],"tree_param":{"num_deleted":"0","num_feature":"9","num_nodes":"149","size_leaf_vector":"1"}},{"base_weights":[2.4511595E-3,-5.909336E-1,1.0243635E0,-8.142551E-1,5.839257E-1,4.0076762E-1,1.2015905E0,-8.990813E-1,1.0890807E0,1.0455143E-1,1.1743743E0,-4.093009E-3,1.3111664E0,1.0519874E0,1.2162205E0,-1.0259465E0,-1.457413E-1,4.3780497E-1,1.2010852E0,-2.7658036E-1,1.2244355E-1,9.2826885E-1,1.2111604E0,-4.0771484E-1,1.360975E0,1.3987013E0,1.2230372E-1,6.748042E-1,1.2059398E0,1.193442E0,1.21849336E-1,-1.0486597E0,1.2358965E0,-4.573468E-1,1.2739518E0,-4.0465668E-1,9.12455E-1,7.7879024E-1,1.2148106E0,-5.686296E-1,1.230407E-1,3.2754284E-1,1.2101562E0,1.1095893E0,1.2185871E-1,-7.409314E-1,1.4709207E0,1.4809426E0,1.2248496E-1,1.5495381E0,1.2264007E-1,9.7445525E-2,1.186546E0,8.9368135E-1,1.2147609E0,1.0258771E0,1.2181204E-1,-1.0800768E0,3.7891808E-1,5.410417E-1,1.7655568E0,-6.8475604E-1,1.4888479E0,1.3134444E0,1.19673625E-1,-9.767228E-1,1.315848E-1,1.823051E-1,1.2907532E0,-8.84961E-2,1.21640205E-1,1.0751163E0,1.21898375E-1,-7.8439075E-1,1.1481528E0,-4.2621267E-1,1.162297E0,8.606564E-1,1.2235314E-1,3.2352835E-1,1.21880375E-1,-9.563099E-1,1.4254943E0,1.6817081E0,1.23355545E-1,1.674388E0,1.2252708E-1,1.8113042E0,1.239002E-1,-4.3699843E-1,1.1499467E0,6.532088E-1,1.2177372E-1,-3.9837826E-2,1.2220116E-1,1.0562882E0,1.2189325E-1,-5.0925845E-1,1.215468E-1,-1.0959816E-1,1.2656716E-1,-1.7607411E-2,1.4639251E-1,-1.9510344E-2,1.739056E-1,1.9875154E-1,1.5083317E-1,-8.352514E-2,1.8312447E-1,4.3740574E-2,1.5372205E-1,1.389398E-1,1.21810034E-1,-1.2223827E-1,1.3847457E-1,-6.9984615E-2,1.2321609E-1,1.684979E-1,1.2200015E-1,2.2782048E-2,1.2035576E-1,-9.3576245E-2,1.2440025E-1,3.7330043E-2,1.6288424E-1,-9.388973E-2,1.4214729E-1,5.9374284E-2,1.2925446E-1,4.684775E-2,1.1497849E-1,-1.4285009E-1,1.2721698E-1,-1.0619318E-1,1.739244E-1,1.681309E-1,1.21909E-1,2.0250838E-1,1.2363396E-1,1.3113885E-1,1.9271037E-1,2.1805249E-1,1.2404976E-1,-8.477746E-2,1.3785231E-1,4.1651957E-2,1.3840939E-1,-2.4793109E-2,1.2713753E-1,2.7059918E-2,1.1968374E-1,-1.5063708E-1,2.8593455E-2],"categories":[],"categories_nodes":[],"categories_segments":[],"categories_sizes":[],"default_left":[0,0,0,0,0,0,0,0,0,0,0,0,0,0,0,0,0,0,0,0,0,0,0,0,0,0,0,0,0,0,0,0,0,0,0,0,0,0,0,0,0,0,0,0,0,0,0,0,0,0,0,0,0,0,0,0,0,0,0,0,0,0,0,0,0,0,0,0,0,0,0,0,0,0,0,0,0,0,0,0,0,0,0,0,0,0,0,0,0,0,0,0,0,0,0,0,0,0,0,0,0,0,0,0,0,0,0,0,0,0,0,0,0,0,0,0,0,0,0,0,0,0,0,0,0,0,0,0,0,0,0,0,0,0,0,0,0,0,0,0,0,0,0,0,0,0,0,0,0,0,0,0,0],"id":10,"left_children":[1,3,5,7,9,11,13,15,17,19,21,23,25,27,29,31,33,35,37,39,-1,41,43,45,47,49,-1,51,53,55,-1,57,59,61,63,65,67,69,71,73,-1,75,77,79,-1,81,83,85,-1,87,-1,89,91,93,95,97,-1,99,101,103,105,107,109,111,-1,113,-1,115,117,-1,-1,119,-1,121,123,125,127,129,-1,131,-1,133,135,137,-1,139,-1,141,-1,143,145,147,-1,-1,-1,149,-1,151,-1,-1,-1,-1,-1,-1,-1,-1,-1,-1,-1,-1,-1,-1,-1,-1,-1,-1,-1,-1,-1,-1,-1,-1,-1,-1,-1,-1,-1,-1,-1,-1,-1,-1,-1,-1,-1,-1,-1,-1,-1,-1,-1,-1,-1,-1,-1,-1,-1,-1,-1,-1,-1,-1,-1],"loss_changes":[7.605966E3,2.082054E3,5.091914E2,1.0766528E3,3.5875235E2,3.7590985E2,7.7246094E0,6.100718E2,2.0703186E1,2.9866797E2,5.029419E0,3.8906152E2,2.2507324E0,1.852121E1,2.3925781E-2,2.8080518E2,4.0713058E2,1.679588E1,1.3122559E0,2.298501E2,0E0,1.2539032E1,2.3718262E-1,3.412708E2,2.4501953E0,3.8851318E0,0E0,2.7491016E1,5.1776123E-1,1.1211243E0,0E0,2.4264307E2,1.9912231E1,3.3409033E2,3.479309E-1,1.5062096E1,7.3894806E0,5.87354E0,5.8898926E-3,1.6211162E2,0E0,1.50629635E1,1.30867E-1,2.9447784E0,0E0,2.1615254E2,3.9021606E0,4.0075684E0,0E0,6.541107E0,0E0,2.4714333E1,7.412033E-1,2.8591857E0,1.7242432E-2,1.15047E1,0E0,1.9760254E2,7.020961E1,2.0899014E1,1.4589386E0,2.5602374E2,3.949936E0,6.169739E-1,0E0,6.8081503E0,0E0,8.676889E0,2.870636E-1,0E0,0E0,8.063278E-1,0E0,1.19441925E2,1.814344E1,1.2080619E1,7.636843E-1,1.9551647E-1,0E0,7.4558935E0,0E0,1.2009082E2,2.0076065E0,6.360565E0,0E0,4.1704407E0,0E0,9.201736E0,0E0,2.1858307E1,2.4829464E0,1.6702014E0,0E0,0E0,0E0,6.758857E-1,0E0,3.5256975E0,0E0,0E0,0E0,0E0,0E0,0E0,0E0,0E0,0E0,0E0,0E0,0E0,0E0,0E0,0E0,0E0,0E0,0E0,0E0,0E0,0E0,0E0,0E0,0E0,0E0,0E0,0E0,0E0,0E0,0E0,0E0,0E0,0E0,0E0,0E0,0E0,0E0,0E0,0E0,0E0,0E0,0E0,0E0,0E0,0E0,0E0,0E0,0E0,0E0,0E0,0E0,0E0,0E0,0E0,0E0],"parents":[2147483647,0,0,1,1,2,2,3,3,4,4,5,5,6,6,7,7,8,8,9,9,10,10,11,11,12,12,13,13,14,14,15,15,16,16,17,17,18,18,19,19,21,21,22,22,23,23,24,24,25,25,27,27,28,28,29,29,31,31,32,32,33,33,34,34,35,35,36,36,37,37,38,38,39,39,41,41,42,42,43,43,45,45,46,46,47,47,49,49,51,51,52,52,53,53,54,54,55,55,57,57,58,58,59,59,60,60,61,61,62,62,63,63,65,65,67,67,68,68,71,71,73,73,74,74,75,75,76,76,77,77,79,79,81,81,82,82,83,83,85,85,87,87,89,89,90,90,91,91,95,95,97,97],"right_children":[2,4,6,8,10,12,14,16,18,20,22,24,26,28,30,32,34,36,38,40,-1,42,44,46,48,50,-1,52,54,56,-1,58,60,62,64,66,68,70,72,74,-1,76,78,80,-1,82,84,86,-1,88,-1,90,92,94,96,98,-1,100,102,104,106,108,110,112,-1,114,-1,116,118,-1,-1,120,-1,122,124,126,128,130,-1,132,-1,134,136,138,-1,140,-1,142,-1,144,146,148,-1,-1,-1,150,-1,152,-1,-1,-1,-1,-1,-1,-1,-1,-1,-1,-1,-1,-1,-1,-1,-1,-1,-1,-1,-1,-1,-1,-1,-1,-1,-1,-1,-1,-1,-1,-1,-1,-1,-1,-1,-1,-1,-1,-1,-1,-1,-1,-1,-1,-1,-1,-1,-1,-1,-1,-1,-1,-1,-1,-1],"split_conditions":[6E0,2E0,8E0,8.498789E-1,3.8826814E-1,1E0,9E0,1E0,9.403973E-1,1E0,4.5652175E-1,1E0,1E0,2.2841726E-1,1E1,5.431567E1,1E0,2.702162E0,4.7474366E-1,1E0,1.2244355E-1,4.047746E0,4.8928973E-1,1E0,2E0,2E0,1.2230372E-1,1.8733333E0,6.2567544E-1,1.185567E-1,1.21849336E-1,2.5641272E1,7.994213E1,4.4918033E-1,4.3542856E-1,1E0,4.137244E0,9.286077E-1,9.690141E-1,1.2659822E1,1.230407E-1,6.2903225E-1,4.815075E0,1.9558867E0,1.2185871E-1,2E0,7E0,7E0,1.2248496E-1,1E0,1.2264007E-1,7.742765E0,1.1208451E0,1.5925767E0,5.518222E-1,7.5384617E-1,1.2181204E-1,8E0,3.243243E-1,2.9166666E-1,3.918919E-1,3.5820897E0,4.5652175E-1,1E0,1.19673625E-1,1E0,1.315848E-1,6.447656E0,3.9310155E0,-8.84961E-2,1.21640205E-1,2.9819643E0,1.21898375E-1,1E0,1.3013698E-1,1E0,2.2082405E0,7.5384617E-1,1.2235314E-1,1.7783008E0,1.21880375E-1,6E-1,3.8826814E-1,2E0,1.23355545E-1,8.02005E-1,1.2252708E-1,7E0,1.239002E-1,2E0,2.8951073E0,9.018036E-2,1.2177372E-1,-3.9837826E-2,1.2220116E-1,3.3471075E-1,1.2189325E-1,2.3064451E0,1.215468E-1,-1.0959816E-1,1.2656716E-1,-1.7607411E-2,1.4639251E-1,-1.9510344E-2,1.739056E-1,1.9875154E-1,1.5083317E-1,-8.352514E-2,1.8312447E-1,4.3740574E-2,1.5372205E-1,1.389398E-1,1.21810034E-1,-1.2223827E-1,1.3847457E-1,-6.9984615E-2,1.2321609E-1,1.684979E-1,1.2200015E-1,2.2782048E-2,1.2035576E-1,-9.3576245E-2,1.2440025E-1,3.7330043E-2,1.6288424E-1,-9.388973E-2,1.4214729E-1,5.9374284E-2,1.2925446E-1,4.684775E-2,1.1497849E-1,-1.4285009E-1,1.2721698E-1,-1.0619318E-1,1.739244E-1,1.681309E-1,1.21909E-1,2.0250838E-1,1.2363396E-1,1.3113885E-1,1.9271037E-1,2.1805249E-1,1.2404976E-1,-8.477746E-2,1.3785231E-1,4.1651957E-2,1.3840939E-1,-2.4793109E-2,1.2713753E-1,2.7059918E-2,1.1968374E-1,-1.5063708E-1,2.8593455E-2],"split_indices":[6,0,6,5,5,1,6,8,5,8,5,8,8,5,6,2,7,4,4,1,0,4,5,7,0,0,0,3,4,5,0,4,2,5,5,8,2,2,5,4,0,3,4,4,0,0,6,6,0,7,0,4,4,2,2,3,0,3,5,5,5,3,5,1,0,1,0,4,4,0,0,4,0,7,5,7,2,3,0,2,0,5,5,0,0,3,0,6,0,0,2,5,0,0,0,3,0,4,0,0,0,0,0,0,0,0,0,0,0,0,0,0,0,0,0,0,0,0,0,0,0,0,0,0,0,0,0,0,0,0,0,0,0,0,0,0,0,0,0,0,0,0,0,0,0,0,0,0,0,0,0,0,0],"split_type":[0,0,0,0,0,0,0,0,0,0,0,0,0,0,0,0,0,0,0,0,0,0,0,0,0,0,0,0,0,0,0,0,0,0,0,0,0,0,0,0,0,0,0,0,0,0,0,0,0,0,0,0,0,0,0,0,0,0,0,0,0,0,0,0,0,0,0,0,0,0,0,0,0,0,0,0,0,0,0,0,0,0,0,0,0,0,0,0,0,0,0,0,0,0,0,0,0,0,0,0,0,0,0,0,0,0,0,0,0,0,0,0,0,0,0,0,0,0,0,0,0,0,0,0,0,0,0,0,0,0,0,0,0,0,0,0,0,0,0,0,0,0,0,0,0,0,0,0,0,0,0,0,0],"sum_hessian":[1.2542886E4,7.935241E3,4.607644E3,6.667827E3,1.2674141E3,1.01977234E3,3.5878716E3,6.383391E3,2.844364E2,6.995665E2,5.6784753E2,7.059369E2,3.1383545E2,3.2025784E2,3.2676138E3,5.4633125E3,9.2007837E2,4.1810547E1,2.4262584E2,5.219917E2,1.7757489E2,7.418189E1,4.9366565E2,5.448935E2,1.6104338E2,1.5670265E2,1.5713281E2,9.298438E1,2.2727347E2,3.0123264E2,2.966381E3,5.4090493E3,5.4263397E1,7.5453485E2,1.6554352E2,1.507266E1,2.6737885E1,7.8193426E0,2.348065E2,4.3730554E2,8.468612E1,2.3761112E1,5.0420776E1,3.466102E1,4.590046E2,4.6285648E2,8.2037025E1,8.507699E1,7.596639E1,8.312943E1,7.357322E1,4.374703E1,4.923735E1,6.5250745E0,2.207484E2,3.921591E1,2.6201672E2,5.2925977E3,1.1645145E2,2.3558908E1,3.0704489E1,6.756511E2,7.8883766E1,1.0846635E2,5.7077168E1,1.1344016E1,3.7286444E0,9.175849E0,1.7562035E1,1.6071007E0,6.2122416E0,7.5611496E0,2.2724535E2,3.885303E2,4.8775253E1,1.2512069E1,1.1249044E1,2.0993226E0,4.8321453E1,4.2766285E0,3.0384392E1,4.2105273E2,4.180374E1,4.3128853E1,3.8908173E1,4.811642E1,3.6960567E1,4.4844517E1,3.8284916E1,2.9052895E1,1.4694136E1,2.841688E0,4.6395664E1,1.3178152E0,5.2072597E0,6.3138795E0,2.1443451E2,4.292281E0,3.492363E1,5.257007E3,3.559063E1,7.7098526E1,3.9352917E1,1.4644191E1,8.914718E0,1.6121038E1,1.458345E1,6.375808E2,3.80703E1,3.513671E0,7.5370094E1,5.9616814E1,4.8849537E1,1.0318804E1,1.0252128E0,5.004288E0,4.1715612E0,2.325104E0,1.5236931E1,1.0318253E0,6.5293245E0,3.615993E2,2.6930984E1,1.8741829E1,3.0033424E1,9.832884E0,2.679184E0,2.200281E0,9.048764E0,1.0020949E0,1.0972277E0,1.4844464E0,2.7921822E0,4.0523474E2,1.5818E1,1.8348412E1,2.3455332E1,2.4152647E1,1.8976206E1,2.0003036E1,2.8113384E1,2.7059406E1,1.7785112E1,2.3735788E1,5.317106E0,3.62314E0,1.1070995E1,1.180578E0,1.6611099E0,1.0024698E0,5.3114095E0,1.8646791E0,2.427602E0],"tree_param":{"num_deleted":"0","num_feature":"9","num_nodes":"153","size_leaf_vector":"1"}},{"base_weights":[2.8239654E-3,-5.676047E-1,9.998762E-1,-7.8162915E-1,5.647307E-1,3.8745633E-1,1.1760588E0,-8.6252975E-1,1.0628887E0,1.0086165E-1,1.1476666E0,-3.7559979E-3,1.2743558E0,1.023346E0,1.1910974E0,-9.9301356E-1,-1.0631103E-1,4.21485E-1,1.1753434E0,-2.6196966E-1,1.1985687E-1,8.9655894E-1,1.1857455E0,-3.923212E-1,1.3173895E0,1.349677E0,1.1973373E-1,6.474071E-1,1.1800038E0,1.1678189E0,1.1934208E-1,-1.0185877E0,1.0932091E0,-4.220288E-1,1.248376E0,-8.655525E-2,1.1619699E0,7.51168E-1,1.1893326E0,-5.365088E-1,1.20360695E-1,3.0959824E-1,1.1829752E0,1.0807459E0,1.1934636E-1,-7.133997E-1,1.4104339E0,1.4194832E0,1.1988824E-1,1.4768583E0,1.20038055E-1,9.265932E-2,1.158821E0,8.579355E-1,1.1892939E0,9.977569E-1,1.1930233E-1,-1.101111E0,-4.9323094E-1,5.329904E-1,1.7875137E0,-7.0155364E-1,1.2154868E0,1.2918526E0,1.19139664E-1,-6.626829E-1,1.1985661E0,6.185148E-2,1.1989371E-1,-9.881404E-2,1.1469563E0,1.0427353E0,1.19376205E-1,-7.2526205E-1,1.3330978E0,-3.5780856E-1,1.1649371E0,8.1968963E-1,1.1974181E-1,3.0534714E-1,1.1930015E-1,-9.205936E-1,1.3777152E0,1.5847801E0,